,0,1,2,3,4,5,6,7,8,9,10,11,12,13,14,15,16,17,18,19,20,21,22,23,24,25,26,27,28,29,30,31,32,33,34,35,36,37,38,39,40,41,42,43,44,45,46,47,48,49,50,51,52,53,54,55,56,57,58,59,60,61,62,63,64,65,66,67,68,69,70,71,72,73,74,75,76,77,78,79,80,81,82,83,84,85,86,87,88,89,90,91,92,93,94,95,96,97,98,99
intolerance,-0.003704852,8.40E-05,-0.0040932,-0.000697406,0.000341017,-0.002840723,-0.004756617,0.001212084,-0.002124125,0.002131981,-0.002170434,0.003900745,-0.001288308,0.000938863,0.002494638,0.003813506,0.00095018,0.002914182,-0.00490069,0.002048945,-0.004150185,0.001972994,-0.001047751,-0.004508188,0.002226388,0.003356907,0.002271963,-0.001392961,-0.003615042,-0.00424712,-0.000568622,-0.002486195,-0.001171608,0.001510343,0.001263807,0.003831791,-0.001529999,0.00243393,0.000543859,-0.004279,-0.00085888,-0.003257046,-0.003384591,-0.001262018,-0.002209825,-0.004347231,-0.001560262,0.002324347,0.003652833,0.002478429,-0.004032983,-0.003134513,0.002400732,-0.000688668,0.000488542,0.004423344,-0.000847712,-0.002722734,0.001191154,-0.001598095,0.000662099,0.003546649,-0.002285565,-0.00372052,-0.002899994,-0.00413096,0.000971767,0.000351764,0.001477561,0.003729141,0.000341798,-0.000591665,0.001927421,-0.001109869,-0.003007005,0.004374982,-0.000777587,-0.000270184,-0.003919223,0.002893794,0.001458652,0.001168505,-0.004037369,-0.00121701,-0.003204996,-0.004648024,0.000717082,-0.003845783,-0.001643868,-0.003440345,0.004751359,-0.003295215,0.003130483,0.004177653,0.000871553,0.001817907,-0.000443101,-0.004458334,-0.004532978,0.001017546
love,-0.001383719,0.004944714,-0.001434666,0.004974513,-0.001418672,-0.001886479,-0.004893383,0.000536852,0.000213606,0.000195039,-0.004934019,-0.004487506,0.0011038,-0.001044207,-0.003664336,-0.001885574,-0.00215095,0.001831876,-0.00304253,-0.001091442,0.003628361,0.003795793,0.001239288,-0.002244545,0.003884531,0.00294783,0.001547115,-0.000648605,-0.000283374,-0.000703447,-0.000224411,0.001174411,0.003669214,0.003433495,0.001368291,-0.001239158,-0.004003025,0.002248265,0.000208024,-0.002332029,-0.004683863,0.003698021,0.002971185,-0.00201656,0.003517629,-0.002416512,0.003671511,-0.003519689,-0.00192,0.00102773,-0.003420746,-0.002133892,-0.004156254,0.000342859,0.002467721,0.002798204,0.003543718,-0.000483743,-0.002860278,0.002130935,0.001798617,-0.001730946,0.00015649,0.00481919,-0.004869362,-0.000412222,0.000725459,0.001818232,-0.000562117,-0.001458518,0.003995895,0.004780593,-0.00320616,0.00010755,-0.004763735,-0.004980924,-0.001720077,0.00114734,0.00200687,0.003580207,-0.001993132,-0.000890341,0.002783853,0.000843551,0.00131359,0.004692799,0.001717471,-0.001178836,0.003594081,-0.003102581,0.000719733,0.001482141,0.000695332,0.001372682,0.002852375,0.001326065,-0.003785354,0.002166132,0.0007301,0.003451352
struggle,-0.001570683,-0.003057109,-0.00144616,1.81E-05,-0.002250546,-0.003715281,-0.004766503,-0.004399974,-0.001217653,0.003963979,0.000414708,-0.004991184,0.00250293,-0.000760866,0.003025858,0.002255181,-0.002545649,0.003831663,-0.003270624,0.003755063,0.004549202,-0.004274034,-0.002319121,-0.001257245,-0.001899786,-0.000912022,0.002941443,0.003482703,0.000247547,-0.000859691,0.004495018,-0.002018188,-0.004470103,-0.00410853,0.002688884,-0.001956786,0.000794109,-0.004634266,0.003872914,-0.004316033,0.000461328,-0.001002235,0.00119468,-0.003917761,0.001324796,0.003797349,0.004078475,-0.004501291,-0.001766852,0.002786253,0.001249132,-0.001476685,-0.001167825,-0.000831081,-0.003692408,0.001618937,0.00291291,-0.004600271,0.002088132,0.004137317,-0.003704775,0.001408102,0.003014571,-0.0046682,0.002451262,-0.002192657,-0.002387093,0.000283451,-0.002254565,0.00438871,0.001999525,-0.002033274,0.002482013,0.003851282,-0.000105829,0.003657686,-0.003645132,-0.003675154,-0.000100642,0.000481766,-0.001397459,0.002610953,0.003324114,-0.002967366,-0.004736001,0.002585574,0.003012338,0.00462942,7.96E-05,-0.001532307,0.004913193,0.003313537,0.000361216,0.002351147,0.003254472,0.002323933,-0.002366426,-0.004936806,0.003603705,0.002014374
throughout,0.00243293,-0.00400736,-0.001178484,0.000354619,-0.003695993,-0.003321703,0.00448032,0.00178956,0.001373569,-0.003983784,0.004635924,0.001184825,-0.00092774,-2.34E-05,0.003359919,-0.000959501,0.002619066,-0.003563868,-0.002721203,-0.004246855,0.001041689,-0.004144316,-0.003337844,-0.004094462,-0.003774317,0.002457248,-0.004294954,-0.004052172,-0.004337942,-0.003417114,-0.002922637,-0.003110691,0.000165946,-0.000815053,0.000720792,-0.000577075,0.002639632,0.000810322,0.00344543,-0.003305208,-0.00287601,1.22E-05,3.18E-05,0.00175233,0.000323656,0.001279291,0.00401143,-0.002397877,0.004018995,0.001692658,0.002744983,8.02E-05,0.004486914,-0.00393447,-0.004802611,-0.003115303,-0.004082881,-0.002391411,0.003372727,-0.002686314,0.003371169,-0.000560503,-0.003957012,-0.001359948,-0.00124056,-0.001282901,0.000459215,-0.002114389,-0.004443188,-0.001610844,0.004403083,-0.003780715,-0.003083854,0.004674872,-0.004521313,0.002850216,-0.000976985,0.004084969,0.000997764,-0.003385436,-0.004154794,0.00115943,0.004557801,0.001277896,0.004100001,0.000145663,-0.003500276,-0.001902564,0.00200501,-0.003566759,-0.004038708,0.000703995,-0.001527402,0.00222367,0.000220529,0.003340116,-0.001565976,-0.000378104,0.000877858,-0.000472856
the,-0.000520627,0.002466786,0.002198709,-0.004548091,-0.004212905,-0.001983976,0.004251455,-0.004358165,-0.001501335,0.003524107,0.002328004,0.002223587,-0.002396847,-0.003958695,-0.002573741,-0.000288617,-0.000250729,-0.000514314,-0.001531813,0.004824513,-0.000825493,0.004805759,-0.001112343,-0.003332964,0.004853839,0.002637224,0.002029614,-0.003675554,-0.000458186,-0.001962752,0.000103749,0.003763344,0.000296273,0.001910861,-0.003622996,0.001831573,-0.001407688,-0.003630686,-0.002991754,-0.002096299,0.004043501,0.00420004,-0.001166958,-0.004023832,0.002985133,0.000566087,-0.002968463,-0.003364041,0.003357258,0.002095021,0.004352877,-0.003693624,-0.000777444,0.000776043,0.001328026,0.000368261,-0.003886628,0.000106003,-0.001112158,-0.001078957,0.000145739,0.00416436,0.000275677,-0.002187657,0.002107497,0.000481103,0.003954872,-0.001748731,0.004927506,-0.002245397,0.002138279,-0.000941873,-7.62E-05,-0.003372816,0.002867423,0.002567023,8.03E-05,0.003451641,-0.001184716,-0.002585704,0.002756883,0.00119718,0.000428687,0.002933065,0.001237482,-0.004376208,0.004451221,0.000109105,-0.001210489,-0.004462909,0.002527111,0.003750006,-0.000222405,0.00126096,-0.001692413,-0.004222321,0.003677042,-0.003387278,-0.003950728,0.002688467
ages,0.001426138,-0.004226708,0.003954646,0.004842812,0.002925199,-0.001471742,0.001619084,0.002026844,-0.001959728,-0.004883557,-0.002409831,0.000612067,0.00385104,-0.003612671,-0.002875194,-0.000574893,0.003912702,0.002179093,-0.000130539,0.001430159,0.00066243,-0.000558864,0.004957056,-0.000885899,-0.004015653,-0.001686468,0.000806686,0.004876291,0.001596529,0.003143419,-0.001670885,-0.001835499,-0.003045101,-0.001250253,0.00131755,-0.0040133,-0.000321003,-0.004595852,-0.000563181,-0.002641452,0.002567391,-0.004939674,0.001719272,0.000348396,-0.002986706,-0.00396647,0.001252017,0.003013836,0.00152347,-2.46E-05,-0.001688593,0.002819513,0.00156603,-0.004101923,-0.000239374,0.004021201,-3.04E-05,0.000355543,-0.002740616,-0.004287768,0.002177914,0.003648704,0.003403117,-0.00024588,0.002662182,0.003794453,0.004105386,-0.000851324,0.003755445,-0.003975514,-0.000485389,-0.004858438,0.000983068,-0.001903247,0.00166998,-0.003854542,-0.004118945,-0.001802674,0.003866858,-0.003400714,-0.001936976,-0.003350542,0.00154518,0.001214844,0.004034449,0.004083158,0.004989809,-0.003503891,0.001226956,0.002485144,-0.003861532,-0.003073508,4.10E-05,0.000941289,-0.002597466,0.003842656,0.001634337,-0.001506965,-0.001129078,0.000702407
over,0.003732887,0.004596484,0.003393161,0.001639819,0.00417363,0.004636944,-0.002948193,-0.002303783,-0.004415276,0.004012916,0.002849143,0.000441215,-0.000314967,-0.000945236,-0.001315635,-0.004736661,0.001797696,0.003214613,0.002218642,-0.004900625,0.001118413,-0.003873438,0.003538185,0.002268812,0.003413485,-0.001322507,0.003792988,0.002560069,-0.001145214,4.06E-05,-0.000161636,-6.48E-05,-0.002217468,-0.003574167,0.004738175,0.004543135,-0.002994216,0.000455794,-0.000804875,-0.002610428,-0.000377592,-0.00025753,0.00391482,0.0036133,-0.000788684,0.000533262,-0.000954539,0.000553458,0.004828528,0.001989207,-0.003106316,-0.003907404,0.0018445,-0.000427403,-0.004188458,0.001466887,0.001226844,0.002316493,-0.00332587,0.00409588,0.002968599,-0.000429411,0.003842783,0.002600348,0.004861173,0.002639426,-0.000700265,-0.001644416,-0.00127086,0.000586657,0.004496181,0.004561457,0.001174457,-0.001059488,0.000744597,0.002101492,0.004437851,-0.000663708,-0.002837287,-0.003168724,0.003138506,-0.004459125,-0.00234486,-0.001285091,0.003337045,0.000435201,0.003681732,-0.004222537,-0.000108402,-0.004866286,-0.002258426,0.004125045,-0.004449097,-0.001917949,-0.001338807,0.004333699,-0.003927991,0.00122373,0.000216819,0.001029758
hill,0.001161395,-0.00245635,-0.000767411,0.00215769,0.002301003,0.002133835,0.004385563,0.002183486,0.004442615,0.000167005,-0.004817279,0.003329554,0.003485282,0.002848934,-0.004276848,0.004597753,0.002900147,0.002827905,-0.003773113,0.004466744,0.001692887,0.003368872,6.79E-06,0.004137,-0.002162147,-0.00128351,0.000895036,-0.00150925,0.000162687,0.002861084,0.004953849,0.004779602,0.001095593,0.00189097,0.000703189,0.000989455,-0.00396999,-0.004526911,-0.001358841,-0.001869924,-0.000694306,-0.004554106,0.003537263,-0.001831391,0.002026381,-0.002690093,0.002630483,-0.001819155,-0.00431818,-0.004797927,-0.004971371,-0.001024577,0.000224958,-0.00068475,-0.003037119,0.001123213,0.000641374,0.003253692,-0.001903423,-0.004900992,-0.004577086,-0.002780961,0.00192606,0.000174967,-0.001792669,0.001012451,0.001843204,-0.004650811,0.003717934,-0.003496009,0.004545535,0.002829783,-0.004116186,-0.004363791,0.000458222,0.004325855,-0.002483732,-0.002765043,0.004882523,-0.000100334,0.00129185,0.004738533,0.002107204,0.002581141,-0.001413937,-0.002949538,-0.00041395,0.00472246,0.004926083,-0.000775619,0.000800765,0.002606773,-0.004315802,-0.002494579,0.001460355,-0.000511914,-0.001289813,0.004879564,-0.004422269,-0.003111025
to,-3.67E-05,-0.003805744,-0.004770601,0.003188347,-0.002547693,-0.002935133,0.002141292,-0.00387213,0.001214106,-0.001769499,-0.003367383,-0.002678142,-0.001479357,0.00159203,0.00429566,-0.001555828,0.00205799,0.004176651,-0.004146735,0.004873424,-0.001352584,-0.003112691,-0.003991822,-0.004716812,0.001758631,0.000866294,0.000607767,-0.001502691,-0.002997276,-0.001975575,0.001665571,-0.000337278,0.004694603,0.000581057,-0.00471173,-0.00329029,0.004285454,-0.002206909,-0.003458807,-0.004999408,0.004415492,0.00234344,0.000418034,-0.004076063,0.002293595,0.004813247,0.003280595,-0.004209124,0.004806728,-0.002654522,0.004132831,0.000321495,-0.00182207,0.003594158,-0.000273979,-0.004814985,-0.002008805,-0.004626728,-0.003648964,0.003176381,0.000137978,-0.003460035,-0.004725601,-0.002533698,0.004162396,-0.001440409,-0.002692257,-0.002590974,0.000915694,0.003652552,-0.003697383,-0.002212187,-0.000612793,0.001831612,0.000593496,-0.002175309,-0.004635088,0.001562481,0.00308019,-0.004604714,0.001328306,-0.000951701,0.003790531,0.00457732,-0.000138067,-0.001732718,-0.003760693,0.001770605,-0.003517462,0.003560767,-0.000563001,-0.001702602,-0.000499992,-0.004081938,-0.003540982,0.001938788,0.001385462,0.00137315,0.00453295,-0.000542702
poorhouse,0.004891867,-0.0026346,0.000589125,0.002387669,-0.001858906,-0.003131083,-0.004804598,0.000761101,-0.004154713,-0.004343127,0.000364028,-0.004986279,-0.004939144,0.004260638,-0.004398767,-0.002638334,-0.002575193,-0.001914233,0.003173683,-0.004035596,-0.003869251,0.004867254,0.004619744,0.004103736,0.001636711,-0.004312157,0.004819295,0.004407556,0.001070741,-0.004400005,0.000193064,-0.000578781,0.004510956,-0.003021139,0.003923614,0.003261581,-0.000760145,0.000923776,-0.001009705,-0.000158137,0.004763782,0.003292491,0.000680597,0.001579498,0.002542371,-0.004185115,-0.00432332,-0.000724419,0.002628294,-0.001292462,0.003080514,-0.002175434,-0.003342088,-0.003717558,-0.00033143,-0.001336187,0.001676049,0.004398422,-0.000507666,-0.002573662,0.00254314,-0.004618271,-0.002109367,0.003812546,0.000572965,0.003927433,-0.004533535,0.00467239,0.000736026,-0.003731077,0.002034316,0.00406659,-0.004612004,4.73E-05,-0.002993552,-0.004339555,0.003573159,-0.004629321,0.000895851,-0.001669493,0.002286733,-0.003027344,-0.000716412,0.000260529,0.003112966,-0.001499222,-0.000988254,-0.004980954,0.004121142,-0.000897262,-0.000721041,-0.002381404,-0.002833205,-0.004999826,0.001749483,-0.001378975,0.004849838,-0.00196221,0.00091057,0.00328484
big,-0.000402435,0.003203315,-0.002567541,0.004496498,-0.000952096,0.003236975,-0.000494078,-0.004892228,-0.002401492,0.003349704,0.004548667,0.001804241,-0.004144446,-0.000385233,0.003081159,0.004014134,0.001133309,-0.002085262,0.001278138,0.003669518,-0.004611693,-0.000134313,0.003136472,-0.00188028,0.002043363,0.003181866,0.000205779,0.00498656,-0.001915186,0.001665504,0.001118318,0.003812456,-0.00381421,-0.001262798,7.90E-05,-0.00354258,0.001566882,-0.000887172,-0.000152098,-0.000174408,-0.003884699,0.004089071,-0.000998429,-0.003037026,0.001049116,0.003888345,-0.003588774,-0.001937133,0.00358319,-0.000845409,-0.001611081,0.002662794,-0.000566919,0.003870194,0.003120345,-0.004171484,0.003956022,0.003327542,-0.000547343,-0.000388389,-0.003948087,0.004101878,0.003422436,-0.000710637,0.003877808,-0.000758569,0.002801888,-0.002819878,0.001381503,-0.002858196,0.003131187,-0.002952201,-0.001186854,-0.001708819,-0.002045976,0.003023296,0.000581844,0.000263358,0.000670751,0.000721814,0.003697465,-0.001975629,-0.00293892,0.001185617,0.004699558,-0.002065498,0.004332447,-0.003248383,-0.004616362,0.004425767,0.003254562,-0.003021123,0.002789888,-0.004189572,0.001227401,-7.87E-05,-0.002791101,-0.003685029,-0.000362623,-0.003658201
parade,-0.001416328,-0.003258798,0.002420858,0.002183446,-0.004011089,-0.004311922,-0.001033798,-0.001608334,-0.003437555,-0.000791586,-0.0020386,-0.003400771,0.002756417,0.003705818,-0.001232022,-0.001050614,-0.004414944,-0.00121834,0.003377437,-0.000891448,-0.001415783,-0.000173744,-0.000631506,0.001643552,-0.003167707,-0.001351067,-0.003992586,-0.004881269,-0.001259478,0.001503802,-0.002415282,9.88E-05,0.003421819,0.0043173,-0.004962074,0.00123746,-0.003146906,-0.004276327,0.001655935,0.003012432,-0.002939564,-0.004135327,-0.001744173,-8.50E-05,-0.000901213,0.004642865,-0.002259317,-0.004174438,-0.002029665,-0.000143672,0.001378497,-0.000112029,-0.002050124,-0.002652643,-0.001870883,0.004254576,0.004426291,-0.000792684,0.00450215,0.002830375,0.004938317,0.004951181,0.004163376,-0.002275363,0.004531614,0.004632065,-0.003191161,0.001692802,0.000261551,-0.001141749,-0.003066269,-0.004163447,0.002612155,-0.002162082,0.004057183,-0.00241703,-0.003380865,-0.002892769,9.10E-05,-0.000685047,-0.004442191,0.003616471,0.000865749,0.000448115,-0.004391838,-0.001833415,-0.003516001,0.002863683,0.003323592,0.002434495,0.004379304,-0.00312833,-0.003067329,0.004763784,0.000873578,0.004421509,-0.001343279,-0.003048139,-0.001431641,-0.00425879
metropolis,0.004853556,-0.001890688,0.003007084,5.95E-05,0.004988086,0.001788506,0.001921727,-0.001632718,-0.00497292,0.00199622,0.002162236,-0.000593936,0.001460743,0.001689744,0.00364284,0.001405712,0.001094396,-0.003590453,-0.001173128,0.003477843,-0.003106813,-0.002059103,-0.000281058,-0.002886889,-0.002892746,-0.002983103,0.004428614,-0.003049347,0.004761589,0.001995893,-0.004093149,0.004512144,-0.00378826,0.000209283,0.002204042,-0.003273086,0.001316572,-0.000202486,-0.003048394,-0.004437734,0.001915393,-0.003702004,-0.002970333,0.000348098,0.001000138,-0.004983123,0.002909904,0.001217193,-0.004199295,0.001680047,0.003300625,-0.003461503,0.003528636,0.00192516,-0.003117147,-0.003152597,0.00492663,0.001329164,0.001943858,0.002427906,0.002840035,0.000751839,0.003840583,0.000377264,-0.000875694,-0.002674099,0.00194179,0.002128398,0.003661304,0.00061928,0.004491051,-0.00169931,-0.001238354,-0.004485842,0.004960647,0.002763816,-0.003710375,3.57E-05,-0.002097572,0.003996906,0.00351754,-0.001243589,0.004201725,-0.003077652,-0.002533103,-0.000984229,0.000544156,-0.003898069,0.002502811,-0.004788816,-0.001701172,-0.000393471,-0.00168415,0.004102166,0.000415205,0.003099176,0.002495433,0.003108195,0.002486814,0.003238961
pandora,0.001769626,0.00384892,-0.002002547,-0.003780842,0.000811484,-0.003233411,0.004859783,0.004532209,-0.00300895,0.003634118,-0.00268529,0.002857642,-0.001543026,-0.002209496,0.003635319,0.001656765,-0.001998588,-0.000959037,-0.002934201,-0.003885082,0.000280455,9.13E-05,0.003251933,0.003551919,0.000900889,0.004175135,0.004233873,0.000399421,0.002137398,-0.002908088,-0.003012044,0.003739816,-0.001279008,0.001136193,-0.002119725,0.00368045,0.004395109,-5.07E-05,-0.001064458,-0.002325336,-0.0001784,-0.004965048,-0.000818224,-0.003851393,0.000399516,-0.00069241,-0.002081944,-0.002970798,-0.00310143,-0.001606377,0.001283275,-0.001582883,-0.000352072,-0.004439806,0.004185021,-0.003106876,-0.001810066,-0.00475903,0.000247712,-0.004277309,0.004176896,0.003195776,-0.000220565,-0.003004945,-0.004526385,0.000299699,0.004865194,0.001132069,0.004541165,0.000884876,0.003640024,0.001866146,0.000471592,-0.003517327,-0.001353187,-0.001266028,0.001166224,-0.001009101,0.000595662,-0.002286982,0.001124267,0.002258551,0.001164699,-0.000757684,-0.001689229,0.004682066,-0.002538347,-0.003713614,-0.001480417,0.001995719,-0.001554107,0.003383567,0.00376826,-0.001334796,0.000587982,-0.004011257,0.002402237,-0.002596252,0.004263079,0.002473586
box,0.003418024,0.002661825,0.003553225,0.003066142,0.004562065,0.001211403,0.004158817,0.000145333,0.004840524,-0.001079652,-0.000405982,0.001985858,0.002314133,0.004320351,-0.002089199,0.001563209,0.004177988,0.004008377,-0.004255392,-0.000337858,-0.003259473,-0.001049625,0.004121271,-0.002798413,0.004924943,0.003749562,0.004475478,0.002951957,-0.002099588,0.000968799,-0.001605357,-0.003631009,-0.004707947,0.003124021,0.003695004,-0.000387675,-0.002818533,0.003161687,0.001431681,-0.000645757,-0.000162867,-0.000422728,0.003804968,-0.003456188,0.001795033,0.003286199,0.001255238,0.002201865,-0.002651578,0.00209439,0.003664338,0.004343532,-0.003860201,0.002612854,0.001257646,-0.004894618,0.000876823,0.001523782,0.000254856,-0.003948855,-0.003386164,0.000120496,-0.003603892,0.000971989,0.004394995,0.001840319,0.002438359,-0.002559299,-0.001728742,0.002866785,-0.004954913,-0.004589703,-0.003911739,0.003606636,0.004496636,0.000315253,0.002739532,-0.000500384,-0.003042854,-0.003116435,0.00448728,0.001572923,-0.001855082,0.000220641,-0.002596582,0.00205653,0.004405504,0.0041272,-0.003574379,-0.000484049,-0.000975883,-0.004108757,0.002115911,-0.001490261,0.004196398,-0.003497016,-0.000447712,-0.001587094,0.00089721,-0.001175802
broadway,-0.003934999,-0.000337658,0.002534632,0.000166949,-0.000556235,-0.004263063,0.003439587,-0.00457353,0.001847432,0.002392309,0.002423953,0.000815717,0.001172739,0.004695933,0.004598024,0.002727251,-0.002890331,0.000716094,-0.000867551,-0.003326545,-0.00227692,-0.001781865,-0.001171054,3.14E-05,-0.004001917,-0.003723993,-0.001873641,0.003252931,0.001104481,0.001794572,0.004235291,-0.001073801,-0.00341988,0.004059724,-0.002019492,-0.000337731,0.003047721,0.003745589,0.002466529,-0.003290024,0.004915504,0.002280181,-0.002288407,-0.001233415,-0.000278604,0.003867802,-0.004669999,0.001869756,-0.004651848,0.002346315,0.000998456,-0.00497516,-0.003418831,-0.004202535,0.00123888,8.68E-05,-0.002911502,0.002911185,-0.003321072,0.004020944,0.003480125,-0.002702045,-0.002222206,0.001047904,-0.002575392,0.003586589,0.004713769,0.002970547,0.003942205,-0.003123459,0.002030988,-0.001616106,-0.000860417,0.003597684,0.001681749,-0.004325389,-0.002589269,-0.004042512,-0.00311599,-0.004737867,-0.002353011,-0.002177267,0.000243853,0.000719722,-0.000804524,0.00151307,0.00305013,-0.003407311,0.002714085,-0.002623,0.000921017,0.002914833,0.001685618,0.004792817,0.004608592,0.003054173,-0.002668537,0.00200509,0.003591545,-0.001602214
melody,-0.004106186,0.001526251,0.002691057,-0.000676935,-0.003770737,-0.002963439,-0.002000453,0.001732001,0.004511517,0.004121918,0.000528386,-0.004632284,-0.003477443,-0.004262551,-0.003135298,-0.001898853,-0.004457644,-0.002102319,-0.003435356,0.003028429,0.002732153,0.004627306,-0.001304268,0.002720991,0.002267363,-0.000469002,-0.001810881,-0.001884758,0.00276057,-0.001514501,0.004014533,-0.003257148,-0.002078171,-0.004501401,0.002377268,-0.003703384,0.002659333,-0.003957132,0.002585797,-0.000117268,0.001641709,-0.004631151,-0.002454619,0.003495759,-0.000945309,-0.002955399,0.001946295,-0.004292132,-0.000436956,-0.002257733,-0.003491849,-0.00261903,-0.001685827,-0.001644232,0.000673274,-0.000385394,-0.000919363,0.002573039,0.004568581,0.004378647,-0.001956235,0.000345476,0.000166076,0.003272311,-0.003525351,-0.001021633,0.002061536,0.000717146,-0.001953461,-0.003862005,0.001893675,0.002394376,-0.003294394,0.00423294,0.002339705,-0.004518995,0.000606269,0.003088938,-0.003970264,-0.002207123,-0.004092875,-0.004354985,0.002010894,0.002870917,-0.002815793,0.002551812,-0.002740955,-0.002718099,0.001246791,0.003493699,0.00135106,0.004864752,0.003561788,-0.001928926,-0.001736879,-0.003689014,0.003434228,0.002664236,-0.002236035,0.001124362
hell,0.004324355,0.000246306,-0.000267954,0.00428066,-0.001150359,-0.004221398,-0.004952116,-0.001324023,-0.000713472,-0.000707781,-0.000614804,0.002703349,0.004015987,-0.003398525,-0.003168614,-0.000703604,-0.002919014,0.001038667,0.003459168,0.002595248,0.001708276,0.000485764,0.004097996,0.004276794,0.002074591,0.000414786,0.000264107,0.003373362,0.001829572,-0.001908419,-0.002852447,-0.002039528,0.003791798,-0.00491792,0.000508855,-0.000532384,-0.003372282,0.00025904,-0.000304374,0.003399387,0.003131538,0.00052437,0.001668658,-0.00192044,-0.003078417,0.003766156,-0.002084851,0.004137443,-0.004127246,-0.004782308,0.000117816,0.000842418,-0.002239331,0.004754731,-0.00181355,0.002997788,0.003300384,-0.004342787,8.18E-05,-0.000805963,0.001027385,0.003276926,-0.000785577,-0.003175708,-0.002478845,0.001198341,-0.001336979,-0.001270653,-0.002377324,-0.003673317,0.004995495,-0.004217749,-0.000193086,-0.004194377,0.004466974,0.003262484,-0.004589035,-0.004425687,-0.003079268,0.001427471,0.000511018,-0.00397805,0.000194744,-0.001883722,-0.001717329,0.002143171,0.001495573,0.000859806,-0.002470148,-0.002127272,0.001694555,-0.001819645,-0.00258985,-0.000254351,0.002187786,-0.001141073,0.003182578,-0.001702199,-0.002228582,0.004705512
angels,-0.002279885,-0.004712948,0.000981569,0.004640224,-0.003909112,0.00066483,0.003271641,-0.004437441,-0.002007248,0.002807946,0.000227164,-0.004991706,0.002410136,0.002180277,-4.76E-05,-2.47E-06,-0.003786822,0.004296544,0.001540175,-0.00486716,-0.001392825,-0.004620898,0.002934229,-0.002849679,-0.000741982,0.004888977,0.00227606,-0.003943124,0.002473329,0.00055885,0.003363723,-0.0005418,-0.003259478,-0.004596751,-0.003237773,0.002521274,-0.001731602,-0.002445951,0.001222935,-0.001422712,0.000780379,-0.000409515,-0.003972266,-0.004185598,-0.001755372,-2.96E-05,0.002303914,5.32E-05,0.002055946,-0.002594391,0.004305428,0.004160934,-0.004951234,-0.003750625,-0.001806692,-0.002126497,-0.001353035,0.002426092,-0.000823632,-0.002543793,-0.000674261,0.000398179,-0.003565021,-0.003580655,-0.002139393,0.004840386,-0.002778691,0.002773506,0.004068546,-0.001349166,0.001656637,-0.002841225,-0.000927317,-0.000690002,-0.003762859,0.004085422,-0.004493034,-0.000336754,-0.003066365,0.004457196,-0.003545098,0.000649165,-0.001828957,-0.001367766,-0.002875297,0.003585014,-0.002115835,0.000726269,-0.003757658,0.002789573,-0.003042075,-0.004423101,0.003827133,0.003826565,-0.00139076,-0.004948835,0.004017697,3.53E-05,0.00412261,-0.004620765
farewell,-0.002737455,0.003432242,0.003434882,0.003034212,0.004464286,0.003034526,0.002502759,0.000959584,0.001945834,-0.004220124,0.004496635,-0.001975607,-0.004045624,-0.000379468,0.004286122,0.002013147,0.001188024,0.002541913,-0.000755814,0.003811191,0.002518198,-0.004643568,-0.003080547,-0.002694102,0.004553932,-0.004010542,0.001783687,-0.002288952,0.001222244,0.003040775,0.000634039,0.001153414,0.00185184,-0.000367999,-0.003064216,-0.001974747,0.000669131,-0.00049375,0.001216409,-0.004417437,0.001246212,-0.004737373,-0.00355784,0.003590537,0.000366792,0.004199264,-0.00156347,0.003216314,0.002255454,-0.004153846,-0.000736216,0.003311683,0.003045047,-0.002538753,0.004435135,-0.001873661,0.003523356,0.000492979,0.00018743,0.003064809,-0.004815501,-0.000544982,0.000612374,0.001587862,-0.004667117,0.003526631,0.001845452,0.003053398,-0.003474348,0.000780414,-0.001784807,0.004451991,0.001417502,0.002024747,-0.004264355,-0.000696416,-0.004195188,-0.001251498,0.002125294,-0.000728104,-0.000486053,-0.000269046,-0.00333269,-0.001570212,0.001455233,0.003520958,0.002888235,-0.000703846,-0.00434795,0.001231786,-0.00264563,-0.002359222,-0.003075923,0.003558108,0.000802835,0.00034663,0.002147657,0.000212773,-0.003440165,0.004990106
arms,0.00206082,-0.001359085,-0.001950959,0.003364385,0.002717119,-0.003586502,-0.000894531,0.00285947,-0.003558792,-0.004943312,0.00364225,0.004958698,0.00155484,-0.002906396,-0.00452732,0.003401959,0.001134928,0.002841461,-0.003851285,0.002365192,-0.003220856,-0.001401838,0.001818944,0.002469289,0.004081108,-0.00088616,-0.004123162,0.002344601,-0.002202409,-0.001382332,0.002483453,0.002424135,-0.003321403,0.0033201,0.003284053,-0.00097418,-0.001137832,-0.001030713,0.003622975,0.003392249,0.004231509,0.001001106,-0.001956817,-0.00480865,-0.001396945,-5.22E-05,-0.000640695,-0.001296502,0.003577596,0.000306801,-0.004699528,-0.003008888,-0.002516566,0.002226145,-0.001466032,-0.002981321,-0.004258803,0.004060349,-0.004459321,-0.002125379,0.000706914,0.001518007,-0.002796174,-0.0030922,-0.000153166,0.00061625,-0.003805331,0.00105059,-0.000149505,0.000838718,0.002702879,-0.002338367,0.000353724,0.001729045,-0.002874279,-0.003003968,-0.003665895,-0.002951155,0.004415809,0.000773323,0.004967186,-0.001423206,-0.000276859,-0.004699821,0.00429357,-0.004392671,0.003886287,0.004834213,0.000262834,-0.003902993,-0.003654627,-0.003256358,0.001636387,0.002368653,0.003708329,0.004421811,0.000625148,0.001274103,0.003373535,0.003883726
nd,0.004741555,0.001857623,0.002941251,-0.004303264,0.003358112,0.004150198,0.003694068,-0.004157587,0.004488615,-0.001508458,0.002082424,-0.001498899,0.004153121,0.000433537,0.002507507,0.002477538,0.004482533,-0.002809509,0.001458912,-0.002382126,0.003664568,-0.00282099,-0.003773899,-0.002700443,0.001048574,0.002795693,-0.000134036,0.000265535,-0.004648121,-0.002243794,0.003560099,0.002409732,-0.001226309,-0.000944264,-0.004124026,0.002767351,-0.004906892,0.00292743,-0.003600775,-0.000865151,-0.003064261,0.003669939,-1.24E-05,0.002654615,0.004814235,-0.004692119,-0.002283855,-0.003800846,0.00146128,-0.004972262,6.38E-05,-0.004769836,-0.004354634,-0.003113958,-0.000147887,-0.004942783,2.29E-05,-0.00116642,0.003196394,-0.003976626,0.000806653,-0.000886884,-0.001818422,-0.004139829,-0.00023834,0.002303024,-0.001336913,0.002505283,-0.00450487,5.01E-05,-0.003005043,-0.00077618,-0.003095473,-0.002087078,-0.003810593,-0.004419582,-0.003136199,0.001246703,0.001271304,-0.00175919,-0.001741118,-0.003976433,0.00306297,-0.003978327,0.000390321,-0.004788364,-0.000556312,-0.001637892,0.001416156,-0.000947696,-0.003522215,-0.004154352,-5.01E-07,0.004255788,-0.001491097,-0.001391556,0.000242126,-0.002803553,0.001161949,-0.004636863
street,-0.00275792,0.004615148,0.000736158,0.000505626,0.00105145,-0.002354048,0.004813639,0.003295564,0.004064621,-0.001378565,-0.004878804,-0.000158018,0.003171171,0.004868847,-0.001987931,0.004561839,0.004447428,0.004153288,-0.003575075,-0.000703325,-0.000124696,0.002626379,0.004322458,-0.000360404,-0.000643694,0.004143358,-0.002356876,0.003141194,-0.002471977,0.004458836,0.004954306,-0.001844285,-0.001235893,-0.003004029,-0.000287975,0.003456388,0.000106384,-8.60E-05,0.002766967,-0.002756383,-0.002378277,-0.001613053,-0.003619472,0.002110985,0.003366149,-0.002126021,0.002063584,-0.00059847,0.004943271,-0.000500168,-0.0007785,0.002756956,-0.00323037,0.002991355,-0.004404613,-0.004450406,0.00126828,0.001004438,0.004985889,0.004197886,-0.000305027,0.000642279,0.001445913,-0.001321283,-0.001992885,0.000296281,0.000795336,-0.000470135,-0.00162264,0.004102998,-0.004908321,-0.000625348,0.003604011,0.00081758,0.004129963,0.001461481,0.0016049,-0.00055192,-0.00295791,-0.003287589,-0.001720307,-0.000909,-0.003329657,-0.001991561,-0.003824375,-0.000609817,0.00276076,-0.00490133,0.001316416,-0.000186768,-0.001961323,-0.001549886,-0.002290395,-0.000152859,-0.00299933,0.003686904,-0.000844122,-0.00026188,0.003073087,0.003696039
she,0.00101932,8.92E-05,-0.000664377,-0.002124896,0.002392017,-0.001109468,-0.003198938,-0.003917144,0.001148015,0.001371376,0.001792939,-0.004946821,0.001773017,-0.001795811,0.000771037,0.00028656,6.76E-05,0.003175411,0.000989647,-0.00245272,-0.00181244,-0.004511184,0.000116132,-0.003034693,-0.00067843,-0.002934479,-0.002885789,0.002169003,-0.004119221,-0.004578843,-0.001357979,-0.002391588,-0.004272877,0.000552364,0.004776319,-0.002913921,0.000355802,0.002193158,0.000441698,-0.003319067,0.001403663,-0.001802675,-0.003207516,-0.003706525,0.000228313,-0.002665614,-0.004597302,-0.003586631,-0.001220335,0.003287433,-0.0008892,0.003151901,0.003070247,0.003591418,-0.003634696,-0.003527062,-0.004510177,-0.000259514,0.002602177,-0.003645818,0.001302571,0.004691814,0.00475559,-0.000164721,-0.001559335,0.003296177,-0.001255926,-0.001849137,0.002186796,-0.000156534,0.003550314,-0.00108233,0.004447156,0.003262939,0.000442598,-0.003195453,0.002635577,-0.000833961,0.001098856,-0.001863933,0.000183395,-0.003514344,0.000430774,-0.003532793,-0.00351171,0.000507105,-0.000220354,0.001003903,-0.003481507,0.0007574,-0.004427675,-0.001970024,-0.002848005,-0.004523787,-0.000617971,-0.002876555,0.00176731,-0.004920942,0.001149293,-0.003171243
done,0.002165019,-0.001510994,-0.003867535,-0.004621156,-0.003054051,-0.001275054,0.003461482,0.004499543,0.000153766,0.004439395,-0.00243782,0.004536528,0.000523083,-0.001402945,0.00093831,0.003955483,0.001952872,-0.002980857,0.00184754,-0.000892537,0.002469525,0.001253846,0.00379972,-0.002324093,-0.001178549,-0.004639778,0.00393322,-0.004133727,0.00068299,-0.00467476,-0.001116694,-0.003339609,-0.003671985,0.001426783,0.000833932,-0.003184002,0.001970265,0.004291973,-0.00317202,0.003338657,0.003035801,0.004211373,0.000805468,-0.00028781,-0.002248571,0.000320385,-0.001875376,-0.002476591,-0.000423679,0.001802668,-0.003845772,-0.001715292,-0.004215688,0.00032661,-0.004945411,-0.004454046,0.004370702,-0.004671406,0.002309651,0.001335135,-0.002668551,-0.000589967,-7.23E-05,0.001358841,-0.004517254,0.00211072,-0.000396461,-0.003737134,-0.003929213,-0.002498685,0.003990463,-0.000428764,0.00371619,-0.003699996,-0.004946852,-0.001516255,0.003526661,-0.0009757,0.000271362,-0.004167755,0.002430535,0.00354493,0.002452131,0.004829528,-0.001374088,-0.004372028,0.000667094,0.00239098,0.002856371,-0.003336965,0.004840902,0.004223211,-4.92E-05,0.003934876,0.004990353,0.00201162,0.004667954,-0.003895805,-0.003015423,-0.002873382
him,-0.000666133,-0.000559107,-0.003611254,0.00354697,0.004501744,-0.002650729,0.003440415,0.00369398,0.003814985,0.002716256,-0.00374729,0.000726548,-0.00077714,-0.003193321,-0.004930784,0.004061434,0.004577315,-0.003337527,-0.002763349,-0.004143035,-0.002939225,0.002067533,-0.003952853,-0.00141486,-0.003670455,-0.00420214,-0.003161768,-0.002637063,-0.00201433,0.002641267,0.004193148,-0.004537983,-0.003068931,-0.003081427,-0.003303046,0.004832978,-0.001718856,0.001979042,0.003968607,0.001651746,0.00040122,0.003883913,-0.0006879,-0.000943714,-0.000142665,-0.004858951,-0.002337821,-0.002012922,0.002075902,0.000281291,0.001227645,0.003877909,0.002486831,0.003991835,-0.001988393,-0.004277121,-0.003839993,0.001625843,0.002904736,0.000731074,-0.004253088,0.004096736,0.002144077,-0.004095716,0.003950226,-0.000315477,0.001962091,-0.004230445,-0.004755857,-0.001900544,0.003626156,-0.003972714,0.000748231,-0.002512295,0.003701897,-0.003397669,0.003101104,0.003314289,0.002189116,0.002489571,0.004459699,-0.00178001,0.000411,-0.003969427,0.000643285,-0.000795275,-0.000649576,-0.00470773,0.003728831,0.002109404,0.004335455,0.001062348,0.00129979,0.004565362,-0.001092282,0.001465818,0.0029871,9.65E-05,0.004004386,0.000229882
wrong,0.004959571,-0.003746535,0.00285746,-5.95E-05,0.000294659,0.004668648,-0.004809579,-0.0029782,0.000462825,-0.001997178,0.002038994,0.00024042,-4.58E-05,-0.000580115,0.000137508,0.001559096,-0.001973102,0.001954085,0.002210299,0.002246013,0.00178777,-0.001570043,-0.002967584,-0.004776546,-0.003743462,0.002289665,0.001392725,0.001277474,0.004173221,-0.004486045,-0.001552769,-0.00210483,0.004464568,-0.001331841,-0.002782376,-0.004252684,0.004537212,0.002921722,-0.00117203,-0.001157895,-0.003843194,0.00457638,-0.003799346,-0.003482419,0.003331756,-0.000981969,0.003334967,0.00317082,0.002590098,0.003193084,-0.003302811,0.001124672,0.004600233,0.000981157,-0.004374498,0.001884451,-0.004947116,-0.001342241,0.001027007,0.004384524,-0.002312129,-0.004129248,-0.003990448,0.003633327,0.002221441,-0.003336342,0.002826134,0.000411891,0.004369207,5.30E-06,-0.002475802,-0.001676541,0.003522221,-0.001345786,0.002055722,0.003207807,-0.001481966,-0.001790393,0.003606392,-0.002968753,0.001899242,-0.002819756,-0.004470607,-0.001151277,0.00042002,0.003981041,0.004672451,0.004455703,0.000972771,0.00437273,0.003087715,0.004348273,0.000150589,0.003164309,-0.000849552,-0.002276378,-0.001343257,-0.001559996,-0.001215602,0.004258474
it,-0.004183542,0.003069186,0.002843624,0.002716858,-0.0038423,-0.000191566,0.003048307,0.004306309,-0.00117613,0.00214784,0.001248912,0.002269004,-0.002873827,-0.000513183,0.004123016,0.001473795,0.000978729,0.001240768,0.00066009,0.001008273,-0.000668174,-0.001137691,-0.004870997,-0.002350055,-0.003511364,0.003753366,0.000839587,-0.004359659,-0.00038166,-0.002882692,-0.003787471,-0.002339244,0.002609306,-0.003513877,-0.003971444,-0.004978532,0.003241461,0.003007291,0.000250149,0.002154041,0.00409384,-0.002623269,0.002072465,-0.00484055,0.001586195,-0.001092425,-0.000254057,-0.000575115,0.002449395,0.004664313,0.002665389,-0.000900997,-0.001659324,0.002140887,0.000380971,-0.00477324,0.001771615,0.00203252,0.000878936,0.002909856,0.00275163,0.002824048,0.001350556,0.004729406,0.003517769,-0.00468761,-0.00083663,0.002429442,0.002881553,-0.001793242,-0.003698394,-0.002097321,-0.004353595,0.004931206,0.003091776,-0.000181207,0.000839619,0.004263465,-0.003496391,0.000284231,0.001280033,-0.003053025,-0.001162187,0.001703271,-0.003037597,0.002202936,-0.001747569,-0.000569036,0.002826476,0.001668806,0.001316936,0.001131323,-0.004843485,0.003223032,0.001362085,0.001183033,-0.002960773,-0.003395513,0.002990706,0.00203566
happened,-0.004068039,0.003721582,0.000712776,0.004982269,-0.000780273,-0.002533628,-0.003394395,-0.003727258,0.003280448,-0.002022503,0.003284834,0.004670855,-0.004732371,0.00126031,-0.003472415,0.004153598,0.004200452,-0.001690779,0.004787884,-0.001856391,-0.000987878,0.000302855,-0.003939156,-0.002233977,0.001416181,0.004200144,0.002504836,0.000807287,-0.002450546,-0.000407313,0.001983443,-0.000701102,0.001641563,0.004344107,-0.002617492,-0.00044033,0.000891337,-0.003350743,0.000136008,0.003840124,0.003767709,-0.000152002,-0.001570054,-0.002569213,-0.001195698,-0.00301243,-0.003121573,-0.003564101,0.000257942,0.003050103,-0.004834255,0.001373566,0.003570427,-0.001998843,0.00271982,-0.002113028,0.004370234,0.000771523,0.001121718,-0.002799993,0.000506315,0.002073961,0.001830002,0.000245998,-0.004118431,0.001290222,-0.00324703,-0.003517614,0.000605166,-0.00229845,0.003739054,-0.002968248,0.004070202,0.00220565,0.002186909,0.002290526,0.003469143,-0.004099975,0.001928115,-0.003023053,-0.003802688,0.000398,-0.003399781,0.002718092,-0.003453168,-0.002887155,-0.003497942,-0.002429094,0.00406453,0.004508948,0.000632761,0.004739252,-0.001932851,-0.001073717,-0.004368181,0.000980025,0.004840923,0.003390309,-0.000943984,-0.002007679
one,-0.001449717,-0.00401015,-0.000382622,-0.001241196,0.00285752,0.000611998,-0.003786806,-0.004247415,0.003266094,-0.004970665,-0.003146326,-0.000835071,-0.003768862,0.004561306,-0.004275881,-0.000760078,0.000263111,-0.003054214,0.000408039,0.001203677,-0.004341215,-0.003829165,0.002554525,-0.000627085,0.001711335,-0.00039995,0.000165438,0.003528414,0.002783501,-0.003879176,0.000740489,-0.003022847,-0.002432903,-0.004530446,-0.000321149,-0.000370058,-0.00121974,-0.000717982,0.001662138,-0.004240436,0.004529089,0.001386968,0.000973029,-0.003899584,-0.001933274,-0.004731729,-0.002735695,-0.003980781,-0.00269232,-0.001696457,0.002834827,-0.002055416,0.003503418,-0.001620778,-0.003024708,-0.003498001,0.003271668,-0.004926677,0.004171119,-0.001337822,-0.004515191,0.002348852,0.001005294,0.002893635,0.004217654,-0.003806275,0.001054464,-0.0001369,0.001846411,-0.003250407,-0.000936402,0.001704412,0.003759371,-0.000439901,-0.004382236,-0.002595747,-0.004675466,0.000958855,0.000909033,0.000633644,-0.000102056,-0.000945726,0.003575601,-0.003397024,0.004855,0.003877815,0.000632476,0.00151747,0.000128246,0.003114933,-0.000833671,0.001882408,0.001610604,-0.000313679,-0.002489168,-0.001676106,-0.002437379,-0.004032289,-0.001729112,-0.001282593
night,0.00332918,0.00075629,-0.003197355,-0.001466762,-0.003806607,0.001652774,0.00102522,0.000849857,0.004298103,-0.000609262,0.000680485,0.003487348,0.002589203,-0.002191275,-0.000852307,0.002698876,0.001106157,-7.02E-05,-0.002448508,-0.003674068,0.003901249,0.004826012,-0.001167828,-0.0017913,-0.003635849,-0.003598388,-0.003297856,-0.003960342,-0.004038463,0.000306267,-0.001310888,0.000715782,-5.97E-05,-0.004928026,0.000856577,-0.003487553,0.004802585,0.001946412,-0.004430522,-0.000486016,-0.001427068,0.004029244,0.002592532,-0.004970009,0.00325612,-0.004308278,-0.0024078,-0.003678983,-0.000151812,-0.001654479,-0.002029765,-0.00315403,0.00488828,0.001555241,-0.00090212,0.004716255,-0.00196665,-0.001676948,-0.003453515,0.002799007,0.00121648,-0.000781243,-0.002300794,-0.000163716,0.004185745,0.003767418,0.003345303,0.004179204,-0.004260038,0.0041008,-0.00161089,-0.003770176,0.000373337,0.000445248,-0.003510848,0.00194282,-0.002901572,-0.00491297,0.001388723,0.003293143,0.000661759,0.002750652,0.001531282,-0.002710286,-0.000248726,-0.000635146,-0.004577203,-0.004315754,0.003912486,-0.003414437,0.00471415,-0.004671902,-0.002649032,-0.004157286,-0.003772173,-0.000304856,-0.004168108,-0.003301254,0.002350867,-0.004834786
top,-0.00178329,0.003964392,-0.002379441,0.003339582,-0.000958932,-0.001300187,-0.004348532,-0.00050044,0.002059379,0.002532098,0.000334082,-0.003627677,-0.003283049,-0.000105189,0.000809769,0.001824396,0.002405958,0.004456801,-0.000365763,0.000327732,-0.002979797,-0.00251194,-0.003275254,-0.00023596,-0.001421807,-0.001605443,-0.00398078,-0.003163926,0.001014394,-0.004093368,-0.000932607,-0.002103966,-0.002211497,-0.000928654,0.004971521,-0.002974867,0.001060377,0.004136112,-0.004120543,0.001447713,0.001405991,-0.004727395,0.002540486,0.002540982,0.000697293,-0.003016417,0.002222881,0.001259016,0.003049693,0.003803765,-0.000551209,0.002267866,-0.002017934,-0.000166998,-0.003713631,-0.003369271,-0.001091936,0.003827923,-0.00364858,0.002894828,-0.002564974,0.003245499,0.003757989,-0.00312196,-5.19E-05,-0.000664006,-0.000489649,0.003877966,0.000909767,0.001142111,-0.00430728,-0.002156209,0.004764556,-0.000498457,0.003539004,-0.000531615,0.002796961,-0.004591655,0.001592178,-0.004124887,-0.001195096,0.003451153,-0.000185113,0.004149973,-0.001042631,-0.001985869,0.002184599,-0.001057362,-0.001491391,-0.000717972,-0.000818884,-0.003722335,0.004044992,0.000651248,0.000809985,0.000528789,-0.003747166,0.001984561,0.004958822,-0.003756484
hat,-0.000742889,0.001369335,0.000183791,0.00282859,-0.000871171,0.001287541,0.004984647,-0.001760075,0.001206915,-0.002174487,0.002256761,0.001334515,0.00186573,-0.001039592,-0.004594574,-0.001177223,-0.000403082,0.003299001,-0.002691838,-0.002050182,0.003642419,0.001310728,-0.001279801,0.001711426,0.000974452,0.000384417,-0.001182951,-0.004197526,0.003514,-0.00381879,-0.003425306,-0.002465437,0.003409023,0.001856323,-0.00360047,0.001143218,0.002139936,0.004095691,0.002604509,-0.000197756,0.002182282,-0.003730313,0.002271972,-0.002523446,-0.000837509,-0.000640608,0.002552899,-0.000858765,-0.003802728,0.001725013,-0.004475536,0.00386063,-0.000294144,-0.003705593,-0.001023165,-0.001366893,0.001454018,-0.001836272,0.001360543,-0.002479019,-0.002010579,-0.004081151,-0.003550033,-0.001515807,-0.00367423,-0.003061094,0.004104624,-0.002843666,-0.004697985,-0.00227091,0.000255237,-0.001147442,0.003404773,-0.003092223,0.001587902,0.002702737,0.00153424,-0.004477157,-0.001589913,0.004673271,0.001658831,-0.003548052,0.003538495,0.004402964,0.003348946,0.004478493,-0.001533303,0.000609611,0.003464495,0.000351036,-0.002120336,-0.003767508,0.003273906,-0.002710222,0.000226875,0.000923236,-0.003920931,0.000582907,-0.001375542,0.003276957
modern,-0.004675502,-0.000643825,0.001292931,0.002176685,-0.004285006,0.004623484,-0.000825278,-0.00318204,-0.000796746,0.00331807,-0.0032844,0.003014666,0.002611763,0.002606214,-0.002130962,2.86E-05,0.003562348,-0.00472651,0.00031739,-0.002905547,0.003726162,-0.004965185,-0.000353982,-0.001527029,0.003327958,0.004108758,0.003475183,-0.001377315,-0.003217901,0.00075391,0.00441832,-0.003057892,-0.001481287,-0.004010849,0.002729339,0.000496464,0.004496329,-0.000575635,0.001214245,-0.004428047,-0.001987599,-0.003432953,-0.000250343,0.003407681,-0.003894119,-0.001810963,-0.002062962,-0.001262358,-0.001851756,0.00261842,0.002326192,0.001916783,-0.00373372,0.004397068,-0.003673127,0.002125657,-0.002556005,0.000632603,-0.001451291,0.002962934,0.00043174,-0.003568173,-0.002366789,0.001900587,0.001512169,-0.00158062,-0.00027302,0.003203266,-0.003054288,-0.001852307,0.002389655,-0.000528623,0.001905362,-0.000800399,0.003688774,-0.003474232,-0.000493895,0.003962051,0.004223581,0.000134019,-0.004079416,0.0031336,0.003604383,0.003167942,-0.004729567,0.001641425,0.003974818,0.002662991,0.004678967,0.003098431,0.00446129,-0.002960681,-0.001579362,0.001484485,0.002260146,-0.001073484,-0.004836702,0.002799484,0.001075257,-0.002046769
times,-0.004400836,0.004543521,-0.001714894,-0.00175181,-0.002063697,0.004877403,-0.002846976,-0.004614142,-0.002865426,0.003511329,0.002563427,0.004090009,-0.004141413,-8.59E-05,0.002578874,0.002869915,0.003576331,8.11E-05,0.001828239,-0.001870967,-0.003912142,0.001466211,-9.83E-05,0.000741738,-0.002420001,0.003613036,-0.000215901,0.002965786,0.004120498,-0.001785909,0.000393127,-0.000651783,0.004402317,9.24E-05,-0.00184317,0.004276321,-0.003318611,-0.003864489,0.001717264,0.004200675,-0.000603259,0.003084856,0.002567468,-0.004618363,-0.004547286,0.001298844,-0.000240046,-0.004428555,-0.000552149,0.00320788,-0.001715276,0.002900467,0.00289557,-0.001534125,0.004060558,0.000148429,0.003592769,-0.00458613,0.002721789,-0.002282005,0.000330715,0.002210463,0.00107558,-0.001235418,-0.002064922,-0.003589943,-0.000626918,-0.002266729,0.001905162,-0.004128502,0.003640237,0.003236719,-0.000454884,0.00030633,-0.002629662,-0.000272609,0.004980048,-0.001570759,-0.00320217,-0.00159045,0.003521012,-0.004670444,-0.002939272,0.001051951,0.002099843,0.003011872,-0.003174049,-0.003651213,-0.004726694,-0.001969328,0.004901572,0.002149535,0.002581054,0.004403249,-0.003182799,0.001154147,-0.004948963,0.003382617,-0.003404394,0.004509146
charge,-0.004321415,0.004482118,-0.004675597,-0.001764936,-0.003725849,0.001173844,-0.002979996,-0.004828222,-0.001583966,-0.001050344,0.002036316,0.000283824,0.004039181,0.002821197,-0.002819391,0.000894817,-0.000424254,0.000742489,0.000502797,0.003176878,0.003940612,0.001915658,0.004877035,-0.001463382,0.000175186,0.003232125,-0.002715735,-0.001306786,-0.003039108,0.002438979,-4.49E-05,0.002215258,-0.001014156,0.000601221,0.004762771,-0.002779224,0.00247312,-0.000496883,0.002072928,-0.002629843,-0.000892238,-0.00012024,0.001162232,-0.001739895,-0.003553318,0.004147533,0.00441593,0.003835431,0.004145378,0.004860521,-0.000165004,-0.001094437,-0.002506316,-0.003675072,2.09E-05,0.00057813,0.003921414,-0.00192401,0.0049243,0.00246481,-0.00282119,0.000527583,0.00064858,-0.00363625,0.003998776,0.001503026,0.004043113,3.61E-05,-0.003580496,-0.002552963,0.004172378,-0.001662541,-0.004324643,0.002989024,0.00187688,-0.001678214,0.003750112,0.002952591,-0.004348468,-0.003621572,-0.004177015,-0.001152202,-0.002084159,0.004195221,0.00165328,0.001864968,0.003918687,-0.00153591,-0.001705595,0.000441759,-0.002617643,0.001585181,-0.003766914,-0.004460081,0.004302259,-0.00416564,-0.000266864,-0.000938837,0.003884589,-0.003366386
of,-0.001813739,-8.54E-05,-0.001244992,0.001705515,-0.003923753,0.000312958,-0.004995217,0.004175474,0.000272826,0.004634849,0.00283301,0.00217032,-0.000164049,0.000554118,-0.003198628,0.003849777,-0.00365728,0.001400639,-0.003090465,0.001556741,0.00177208,0.000386515,-0.004720868,-0.004572998,-0.004770125,-0.003851291,-0.004589571,-0.004819125,-0.00428878,0.003755758,-0.003746615,0.00277908,0.002350318,-0.004602499,0.002023092,-2.81E-05,0.002424778,0.002952901,-0.00184656,0.001570799,0.003205611,0.004569779,-0.004113535,-0.000623163,0.00185921,0.004797907,0.002586959,0.004475093,-0.002255758,-0.003521316,-0.002478861,-0.00402915,0.001792645,-0.00052425,0.004499727,0.001248431,-0.003206706,-0.004240615,0.002856123,-0.001114282,0.004816058,-0.000700262,-0.003762635,-0.002872449,0.000895199,-0.003319543,0.003343168,0.000739566,0.000595299,0.002031263,0.001847973,0.000209437,-0.003021913,-0.000919878,0.004343128,-0.003950174,-0.003218684,-0.002608975,0.003485889,0.004355461,0.002044974,0.004746862,-0.004995704,-0.002375166,0.002706974,-0.004907182,-0.001604797,0.004087126,-0.003211376,0.001875072,-0.002550316,-0.001400146,-0.002604308,-0.001282593,-0.002357221,-0.002383352,-0.001590748,-0.002608807,-0.004225155,0.000474033
light,-0.002440809,0.00011802,-0.002406483,0.000538436,-0.000988692,0.002178684,0.000217361,-0.002023317,0.003703549,0.004307965,0.003827669,0.00396693,-0.003391971,0.002035303,-0.001889482,-0.003161753,0.000393308,-0.003857726,0.003657182,0.000811394,0.000481197,-0.00024699,-0.003478229,0.003187028,0.001953876,-0.004954347,0.004254298,0.001117565,-0.000885489,0.002601508,-0.002778111,0.004773922,-0.004721455,0.004570764,0.002092756,-0.00216966,0.004604872,-0.000766732,-0.003821994,-0.001884269,0.002311406,0.003868945,0.00091346,0.000124346,-0.004903753,-0.00438361,-0.000627775,-0.003189376,-0.001031361,0.000308256,-0.004520894,0.001806306,-0.0038631,0.002819275,-0.002993506,0.004595956,0.003319739,-0.003634958,-0.000705635,-0.004335681,-0.002728067,-0.004649594,0.001197618,-0.000427337,0.001339855,8.91E-05,0.000431785,-0.003260715,-0.003431049,-0.003098726,0.003839864,0.001070004,0.00182524,0.00137056,-0.000160031,0.002947748,-0.002888078,-0.000568068,0.001013884,-0.003029496,0.002943056,-0.003271896,-0.000945647,-0.004981995,-0.002569019,0.004006932,0.003479099,-0.003333678,0.001488295,-0.000330843,0.001991939,0.002314362,0.003993476,-0.004231583,-0.004163157,-0.003010721,-0.001400241,-0.004245861,0.001335184,-0.000795946
brigade,0.000935976,-0.001423689,0.002600954,0.004485682,-0.002734722,8.19E-05,-0.001150021,0.003352472,0.004212407,2.40E-05,0.000490648,0.000110294,0.004775249,-0.002614546,0.000495493,0.001669311,-0.002548929,-0.003407208,0.004314325,0.00151397,0.002550484,0.004855952,-0.004676576,-0.004116213,0.004594055,-0.002854532,0.00252543,-0.00435073,-0.003260204,-0.003089705,-0.003787424,-0.002630799,0.00344516,0.000608449,-0.004781763,0.002948272,-0.00438267,0.004253757,0.000967168,-0.000610511,0.00019756,-0.003973601,-0.002865168,0.002852642,0.00363698,-0.004000655,-0.003584249,0.002381205,0.00330636,-5.85E-05,0.003469383,-0.002697282,0.004716648,-0.000773274,-0.003662849,-0.003408454,0.003445807,-0.001663708,-0.001958632,-0.003109057,-0.004572601,0.00110318,-0.00087683,0.001632512,0.002662616,0.002892878,-0.002174774,-0.00262588,-0.004239345,0.004793966,0.001255235,0.002447229,-0.00026509,-0.002318021,-0.000913764,1.04E-05,-0.004306842,0.002553222,0.002000852,-0.000956285,0.004036469,0.004037046,0.002033244,-0.002043394,-0.004329079,0.003373125,-0.004111414,-0.001923692,0.000164581,0.000609748,-0.00363807,0.004117741,-0.002971353,0.002116116,0.00268195,0.004764251,0.004761269,0.003581171,0.000720765,0.000239814
prisoner,0.002957793,-0.002587116,-0.004972374,-0.00485601,0.000759847,0.00034645,0.000521138,0.004283015,0.003632769,-0.001042657,0.003082885,0.002244697,0.001956181,0.004611893,0.003385473,0.004055615,-0.003197267,0.003841764,0.000735497,0.001917857,0.000857995,-0.002505683,-0.003358857,-0.003462902,0.003771791,0.00425172,0.004823869,0.004988997,0.002220084,-0.002300003,-0.000230742,-0.001848285,-0.002939087,-0.002427886,-0.001204942,0.000205243,-0.004811972,0.003216638,-0.001947144,-0.000208401,-0.001417807,-0.002033099,0.001994736,0.001315401,0.00396591,-0.000198432,-0.004626819,0.00364659,0.001100757,0.004003817,0.000422835,0.00168662,0.004541849,-0.004047662,0.00445317,0.001538232,-0.004359369,0.002321131,0.004394054,0.003415767,-0.00116816,-0.004320795,-0.003149453,0.001960145,0.004515438,-0.001808724,0.002456697,-0.003598961,0.000688404,-0.001353642,-0.002687903,0.003373652,-0.002035733,-0.004059037,-0.001192742,-0.002041856,0.001771895,-0.004669902,-0.003163016,0.003585632,0.003467922,-0.00494498,0.003054886,-0.004866633,0.001587795,0.000566147,-0.001325974,-0.003306441,0.001230339,0.00014632,0.003252209,-0.002265147,0.002650649,-0.003678336,0.000412151,0.003577437,0.002758457,0.002763916,-0.00317579,-1.09E-05
zenda,-0.004442323,-0.004867391,0.001685568,-0.0026375,-0.002313952,0.004674436,-0.001099512,0.003898134,0.004799877,0.002204808,-0.001390467,-0.000614494,-0.004010192,-0.002361122,0.000378673,-0.003754605,0.00100059,-0.001972984,0.004640307,0.001001963,0.000858964,-0.002678564,0.002523452,0.00240644,0.004542113,0.003361631,-0.003695561,-0.000195261,-0.002246857,0.002665082,-0.001155959,-0.003937585,0.001590091,0.00075988,-0.002071695,-0.002119814,-0.003814311,0.001298713,-0.003411296,0.001684319,-0.00232032,0.003084108,-0.002598259,-0.00401298,9.98E-05,-0.003258338,0.002786742,-0.004705444,-0.000977171,-0.003270973,0.004215296,0.002166338,-0.004599473,0.004124075,-0.002471512,-0.002934364,7.56E-05,0.001156653,-0.001254588,0.00296404,-0.003017324,-0.002601743,-0.003812133,-0.000132912,-0.003955855,-0.00181136,0.002402682,-0.001426393,0.001704839,0.001122012,-0.000344775,3.22E-05,-0.002150731,0.000728204,-0.0020266,0.002519334,-0.000671379,-0.004118451,-0.003757065,-0.004003577,0.004838667,-0.004436029,0.003736738,-0.004956382,0.004156546,0.003277448,0.001572133,0.002591734,-0.001595835,0.001653482,-0.001231412,-0.004370494,0.002936332,-6.32E-05,0.001169968,0.002941478,0.001053621,0.00244052,-0.001771047,0.001742725
snow,0.003888893,0.00349655,-0.004946929,-0.004931282,-0.000118178,0.000158532,0.003239609,-0.000312616,0.003831702,-0.003459335,-0.002116927,0.001597166,-0.001252518,0.004246695,-0.002978377,-0.003597891,-0.004231772,0.004451877,-0.000242962,-0.001121251,-0.000780034,-0.003177204,-0.00328455,0.001442896,0.000364207,0.000416167,0.002412573,-2.41E-05,0.002868184,0.004748487,0.002703527,0.004677551,0.000641421,0.004941803,-0.003882843,-0.004050471,0.002282188,-0.004993889,-0.003306457,0.002391647,0.000319662,4.27E-05,0.00481095,-0.000709266,0.002642235,0.004082195,-0.002128824,0.003134936,0.002817072,0.003201238,-0.002074548,0.001187492,0.001686114,-0.00470205,-0.000783973,0.001109636,-0.002135687,0.002260198,0.002420865,-0.000613125,-0.001415302,-0.001504104,0.003307603,0.000784945,-0.001580194,-0.00068722,0.000830077,0.004572208,0.001019159,-0.004761983,0.00325375,-0.003118721,-0.000807167,-0.00178646,-0.002662408,0.003534729,-0.001485534,0.002909341,-0.002494623,0.004345914,-0.000858816,0.000778639,-0.001702721,-0.0002548,0.003150971,-0.002150931,-0.000591276,0.004122086,0.001383124,-0.002085816,-0.000319339,-0.000406669,-0.002524328,-0.001132731,0.003330802,-0.002197903,0.002339875,0.002106625,0.002897737,-0.000319198
white,0.00331733,0.004895679,-0.001644141,-0.003919478,0.001575374,0.00253008,2.67E-05,-0.002805435,-0.001047782,-0.003810777,-0.002139801,0.004155314,0.00464713,-0.004458961,0.002532595,0.002274196,0.000707713,0.000360211,0.004207953,-0.001002934,-0.003688517,0.001798619,0.002373613,-4.31E-05,-0.004345816,-0.002167549,0.002445503,-0.00262364,-0.000261641,-0.00151124,-0.002726826,-0.00284809,0.004958422,0.001634476,-0.001699058,-0.00302518,-0.001572566,0.002550745,-1.73E-05,-0.000979428,-0.001331391,-0.003797454,0.000232172,0.002840744,0.002036843,-0.004405023,-0.002154457,0.001627891,0.003045592,0.000693932,0.003511763,-0.002774921,-0.002693405,0.000794226,0.001866546,-0.004122164,-0.00372141,0.00245459,-0.00390395,-0.001137573,-0.001467994,0.000896833,-0.003088921,0.003597251,-0.000468489,0.00065711,-0.000695654,0.004178652,-0.003063371,0.002182338,-0.001213912,0.001023635,-0.000751276,-0.00202623,-0.004460066,0.00344161,0.002593293,0.002377366,-0.001833524,-0.00277793,0.001093483,-0.000328706,-0.000204771,-0.004936571,0.00047409,0.003422945,0.002437526,-0.000553721,-0.003854522,0.004232162,0.004570221,8.53E-06,0.001174176,-0.003330106,-0.002787398,-0.003135173,-0.001228138,-0.002775632,0.003264642,-0.004393804
and,0.000880717,-0.000599546,-0.001643333,-0.000871729,-0.002223179,-0.001704177,0.003879273,-0.002082175,-0.002665913,-0.000591994,-0.003650361,-0.00499888,0.002071652,-2.71E-05,0.003776899,0.000517465,-0.003926749,0.002745898,-0.00334411,0.003701901,0.000682377,-0.003992364,0.004722253,0.000889209,0.000889178,0.004357104,-0.002296429,-0.000370699,-0.000107151,-0.003668735,0.001596909,-0.002718978,0.004275303,-0.004743315,-0.002743207,-0.003295892,0.002835953,-0.003734355,-0.000670473,0.001460251,-0.003380229,-0.002136482,0.000849574,-0.003111213,-0.002559977,0.003913404,-0.003656007,0.003186177,-0.000388173,-0.001405589,0.000561237,0.002801886,-0.003891948,-0.004460168,-0.002137266,0.000511433,0.000646095,0.00479897,0.000522401,0.002055429,-0.002204351,-0.000565982,-0.00251315,0.001152211,-0.001090994,-0.00079657,-0.002844835,-0.004634456,0.001004432,0.004808811,-0.002479641,-0.001238714,0.004786108,0.004574445,-0.002165739,0.00458747,-0.003767848,0.003545802,-0.00314902,0.001690451,-0.004030871,-0.002612305,-0.002032348,0.004536047,-0.004728406,-0.002760471,0.002644462,0.00143105,0.001043817,0.000254189,0.001623307,-0.000516347,0.00480263,-0.00315678,-0.001515403,0.004222301,0.004202794,0.00035871,-0.003635497,-9.09E-05
seven,-0.001190257,-0.001747375,-0.004507697,0.002699653,-0.001994893,0.002271418,-0.00035063,0.000701131,0.001273378,-0.001863728,-0.000661655,0.003349481,-0.000868128,0.000317227,0.002782052,0.004342847,-0.000130065,-0.000893953,0.004092075,0.004200299,0.003772964,-0.003589894,0.000451264,-0.002292496,0.002937501,0.00022001,-0.000734757,0.002981904,0.003274613,0.00178337,0.001842255,-0.002822314,-0.000349617,-0.004740038,-0.001859135,0.002586651,-9.43E-06,0.00394032,-0.002294989,-0.002382794,-0.003626546,-0.004807581,0.00171838,0.001045829,0.004933322,0.002578883,0.002096342,0.002928387,0.004054572,-0.003883769,-0.000583385,0.004263474,-0.004472255,-0.002889155,0.000651986,-0.002561832,-0.004497034,0.002694221,0.002386612,-0.000521069,0.000280776,-0.004202652,-0.001850993,0.001778483,0.002847298,0.002684613,-0.00251325,0.003767581,0.003807603,-0.003928213,0.001026973,0.004579173,-0.003627786,-0.000642373,0.001644953,0.002801959,-0.002060276,0.002516375,0.003913427,0.002656013,-0.000558985,0.001668179,-0.00356663,0.003489272,-0.002398103,-0.004880924,0.004054953,-0.000656669,-0.004577002,-0.004528555,-0.00080433,-0.002343996,0.000255895,-0.001440464,-0.001386388,0.001113275,-0.00475224,-9.92E-05,0.000153871,0.003596466
dwarfs,0.000789137,0.000267956,0.002705322,-0.001504915,-0.001991245,-0.00164941,-0.002760679,-0.004331247,0.000347661,0.003354862,0.004268252,-0.002496162,0.00216427,0.000980444,-0.003230271,-0.003770422,0.00058346,-0.000418692,-0.001155241,-0.003703466,0.003403042,-0.001238235,-0.00231248,0.001875121,-0.002864736,-0.002921412,0.004199009,0.003342637,0.002108383,0.003012048,0.003353144,-0.000788776,0.001575395,-0.001113923,0.002413424,0.000199909,-0.000843151,0.002350071,-0.002635182,-0.000193951,-0.001679716,-0.003863981,-0.000881543,-0.001633375,0.002494541,-0.000681438,0.001781479,-0.003365131,-0.001248377,0.001066406,-0.003143687,-0.002077386,-0.001637017,-0.004929405,-0.000657329,-0.00340091,-0.002359456,0.004677451,-0.000417811,0.003008838,-0.002540026,0.002039181,0.001327898,0.00177372,8.78E-05,-0.003772735,-0.003913097,0.00161354,-0.003515282,-0.0016412,0.002100137,0.004274658,-0.001918092,-0.002991668,-0.000749796,0.001860121,-0.001554016,0.001144878,0.004811972,0.004835549,-0.001576091,-0.003348719,0.000468853,-0.000583248,0.00303904,0.004967278,0.004665287,0.003688887,-0.001004813,0.004970641,-0.004487209,0.000601415,0.001917703,0.000933076,-0.000655644,-0.001961894,-0.004145805,0.003952035,-0.002701773,0.002564326
alexander,0.000478702,0.003459739,0.002220472,-0.003925937,-0.001627199,0.004230283,0.001481018,0.000173942,0.000411604,0.003165386,0.001104382,0.001100324,0.002417519,0.004987766,0.001441322,-0.001563489,-0.003504447,0.00353918,0.000558923,-0.003965874,-0.003697461,-0.001987189,0.003095033,-0.004405306,0.003483282,-0.004643933,0.002373313,-0.004121615,-0.00361316,0.000166008,0.004214402,0.00030535,-0.00173366,-0.00271395,0.003832576,0.002549882,-0.004416228,-0.00487596,0.003648876,-0.002124137,-0.002267222,0.003721023,-0.000113404,-0.003598338,-0.002467654,-0.002265849,-0.003730252,0.002118793,-0.002952094,0.000472159,-0.00119392,-0.002831033,-0.002187168,-0.004457105,0.000367666,0.002571088,0.001768345,-0.004412789,-0.004035602,0.004687076,-0.004879797,0.004091092,0.004227734,0.002057733,0.003239346,-0.002897628,0.000853723,-0.001807212,-0.000512051,0.002645663,-0.004287845,0.004451649,-0.004565261,0.003863566,0.004140255,-0.004730072,-0.002125519,-0.003283786,0.001774897,-0.003767826,-0.002428352,0.004608583,-0.004863369,0.001297626,4.38E-05,-0.004442649,0.00311936,-0.001087101,-0.004647786,0.000416833,0.000992244,-0.00394541,0.002475427,0.002570945,0.001053814,0.001685381,-0.003245195,0.003647193,-0.001753578,-0.002879703
ragtime,-0.002486489,0.002741026,-6.15E-05,-0.000497704,-0.001921465,0.002633171,-0.000370045,-0.001433307,0.00394511,0.003518135,0.001475972,0.004921611,-0.002568104,-0.001366982,-0.000523309,-0.002173629,0.003287863,0.002438872,-0.002750551,-0.000164823,0.000615518,0.002872916,-0.003605538,0.002896348,-0.002867651,-0.003606764,0.00243738,-0.003978961,-0.004600322,-0.000573304,-0.001643344,0.001278906,0.000153666,-0.001961114,0.000234905,-0.004561171,0.002586497,-0.003468287,0.003205042,-0.004768159,0.002228037,-0.002624152,-0.004549677,0.004269806,-0.003211727,-0.001205994,0.000765958,-0.002361647,-0.002513471,0.002103383,-0.002069197,0.002883389,0.003380965,0.004827716,0.001406012,0.002712752,0.00334838,0.002765233,-0.004754315,-0.00458274,-0.004237015,-0.000878209,-0.004117488,0.004621612,-0.001600143,-0.000853065,0.000256315,0.00413797,-0.004630823,-0.003714064,-0.002094195,-0.002306947,0.001056199,0.000188966,-0.002651812,-0.002617561,-0.00028752,-0.002184748,-0.00329607,-0.003871663,-0.004157314,-0.002234875,0.001458774,-0.000559337,-0.003276854,-0.000522402,0.00033734,0.000677111,-0.001460551,-0.00419308,0.001722126,0.002280347,0.001061296,-0.00215808,0.000653488,0.004519624,-0.0023852,0.000192807,-0.003012963,-0.003663735
band,-0.001532061,0.00035254,0.00408839,-0.00020636,0.000471083,0.002696628,-0.004372091,0.003253883,-0.003440298,-0.004102964,-0.001485497,-0.004041426,-0.002936564,0.001826262,-0.004042406,-0.003131573,0.00070438,-0.003682035,0.003554222,-0.003884994,0.003253243,0.001368358,0.000909573,0.004395463,-0.004723776,-0.001218344,-6.28E-05,-0.002737304,0.002374201,-0.000597798,0.001719806,0.001284485,-0.003918256,0.002169792,0.004795675,0.003893355,-0.004427142,0.003416055,0.000676727,0.001099759,-0.000668756,0.000274805,0.004833843,-0.004612105,-0.002625948,0.000602444,-0.000163334,-0.001761101,0.001346797,0.004010865,-0.004471805,0.003349094,-0.004350768,0.001773876,-0.002254507,0.003137454,-0.004043497,0.001965579,0.00012344,0.000526179,-0.001297022,0.003746484,0.002157497,-0.003961377,0.003740963,-0.004615651,-0.00042063,-0.002997669,-0.0044209,-0.000788556,-0.00373975,-0.004986879,-0.001556899,0.002857071,-0.002514846,0.003315451,0.003004559,0.003011639,0.001339694,-0.001859988,-9.79E-05,0.001006064,0.004440987,0.000790556,-0.00376542,0.004563918,-0.002896182,-0.004635291,0.003037724,-0.000860574,0.003855693,-0.004842242,0.002518734,-0.002534679,-0.003877444,0.003927586,0.002330132,-0.004760032,0.000677671,0.000353425
you,0.002866512,-0.001323419,0.002953329,-0.002821557,-0.002800414,-0.001164814,-0.002659453,-0.00380223,0.004428738,-0.003251799,-0.0029915,0.000211539,-0.003791305,0.003501326,-0.000920341,0.00150323,0.0008321,-0.004902131,0.004214179,-0.004978956,0.004466306,-0.001967345,-0.004728286,-0.000156112,0.004071691,0.000622193,0.000948265,0.001870455,0.004707242,0.001574239,0.003498087,-0.000957372,-0.003328117,-0.001637859,0.003604982,0.002320409,-0.001738494,0.004112206,-0.00221524,0.001555898,0.001181282,0.004253047,0.000617634,-0.00114557,0.000210986,0.004337178,0.002779737,-0.002057841,-0.001859283,0.001160451,0.00456027,-0.003128797,0.003374285,-0.000292055,-0.003969385,-0.002529901,0.000708193,0.004544864,-0.000158794,0.003224925,0.001503859,-0.001788271,-0.001301137,0.000435608,0.004778686,0.00157032,0.0046169,0.001550442,0.001789541,-0.003497855,-0.000335146,-0.001110959,0.002734687,-0.001934982,0.000911512,0.000877681,0.003822241,0.003465907,0.000122652,0.004995787,-0.003810463,0.001047047,0.001560943,0.003029573,-0.002661714,-0.002550738,0.000105946,-0.003389696,0.004579137,-0.002927377,0.00307156,0.001569464,0.004250397,0.000965383,-0.004046324,-0.002287271,-0.000645276,0.002289424,0.000580098,-0.000501994
can,4.72E-05,-5.38E-05,0.004413639,0.003067331,-0.000852331,-0.003787856,0.001145009,-0.002154845,-0.002772812,0.003650487,0.000735035,0.001705934,0.004269805,-0.000648635,-0.002826944,0.003075629,-0.001320522,-0.00205979,0.001838552,0.001383273,0.001812226,-0.001928793,0.000476492,-0.001942739,0.000754711,0.003191161,0.00022161,0.002835765,-0.004300457,0.001382013,-0.002535285,0.001524002,-0.000868818,0.002866728,0.00337685,5.98E-05,-0.000369579,0.001394806,0.000313629,-0.002364417,0.000592672,0.003275885,-0.001211012,-0.004778886,-0.001024927,-0.004594604,0.000753543,-0.003157487,-0.003835054,-0.002852101,-0.00101767,-0.002267523,0.001890966,-0.001182571,-0.004531175,0.004008161,0.00083329,0.00203539,-0.00358186,0.001507201,-0.00491,0.001527112,-0.000297163,0.003301524,0.00339569,0.000571925,0.004422753,-0.000456691,0.004885535,0.004747555,0.00084891,0.000503799,-0.004379099,-0.002416313,0.00240642,-0.002648662,0.004665077,-0.003279211,0.004739394,-0.001952168,-0.004324564,-0.002644585,0.001691363,-0.001512179,-0.001710038,-0.001893412,-0.003236675,-0.00353769,0.002876603,-0.0012173,-0.004145545,0.002253136,-0.001487996,-0.002864952,0.00188455,-0.001555234,-0.002557455,0.002515456,0.004191858,-0.00144455
take,-0.000258155,-0.001283962,4.72E-05,-0.001486454,0.001135557,0.004573643,0.000149184,0.001030596,-0.004872063,-0.000533937,-0.000171065,-0.004412673,0.001633235,0.002332161,0.001017853,-0.003945118,-0.002822562,-0.002142708,-0.000940456,0.002800741,0.004759859,0.002627089,-0.003270917,-0.004082872,-0.003082963,0.00116958,0.002578145,0.001005814,-0.001057829,0.001763862,0.001540926,-0.003438086,0.002451323,0.003751332,-0.00089913,-0.002201709,0.001310344,0.001465671,-0.002420365,0.000239852,-0.003845564,0.004101822,0.003981235,0.003215987,-0.001906382,0.000474123,-0.000555398,-0.004971685,-0.00014486,-0.003488017,-0.002577522,-0.000337409,9.15E-06,0.00037515,0.003375125,0.004500453,-0.00281813,0.002954674,-0.001507568,-0.003071197,-0.003682287,-0.002160232,-0.000662407,-0.004416268,-0.003734646,-0.000852685,0.003930573,-0.00254297,0.003159139,0.004146054,0.004686766,0.002046608,0.002405717,-0.002876238,-0.003149819,0.001401925,0.002794335,-0.001867439,-0.004280236,-0.002917361,-5.64E-05,0.000354749,0.001438476,0.002280811,-0.001416576,-0.004428293,0.004813742,0.002835693,0.001035777,0.004203635,0.00322967,0.001442451,0.003230264,-0.004364174,-0.001645153,-0.001206362,0.001399454,-0.00432822,0.004358183,0.003429408
with,0.000375781,-0.002155948,0.00311817,0.001262853,0.003722118,0.003565749,-0.00343602,0.002257221,0.001171727,-0.003832588,-0.003549814,-0.001484723,-0.004791373,0.004159283,0.004574431,0.001113708,-0.003397679,-0.000390115,-0.001859315,-0.00017588,0.002034517,-0.002503741,-0.002106584,-0.000476817,0.00329852,-0.002747476,-0.004012815,0.001525184,0.004803853,-0.00175638,0.00463426,-0.000681621,0.002572892,0.000118331,0.003316797,-0.003303326,-0.001275166,0.003644498,0.000730964,0.004441124,-0.004340609,0.004304035,0.000570167,0.004868976,-0.003417789,-0.00236285,-0.001742839,-0.003738072,0.003047716,0.003845964,0.001093309,0.000190067,-0.001615791,-0.001987644,0.001982574,0.004274191,0.003870606,0.00478667,0.00030253,-0.00481666,0.000337017,0.000871314,-0.000298911,-0.00403071,0.003900898,-0.002538336,-0.004637968,0.002890604,-0.004549329,-0.001212039,0.002903225,0.002219549,0.003295891,0.00222213,0.002802402,0.003499091,-0.001853683,-0.00290673,-0.001665439,-0.001565704,-0.000269403,0.001610676,0.00481803,0.004011194,0.00137352,-0.003581536,0.000805309,-0.002057627,-0.000595447,-0.000390892,-0.003822935,-0.004590097,-0.003273775,0.00072723,0.001504811,-0.004139637,0.004199557,0.001100544,0.003044729,-0.004837233
gone,-0.004289621,0.002845475,-0.002111821,-0.002076588,0.004952704,-0.003012929,0.002052391,0.002697705,0.002699433,0.003943985,-0.003889044,0.001371493,-0.000320706,0.0003375,0.003727118,-0.004197386,0.002421866,0.002612378,-0.00458393,-0.000967952,-0.004336795,-0.004523186,0.001138564,0.003790397,-0.004729704,0.00394328,-0.002568994,-0.004312681,0.002319208,-0.004404766,-0.001893203,-0.001594846,0.002463129,0.003397349,0.000395905,0.004481568,0.004401504,0.000507864,-0.004621887,-0.004765482,-0.003292472,-0.001928468,-0.000703335,-0.004333329,0.000279998,-0.0027681,0.003953765,0.00096216,0.000616659,-0.004124724,0.001848075,-0.00015589,0.002275976,0.000460111,0.002607234,0.004171906,0.004064645,0.002811864,-0.004929303,-0.001703118,-0.004820751,-0.004100909,0.000781393,-0.003402258,-0.000502003,0.003224779,-0.003159873,-0.002440996,0.00037956,-0.00130715,-0.002120647,0.002999112,-0.002672059,-0.001513155,-0.001222966,0.002118851,0.000821014,0.002330388,0.003166229,0.002664652,-0.002255874,0.003344663,-0.003272236,-0.003334462,0.004727377,0.001278541,-0.000104374,0.000580191,-3.41E-05,0.001848247,-0.003906468,0.004111685,0.002529549,-0.002661779,0.003946502,-0.000655785,-0.004814656,-0.003299167,0.001980149,0.003116504
wind,0.003944603,-0.002656346,0.002508529,-0.003437877,0.004261744,0.002117094,-0.001317496,0.002199192,0.001606039,0.001700613,0.001751496,-0.00260799,7.65E-05,0.001652446,-0.003449438,-0.003295629,-0.000626635,-0.000368815,-0.004836692,-0.002922005,-0.003658721,-0.000456509,-5.32E-05,0.004539047,-0.001868908,-0.003769257,0.003915201,0.002257492,0.002688196,0.004079297,0.002178769,0.003886904,-0.001234228,0.001267898,-0.001365742,-0.002840304,-0.000268715,0.002296692,-0.004080621,-0.003610898,-9.79E-05,-0.003569032,-0.000239781,0.003960362,0.004499988,-0.001275223,0.000455795,0.001371486,0.004136724,-0.002549296,0.004272846,0.004343099,0.003334152,0.002293354,0.000368102,0.000735137,-0.001117635,0.002089575,0.002955,0.00053143,0.00480296,0.004459831,-0.001188556,0.003142184,0.003157776,-0.00106037,-0.002163151,0.004163998,-0.002689486,-3.34E-05,-0.004359302,0.003357901,0.003763972,0.004454915,-0.004933875,0.00041577,0.003485508,-0.000281386,0.001665773,0.002256251,0.001617028,-0.001816242,0.000849892,-0.004098632,-0.001397154,1.48E-05,0.001750087,-0.004135765,0.00285375,-0.002088329,-0.0034629,-0.002137604,-0.002515665,-0.000497403,0.001258184,5.09E-05,-0.001348428,0.00250146,-0.003062743,0.004269414
wizard,-0.000822951,0.000813481,-0.003032226,0.001210498,-0.001413901,-0.000567117,0.001810271,0.003237998,-0.000393198,0.002227159,0.004526301,-0.003351845,0.002665998,-0.002375009,0.00081075,0.001496809,-0.002914171,-0.002065477,-0.002705789,0.001251991,0.000994724,-0.004390347,-0.001192535,0.002216032,0.003406352,0.001576489,-0.002120352,-0.002029574,-0.003573954,-0.004826473,-0.000969928,-0.000549756,0.004204376,0.000261417,-0.001199695,0.003237753,-0.001158619,0.001855432,0.003352639,0.00048805,0.003706493,0.004289873,0.000664868,-0.0041879,0.000379053,-0.003728212,-0.000759762,0.004016573,0.003069316,-0.002537157,0.004289878,0.002462598,-0.001859695,-0.003514893,0.001633188,-0.004245093,-0.003833743,0.004193879,0.004095114,0.000912382,0.004041105,-0.00314112,0.002603099,0.000485303,0.003393506,-0.004633127,-0.000263721,0.000639906,0.001865818,0.003049617,-0.002618102,-0.003827331,-0.002765294,0.002544312,-0.001590928,0.002719936,-0.004242781,-0.000837332,-0.003129319,-0.003529525,0.003148214,0.003935736,0.004410045,0.003738714,4.41E-05,-0.002833855,-0.002627471,0.001308819,0.001090107,-0.000679886,0.001193331,0.004386689,-0.002484025,0.002013652,0.001770664,-0.001212618,-0.002106416,0.004241556,0.003922028,0.001653075
oz,-0.001897051,0.00319334,0.004746935,0.00234766,-0.003517429,-0.001623863,-0.004040486,0.001954667,-0.00084309,-0.004289892,0.004730846,-0.003899368,0.002005022,0.0039521,-0.002731625,0.003381925,-0.004100326,-0.004800359,-0.00206384,-0.00383124,-0.001539545,0.001958792,-0.001860939,0.004769339,-3.36E-05,0.003506085,0.000221459,-0.002569773,-0.001269714,-0.002351192,0.002029835,0.00209851,0.001687436,0.001206811,-0.002890475,-0.000906614,-0.001084548,-0.000389955,-8.32E-05,0.001761303,0.001273965,-0.003812685,-0.001116114,-0.000934699,-0.004927387,0.00172289,0.002697957,-0.000866283,-0.003400624,0.000234139,-0.000762889,-0.002810637,0.003186515,0.000531752,-0.00115559,0.001262574,0.001531408,-0.004314437,-0.001718791,-0.000813892,-0.003639378,-0.001771842,-0.001105599,0.004904986,0.000400136,-0.002099297,0.00465078,-0.003803043,-0.003041288,-0.001947833,0.002358171,0.002223637,0.00369664,0.003206308,0.003908626,0.000417853,0.001489272,-0.002704843,0.000772253,-0.001030521,0.004087018,0.00194773,-0.003026809,-0.003204802,-0.002495003,-0.003063327,0.00343519,0.004815999,0.002896834,-0.002932216,0.003151536,4.73E-05,-0.001546393,-0.003093842,0.002751352,-0.003004205,0.003294252,-0.00436506,0.003751292,0.003024079
mr,0.004755828,0.00360043,-0.004413786,0.003163035,0.003953882,0.004090941,0.001358044,6.17E-05,0.00235989,-0.004671494,-0.003615894,-0.001213907,-0.001489609,-0.004599839,-0.000805115,-0.002751386,-0.004389172,-0.004230253,0.002275504,-0.003931876,0.003059621,-0.004163839,0.004090141,-0.000357342,-0.000129536,-0.004405925,-0.000358143,-0.004454605,-0.002580638,0.004172859,0.000136477,-0.000964281,0.000706505,0.004855848,0.003203317,-0.001899591,0.002340096,-0.000557649,-0.001819545,0.000178664,-0.001065971,0.000764492,0.00067427,-0.001915765,0.001515292,0.001076843,0.003117381,0.003371664,-0.002543894,-0.002571765,-0.00031173,0.004690533,0.002580268,0.002899759,0.002371975,-0.002708049,-0.003494052,0.000541911,0.003111431,0.0023391,0.004954657,0.000304308,0.00160533,-0.000158305,0.004857508,0.002212284,-0.000628382,-0.003064106,0.003753842,-0.002567849,0.000920535,-0.002561877,0.00435048,-0.004969392,0.001015921,-0.003263016,-0.003672787,-0.004821998,0.003013924,0.002065083,-0.000789143,0.002786093,0.000580907,0.002311027,0.001931392,0.004581651,0.004151073,0.003455109,0.000598564,0.002086007,-0.004758879,0.001799442,0.002853802,0.002636491,0.002627734,-0.002368339,0.002729812,-0.002030656,0.001094673,0.001519192
smith,0.002463606,0.002454727,0.002292477,-0.003400828,0.000421772,0.001719656,0.003805918,-0.004515452,-0.004754281,-0.004254744,-0.004846935,0.004301349,-0.000243636,0.001997355,-0.000971591,0.004261244,-0.000508279,0.003463988,-0.003457875,0.003813468,0.00285742,0.004252122,0.000363669,-0.001675905,-0.003849731,0.003758228,0.004148901,0.004883949,-0.002477897,-0.002393399,0.002916247,-0.003702099,0.001183324,0.000910429,-0.004108724,-0.001271901,-5.32E-05,0.003793475,6.34E-05,0.003243906,-0.004171587,-0.002091049,0.003966636,-0.000153618,0.004257814,0.002697253,-0.003361774,-0.00238436,-0.002875493,0.002403537,-0.00132897,0.002902984,0.002038418,0.002149606,0.001606153,0.003254752,0.001471972,-0.00398648,0.002712795,0.003391832,-0.000476091,0.003207711,0.000960214,0.001959602,0.003357537,0.003449037,0.003698021,-0.00048026,-0.001467141,-0.00206218,0.003258886,0.004088733,0.004410106,-0.00334246,0.000543888,-0.003399955,-0.001194287,-0.000257501,-0.00435101,0.001587254,0.003477574,0.0004549,-0.001467096,-0.004079718,-0.004915634,0.003697909,-0.002507204,3.96E-06,0.00444067,-0.004454376,0.002608561,-0.003380723,0.003306198,0.001137402,0.001754975,0.001323316,-0.000245558,-0.004257476,0.002773475,-0.002171329
goes,-0.001408981,-0.001298364,0.00153851,-0.002715388,9.88E-05,-0.002444635,-0.004385331,-0.002710719,-0.003119251,-0.00280179,0.003907258,-0.003694568,-0.002140591,-0.001369517,-0.003072937,0.002798098,-0.004566448,-0.001025781,-0.002561676,-0.001817103,-0.003002153,-0.003254322,-0.003298707,0.002685883,-0.000183411,0.003711026,-0.00312179,0.002798531,-0.002669349,0.001953343,-0.003539681,0.003818273,-0.001782005,0.004906464,-0.003785463,-0.004271317,-0.004619372,-0.004814777,-0.002956361,0.003355997,-0.00122947,0.001694955,-0.002034847,-0.002412578,-0.003140548,-0.003805562,-0.002914348,-0.004085997,-0.00149941,0.003503948,0.003917063,0.002214694,-0.004125532,-0.000339106,-0.004693069,0.003083807,0.003648097,-0.000187322,-0.004408353,-0.001782418,0.000591306,-0.001405642,0.004713121,-0.002242273,0.004977806,-0.000105846,-0.002397027,-0.000806275,-0.001893036,0.001320957,-0.000731477,-0.00417127,-0.001345048,0.00180568,0.001599342,-0.00062236,0.00017623,0.003855746,0.002759513,0.001647912,0.000936018,0.003818845,-0.001045114,0.001051969,-0.003900631,-0.004504376,0.00053496,-0.00479291,0.003808005,0.004032687,-0.002787954,0.003642086,-0.003510974,-0.003681239,0.002922516,0.001502337,-0.004873485,0.003407659,0.000718672,0.002198111
washington,-0.002449014,0.00060957,0.000196415,0.003240623,0.004308074,0.000455376,-0.003172167,0.00240813,0.00246243,-0.000809412,0.003814954,-0.003743382,0.002791467,0.000104082,-0.000490055,0.00228247,0.0028128,-0.000163357,0.002098733,-0.004624765,0.004519129,-0.000416823,0.000130152,-0.000276548,-0.002862222,-0.002123358,-0.003295085,0.003878623,-0.001738834,-0.003069794,0.002734028,0.001379862,-0.004364404,-0.00461553,-0.002323302,0.000295699,0.00105276,0.00232913,-0.000116357,0.000401576,-0.003401082,-0.000863983,0.000994476,-0.002428632,-9.27E-05,-0.003224819,0.003834964,-0.003590029,-0.002366015,0.00406321,-0.004305839,0.000618432,0.003611314,-0.003924165,-0.001596429,-0.004540226,-0.003357936,0.000107832,0.004735795,-0.00182662,0.002375936,-0.004979316,-0.003868432,-0.002592081,0.000809747,0.003339782,-0.002520008,-0.003106924,-0.003292367,0.003509645,-0.003326316,0.003179311,0.003313858,-0.000823409,0.002147364,-0.002734732,0.004431774,0.000101406,-0.004139654,0.000188531,0.004339255,-0.004084189,0.001163413,-0.002615951,0.0036415,0.004242031,0.001227397,0.000285612,-0.004502609,0.001042719,0.00251651,-0.004224451,-0.000232028,0.004318256,0.003689889,-0.000260844,0.001174395,-0.000200478,-0.004960201,0.001877137
pinocchio,0.002187884,-0.002418424,-0.003985945,-0.002881445,0.002351273,0.004817548,-0.004441777,-0.000671744,-0.004548138,-0.00378732,0.003047029,-0.001396047,0.002037201,-0.003566942,0.001135168,-0.00349272,-0.000492344,0.002344975,-0.003588829,0.00417942,-0.000251859,0.003740553,-0.001994897,-0.000410014,0.000356565,0.000693449,0.004247316,0.003607837,0.004941076,-0.002122131,-0.00141168,-0.002935134,0.000887329,-0.004395233,-0.002938429,-0.001959738,-0.004781842,-0.002753701,0.001245768,-0.004609319,0.00132437,0.003076448,5.48E-05,0.003357065,-0.002827318,0.004895649,-0.00132471,-0.001436607,-0.002027154,0.003006389,-0.002886081,-0.00122191,-0.000666332,-0.004463852,-0.001202236,-0.000156295,0.003100547,-0.004867368,0.002738218,-0.003354168,0.000837652,-0.001900743,-0.001250562,5.41E-05,0.00254782,0.002747782,-0.004754058,-0.001533017,0.001584155,0.002505225,-0.004966475,0.00291966,0.003575038,-0.00247022,-0.000675937,-0.001794451,-0.004210524,-0.003359279,0.000203666,-0.004222175,0.003262295,0.000383008,-0.001021578,0.000376023,-0.004414212,0.004967559,0.003451257,0.004238506,0.001513305,0.003887442,0.00322646,0.000284398,0.004136627,0.003411196,0.001522671,0.003794385,-0.003202155,0.003307987,0.004634738,0.002145151
fantasia,0.004367448,-0.003957252,8.88E-05,0.003313795,0.004650392,0.002580222,-0.004915612,-0.002218304,-0.002508662,0.00482503,0.001929289,0.004546389,0.003104944,0.003308414,0.003342462,0.000973261,-0.004648599,-0.001078327,0.00119066,0.003995972,-0.003272803,-0.00244901,0.000453871,-0.003296706,-0.004888228,0.001627909,-0.004937562,-0.000571268,0.004226246,0.001797172,0.001166278,-0.003804358,0.004412983,-0.003489653,7.52E-05,-0.004601904,0.000622977,-0.004731668,0.002412377,-0.002275535,-0.003522421,0.000248118,0.001676413,0.002975588,-0.004051574,-0.00298383,-0.001312259,0.002484457,-0.004853985,-0.004483805,0.001902143,0.000769436,-0.000304208,0.001498037,-0.003363131,0.004099746,0.003078012,0.003087291,0.003362433,0.004200887,-0.002469081,-0.00014433,0.002385494,0.00208641,-0.002079746,-0.0006258,-0.00201594,0.004067362,0.004883522,0.002964376,0.003527213,6.68E-06,-0.002675009,-0.002638518,-0.004225771,0.001720692,0.002253105,-0.000355926,-0.000282571,-0.003349276,-0.003206489,-0.000432482,0.004821459,0.004143914,-0.004811726,0.002661485,0.001945399,-6.66E-05,-0.003438604,0.00492667,0.000957087,-0.001232271,-0.000969782,-0.002997409,0.000209402,-0.000611613,0.002617022,0.000631555,0.001294283,-0.002994321
boom,-0.003143294,0.000978342,-0.004340773,-0.00288259,-0.003503512,-0.0017411,-0.003036566,-0.001421294,-0.0009374,-0.003313077,-0.00356516,0.003458661,0.004022162,-0.000666603,0.002578852,0.001614114,-0.00296914,0.004939001,-0.003633434,0.002652057,0.004060768,-0.002680209,4.28E-05,0.003674587,0.001658742,-0.003130805,0.00400377,0.002220554,0.001598802,0.002193808,-0.001711218,0.002851664,-0.004370041,0.002494306,-0.001367723,0.004495027,0.002139223,-0.002099553,0.000757507,-0.003640476,-0.001661749,-0.004621197,-0.001180838,0.004429332,0.002001206,-0.002538229,-0.000146543,-0.004467001,0.000117906,0.003278263,0.000179928,0.004983588,5.12E-05,-0.000153076,-0.000405366,-0.002638606,-0.002958488,-0.004460979,-0.002916308,0.004648096,0.004253593,0.001464841,0.003980586,-0.001092802,0.000675046,0.00167036,0.003072802,0.004429908,0.001473041,0.001244395,-0.004743914,0.00277238,0.001352508,-0.000467262,0.00188364,0.003076306,0.004985989,-0.003443403,-0.001960819,0.001137939,-0.001043054,-0.003033183,-0.004497407,0.003714308,-0.001846348,0.00284868,-0.001912123,-0.001177229,-0.004924278,0.001726809,0.001536574,0.0018547,-0.000317974,0.000114677,-0.002230584,0.004689971,0.004985587,-0.001979491,0.004321093,-0.000106765
town,-0.00034024,0.000394224,-0.00264615,0.00021229,-0.001044064,-0.000838392,-0.001165087,0.002052405,-0.002107952,0.00147175,-0.003695727,0.001751834,-0.000956102,-0.001824802,0.002726599,0.001916699,-0.002978073,-0.002238301,-0.000783054,0.004627914,-0.001217427,-0.003025503,-0.000722686,0.002539415,-0.000464857,0.002566101,0.00289819,0.004351899,-0.00373121,0.004759927,-0.001247761,0.003171698,0.004686635,0.003927655,-0.001217761,-0.003720252,0.002334331,-0.001240751,0.002758174,-0.00056906,0.004429257,0.002314313,0.00434839,-0.004818121,-0.0006129,0.003542755,-0.001322757,0.001358862,0.00472396,-0.001731716,0.003433851,0.000127579,-0.002210745,-6.98E-05,-0.003947188,-0.003925791,-0.002960791,-0.000991229,0.001547912,0.004493596,-0.001772655,0.00224786,0.003738266,-0.001944583,-0.002879152,0.0021484,-0.001539809,0.000144011,-0.002424984,0.004855679,-0.001434892,0.00471729,0.00395314,0.00323918,-0.002779525,-9.37E-05,0.001208271,0.003452787,-0.002878524,0.001242638,-0.000932754,-0.003723169,-0.004824117,-0.003241027,-0.002359539,0.004594386,0.002482067,-0.000673732,-0.004223051,0.000143278,0.001916876,-0.00373813,0.000247067,-0.000958437,-0.003483599,-0.004968103,-0.002633152,-0.003104096,-0.002571317,-0.003216813
rebecca,0.001521586,-0.002332608,0.003380358,0.003491572,0.004756401,-0.000974376,0.003984773,0.004290605,-0.000420251,0.002472233,-4.77E-05,-0.002777538,0.004287317,0.000643016,0.00115038,-0.001089421,-0.003209844,-0.003822509,0.002862499,0.001393073,0.003149229,0.003255525,-0.000355961,0.004493408,-0.001500105,0.002935971,-0.003584503,0.003031109,0.004397957,0.003853381,0.001883321,-0.002040607,0.002617817,0.000163942,0.000918648,-0.002549797,0.003689818,0.000955385,0.004253239,-0.002409932,-0.000393334,0.003673466,-0.000474138,0.00131751,0.001018939,-0.002439659,0.002010058,0.00407446,0.001806039,-0.004849034,0.000906268,0.003451659,0.00268932,0.004923248,0.003550461,-0.000998381,0.004032447,0.003204786,-8.05E-06,-0.002646257,-0.000606334,0.002155473,0.00393073,0.004955189,-0.001486571,-0.00412484,-0.001231459,-0.001174837,0.000814829,-0.002371071,0.002890975,0.003100445,0.003773251,0.00245609,-0.004910337,0.003935913,0.003557502,-0.000112748,-0.004433889,-0.001876986,0.004721446,0.001966279,0.004748403,-0.00219977,-0.001045569,-0.002120677,-0.004171006,0.001090521,0.004098125,-0.002521905,0.000737492,-0.003976335,-0.001807108,-0.004963829,-0.003176056,-0.002387626,0.003760275,0.000179603,0.000550285,-0.000134102
blue,-0.001017573,-0.00302404,0.003078334,-0.001011652,-0.000549124,-0.004736589,-0.000497631,-0.000874409,0.00206823,-0.003953675,-0.001481691,-0.003073412,-0.000216875,-0.002465055,0.002122143,0.001029731,0.00150021,-0.002463194,-0.004652273,-0.003315016,-0.003539682,0.002433964,-0.004879467,-0.001920412,0.002352974,0.003467195,0.001706661,-0.004884852,0.000770584,0.001464404,0.000272695,-0.000859265,0.002865464,0.001863486,0.004474393,-0.002019454,0.002741784,-0.002547026,0.002324292,0.003301327,0.002050547,-0.004936688,0.00496228,-0.000984866,-0.002770543,-0.00429548,0.000866965,-4.06E-05,-0.000934241,-0.004506514,0.004370251,0.001740959,0.004400141,0.002096935,0.004774191,-0.003585699,0.001229952,-0.002676759,-0.002684804,0.00271368,-0.000371301,-0.001421928,-0.002641154,-0.000340168,0.003893915,-0.000915438,0.004872503,0.00199312,0.004679849,0.003070631,0.004864416,-0.00407403,-0.003462652,0.00474596,0.000559858,-0.000818849,-6.23E-05,0.000727087,-0.001885075,-0.002421447,0.004670211,0.001805278,0.0049506,-0.003355133,0.001095795,-0.001378399,0.000266622,0.002531167,-0.001368372,-0.001537534,0.00074468,-0.000804968,0.003251564,0.004395861,0.00302941,-0.002493225,-0.000334337,0.001950026,0.00321434,-0.000977244
bird,-0.000801902,0.004909398,0.002168638,0.004389174,0.000495229,-0.004148027,-0.003910175,1.51E-05,-0.002760232,0.000630101,-0.00339078,-0.004923833,-0.004622879,0.000540254,0.00023625,-0.004976188,0.000800682,0.002928068,-0.002074716,-0.003814452,-0.002738049,-0.002403902,-0.001177004,0.003195992,-0.002538707,0.002744253,0.004415236,-0.002784902,-0.003625922,0.001105953,0.00112701,-0.000845454,0.004102281,-0.00322535,-0.002242577,0.00366699,-0.001125141,-0.002308418,-0.00334372,-0.000290286,0.004429679,0.002605473,-0.000983334,-0.002033111,0.002165142,-0.000612578,-0.000799278,-0.004276888,-0.001973814,-0.003337774,0.003539295,-0.004085644,0.00365291,0.003507421,0.001011242,-0.003653686,-0.002772717,0.003695464,-0.000558553,0.00378761,0.001284251,-0.004083172,0.000578101,0.001864315,0.001699087,0.004028883,0.001496156,0.003208039,0.004896346,0.004041485,0.001544357,0.000820845,0.003691565,-0.004817498,-0.003785549,0.004547015,0.002526762,-0.004960666,0.002396256,0.004049546,-3.45E-05,-0.003288029,0.000725221,-0.00403047,-0.004737746,0.001006987,-0.001270231,-0.004261213,-0.001915081,0.000544465,-0.000163952,-0.004844868,0.004982786,-0.002275037,0.002271845,-0.004886303,-0.00092352,0.00448005,0.000219319,0.004588699
how,-0.000507561,0.000764409,0.002117933,-0.001510827,-0.003682395,-0.004674921,0.002640377,-0.001487374,-0.004687985,0.003994069,0.000487031,-0.004754886,-0.001789102,-0.004928771,-0.003118992,0.001258445,0.003264551,-0.001389595,-0.002375115,0.003954717,0.003607702,0.004689305,-0.001437861,0.002221416,0.003158685,-0.004317181,0.004485624,0.003698089,0.001759815,-0.00200063,-5.39E-05,0.002737861,-0.002029911,-0.004883358,0.001720989,0.00074117,-0.001277898,0.001436069,-0.002247944,0.002643915,0.004777884,-0.003589893,0.003128429,-0.001932328,0.002762627,-0.002608622,-0.000872019,0.000316649,-0.000126363,-0.001714401,-0.000294055,0.001951007,0.001048186,-0.004419526,-0.000458182,-0.001891221,-0.002350063,0.000110229,0.003189073,0.004936446,-0.000559038,-0.001569043,-0.001407213,0.00360172,-0.002990726,0.000413986,-0.001738302,-0.000654351,-0.002115265,0.004511007,-0.004425078,-0.004047445,-0.002494885,-0.003208796,0.003922546,0.00057664,0.00112954,0.002119709,-0.004754398,-0.00488067,-0.000128358,-0.004227551,0.001348282,0.000709956,-0.003537861,0.004882691,-0.003138142,-0.002883623,0.002826378,0.004932927,0.002768357,-0.003376447,-8.64E-05,0.003017022,0.00133088,0.000564892,0.000681266,-0.00203105,0.003911015,0.000618992
green,0.004222415,-0.001916769,-1.19E-05,0.004917474,-0.001050432,0.003495002,-0.004980427,-0.003837509,0.002227717,-0.003311461,-0.003830815,0.001136278,-0.004482872,-0.002692622,-0.003496643,-0.003259951,-0.004421904,-0.004047086,0.004780428,0.00335869,0.00256086,0.004971501,-0.004335021,-0.003531679,-0.002785996,-0.004699031,-0.004809718,-0.001479196,-0.004166055,0.002801741,-0.004979408,0.0014456,-0.004946095,-0.003321767,-0.004882318,2.91E-05,0.004712955,0.00424708,-0.00461437,0.002110708,0.001957821,-0.00075306,0.002591413,-0.004722587,0.001218417,0.003260916,-0.001655619,-0.003669263,0.004860446,0.003872939,-0.002291104,0.000792727,0.004135249,-0.001507328,-0.000270468,0.000787509,0.004222706,-0.000525321,0.004033314,0.002588671,-0.000355462,0.001369581,-0.00166475,0.00048711,0.00414039,0.004148673,0.001934944,0.003077208,-0.002868158,-0.000800462,-0.000179074,0.004042486,-0.004478567,0.004985081,0.003578813,0.001221853,0.000272594,0.004794136,-0.004852518,0.00344386,0.004743016,0.004880456,0.001309704,0.0022633,0.00385341,0.004817427,-0.004028187,0.001555656,-0.004653177,-0.004030556,0.003538047,0.002148359,0.003237919,-0.000634562,0.001188838,0.003032658,1.58E-05,-0.000370855,0.000811559,-0.000641228
was,-0.002094628,-0.003860355,-0.001363383,0.003985873,0.000371127,-0.002261672,0.000266915,0.001041245,0.00397787,-0.0039751,-0.001984192,0.002073575,-0.000955226,0.001986967,-0.002501009,0.003127336,-0.002151102,-0.002153525,0.000493083,0.004381267,-0.00424692,0.002593019,0.002077578,0.001756144,0.002557214,-0.004778999,0.004931733,-0.001561421,0.003439192,0.004646993,0.001734442,0.004794598,-0.001936171,0.001795516,-0.000634543,-0.000864684,-0.003045165,-0.003202886,0.004385148,0.003038173,6.81E-05,0.002350339,0.002142667,0.000929308,-0.004724843,-0.004121108,-0.004885248,-0.000684843,-0.002418852,0.003726294,0.00430495,-0.003087197,-0.002796574,0.003053859,0.004638559,0.002052391,0.004109584,-0.001409356,-0.002195938,0.002592695,0.004277384,0.000412172,-0.002223657,0.004157805,0.001022832,-0.001899974,-0.00473225,0.002774814,-0.000196264,-0.004219962,-0.000537998,0.002832099,0.004090541,0.003936662,0.00087527,0.002448172,-0.003024399,-0.000336205,0.001430546,0.004407683,0.00377682,0.003391284,0.004641215,0.002317306,0.001679376,0.004807724,-0.001693492,-0.000118438,0.002602868,-0.004884457,-0.00136666,-0.001213405,0.001254696,0.003728762,0.004740052,0.001655136,0.003036305,0.00254213,-0.002317923,0.003037126
my,-0.003861595,-0.004201932,0.002049458,0.000250666,0.004101393,-0.002416451,-0.001509487,-0.00153575,0.004625767,-0.004339378,0.00464504,0.004026852,0.001302527,0.004305658,-0.001799551,-0.001099943,-0.002193759,0.002754713,0.000192105,0.004692071,-0.002254344,0.0008793,0.004742748,-0.004291124,0.000567638,-0.000931901,0.004526749,0.00479868,0.004188997,0.002476884,0.000622901,0.002622773,0.001449675,0.000243413,-0.001107858,-0.00421727,-0.003309494,0.003924169,0.003488002,0.001502544,0.003587295,0.002669743,0.002415021,0.00015351,0.001781645,0.003911247,-0.003310471,0.000925147,0.001538034,0.002793735,-0.004255054,-0.002894494,0.004719508,0.003265328,-0.003553477,0.000510957,0.004630983,-0.000606854,-0.004924018,0.003164935,-0.003551965,-0.000492492,0.004329577,0.003372364,0.00193976,-0.001966941,-0.001242425,-0.000677175,-0.002067553,0.002088131,0.002057147,-0.001391504,-0.003383633,-0.003973424,-0.003644157,0.004874164,0.001851044,0.004616536,0.002660496,0.003393892,0.000743268,-0.003057339,0.001154428,-0.003147986,-0.001280802,0.00094599,-0.000739991,0.003130903,0.003871378,0.003319389,0.001201291,-0.001514596,0.003587753,0.001801844,0.000802923,-0.003329964,0.000351924,-0.004936254,0.001462965,-0.001049355
valley,0.002408537,-0.002331084,0.001700707,-0.000158923,-0.002540803,-0.004325264,-0.001046229,0.002528341,-0.001525432,-0.001883278,-0.00486222,0.00082313,0.002766497,0.004007584,0.001742359,-0.000738816,-0.001652581,-0.001731156,0.003331111,0.003029872,0.00443261,-0.004690362,0.000398795,0.004777669,0.000921074,0.001047851,-0.002227874,-0.001338682,-0.002039433,-0.001780033,0.000179062,0.001924355,0.004680898,0.004571576,-0.001817923,-0.002071047,0.002063684,-0.000713106,-0.004914239,-0.002631446,-0.003373169,0.002675798,0.001341749,-0.004793917,-0.003869223,-0.004991781,0.001180637,0.002350776,-0.000465213,0.001308067,-0.004830053,0.002522354,0.004469732,-0.002284885,0.003056205,-0.002338676,-0.003812019,-0.001496907,-0.004309699,-0.002863862,0.003547499,0.002379387,0.001836718,-0.002803939,0.002950881,-0.004390102,-0.003434643,0.00338826,-0.001594818,0.002905293,0.002171208,0.002621039,0.001894414,-0.000153062,-0.003030491,-0.002572388,0.002075119,0.003902564,-0.001228958,-0.00218633,-0.004220516,0.002766533,0.001523108,0.003521909,-0.001716909,0.003928472,-0.001480909,-0.00163059,0.004269723,-0.004936233,0.000562304,0.000129701,0.001004096,0.000983403,0.002583904,-0.0017085,-0.003970633,-0.004094155,0.00112808,-0.003766298
casablanca,0.00174253,0.004618779,-0.004759276,0.002714896,0.001323756,-0.002048116,0.002302941,-0.004964762,0.000178629,0.003562474,0.004364032,0.00279782,-0.000591199,0.002146001,0.000705475,0.001584565,0.004614579,0.001465115,0.002599202,-0.004965966,-0.002902007,0.00415889,-0.001759612,-0.00088715,-0.004970224,-0.00148573,0.000131037,-0.001365063,0.002884494,-0.000574953,-0.002856092,-0.004545068,0.000743644,0.004690936,-0.00202865,-0.004626669,0.001379528,0.001047279,-0.001667574,0.000815726,-0.003941852,-0.003227863,-0.002731533,-0.001795896,0.003082181,0.003013592,-0.001164969,0.003486948,-0.001615806,0.001114604,0.001940923,-0.004694253,0.002741701,0.00315644,0.000440655,-0.002034979,0.004983186,0.002595115,-0.003831645,-5.19E-05,-0.000570217,0.003612945,0.004902623,0.002016479,-0.003918555,-0.004365515,-0.002314494,0.002497124,0.000158119,-0.003970752,0.004384193,-0.000924431,0.002957031,-0.004919917,-0.002462844,0.00038982,-0.001314097,0.001711768,0.000149501,-0.004226976,-0.000306079,-0.003091807,0.004297478,-0.001794787,0.001958167,-0.00032363,-0.000731989,0.004937634,0.004303117,0.002411477,0.00287008,0.003114471,0.004433286,0.002834728,0.003773224,0.000377595,-0.001519455,0.004720722,-0.004105941,0.000468073
bambi,-0.001764657,0.003020262,-0.00032157,-0.002653306,-0.003483745,-0.002508793,0.004088153,0.000433053,-0.000126181,-0.002005868,-0.004123375,0.00158489,-0.001598987,0.004429803,0.001147745,-0.003022148,-0.003904929,0.000421877,0.003764615,-0.004621259,-0.003748977,0.002773489,-0.002800002,0.00201873,0.003164769,-0.002415597,0.001543998,-0.000530524,0.00215602,0.000894604,0.004584461,0.002253273,0.000347585,0.002139881,-0.00493635,0.001358646,0.00114392,0.003003218,-0.002694801,0.003551787,-0.002020585,0.00143079,0.000608679,-0.000119683,-0.001166846,0.000712477,0.00107816,-0.004807521,0.004349968,0.004548089,0.002702029,0.000334907,0.004646944,-0.000294917,0.002183542,-0.004901522,-0.003744021,0.004591934,-0.001270921,0.002725032,-0.003492542,0.002225084,0.001404638,-0.00334875,-0.001297709,0.002373546,-0.00225124,0.002134292,-0.003245257,-0.001882389,-0.000812335,-0.00218049,0.002413065,-0.002191387,0.003823885,0.002993123,0.000421919,-0.004218878,0.002346131,-0.00144865,0.003839463,0.004394936,0.000707037,0.003196288,0.000655456,0.002459208,0.00123576,0.002974744,0.004477782,0.000615131,-0.001458036,0.001606955,0.001692242,0.001469758,0.000757829,0.002134806,-0.002329439,-0.001165541,0.001816479,-0.001593411
guy,-0.004462851,0.001884269,0.002055079,0.002538142,0.000185009,-0.001926585,-1.87E-05,0.003470349,0.00156789,-0.004988045,0.000578629,0.004857722,-0.004964634,-0.001781917,-0.004819981,-0.000822222,-0.004442893,0.000936911,-0.001330457,0.003124872,-0.001783858,0.003441773,-0.00409398,-0.002424525,-0.003920229,-0.001940094,-0.002495662,-0.004562251,0.003476227,-0.002563366,-0.001852542,-0.000237558,-0.000538989,-0.000123958,0.002727951,4.60E-05,-0.00034302,-0.000817802,-0.001139071,-0.002785297,-0.00311881,-0.001556847,-0.000676846,0.003373361,-0.001048069,-0.001233032,0.000823751,0.001224506,0.000126563,0.004109041,0.001609345,-0.003754806,0.002029924,-0.003990288,-5.46E-05,0.00227893,0.003914763,0.002890855,0.000647966,0.003119339,0.002480962,-0.004501684,-0.003178604,0.001862343,0.001160761,0.003737198,0.004836286,-0.002619789,0.001942589,0.001818562,0.001472458,0.001562464,-0.003302216,-0.001928814,-0.002607491,0.000839648,-0.002609404,0.004555082,-0.001357169,-0.000896727,0.000168479,0.003507294,-0.00484113,0.001974606,0.00102226,-0.000285765,0.003286369,0.004039783,-0.00407658,0.002770609,-0.004991443,0.003636239,-0.000420894,0.00283199,0.004781502,0.001280228,0.003824833,-0.004145014,-0.001447019,-0.00158971
named,0.000892613,0.000419722,-0.002325923,0.000543596,-0.003030008,0.002844509,-0.001503637,-0.004743405,-0.002520466,-0.003822467,-0.002789443,-0.0032481,-0.001142511,-0.000191801,-0.003289627,0.000645753,0.001390599,0.000831016,0.002396278,0.002867855,0.003121205,0.002652487,0.003580124,8.52E-05,-0.001722376,-0.00456834,0.00299492,0.003458904,-0.00239138,-0.002998672,0.004815266,-0.001060474,-0.003993858,0.00180035,0.003006928,0.001379464,-0.000788066,0.003924563,-0.002311822,-0.000979575,-0.004201834,-0.002099797,-0.003010866,0.001909947,-0.003837289,-0.004507604,0.000476404,-0.00121325,-0.00252421,0.002386871,-0.001432165,-0.00082109,-0.003582869,0.002633103,0.002393614,-0.004440465,-0.00211539,-0.004509643,0.000392997,-0.004193823,-0.003429486,-0.00220594,-0.000747485,-0.004600301,-0.001131614,-0.004185361,0.003990479,-0.00031277,-0.004132708,-0.000989845,0.004582818,-0.001862633,-0.000165275,-0.001986224,-0.003574797,-0.003640341,-8.45E-05,-0.003214978,-0.001298219,-0.004366075,-0.003043901,-0.004112321,-0.000632725,0.000956802,-0.000229315,-0.002217371,0.000353223,0.00448797,-0.002493322,0.002192682,-0.001818089,0.002665049,0.00254775,0.001025049,0.001174977,0.003661972,0.004063374,-0.001391176,-0.00061985,-0.003163124
joe,0.002724615,0.00139739,0.002118799,-0.002241025,0.001811718,-0.0005754,0.002592526,0.00221824,0.003422617,0.00476025,-0.001590566,-0.004719122,0.002867567,0.001895172,0.003997432,0.003976176,-0.001295656,-0.001878967,-0.004874318,6.89E-05,-0.001588609,0.003396096,0.002995642,0.00303268,-0.001571446,-0.004661428,0.002869493,-0.000934745,0.002759233,0.004775114,-0.00192216,0.004765928,0.004960065,-0.000972015,-0.004749675,0.002077553,-0.001180523,0.00065218,-0.003373261,-0.000149014,0.002944358,0.00370508,-0.002161055,-0.003681638,0.004956766,0.001247546,0.000955708,0.004819827,0.001946214,0.003209979,0.004156672,-0.001492219,-0.001062211,0.004869278,-0.004013957,-0.002483873,-0.002475901,-0.004722966,-0.002956585,-0.001708538,-0.000877529,0.003977774,0.004094017,0.000408967,-0.004780695,-0.004986526,0.004367731,0.001672517,-0.004532902,0.004691801,0.00252306,-0.001466765,0.002785335,0.002808469,-0.001848851,0.003580131,0.00390319,-0.002625091,0.004338795,-0.00244375,0.004046958,-0.004059404,-0.004662848,0.001747004,-0.000139372,-0.003199297,-0.002014523,-0.003789948,0.004794457,0.003461014,-0.000799748,-0.000875293,0.004449843,-0.000741112,-0.003858178,-0.001188935,0.002079871,0.002648258,0.001482597,-0.000936908
bathing,0.000945865,-0.004168829,0.004350837,-0.001109988,-0.003657688,0.001736187,0.00196193,-0.000349573,-0.00114506,-0.002712599,0.002173228,0.002982978,-0.002700126,0.003477987,-0.004575682,0.003870004,-0.003949598,-0.001070302,0.004529127,0.004915748,-0.003407707,-0.000456397,-0.004428564,0.003468871,-0.00274771,-0.00361889,-0.001880298,-0.003729605,0.002450725,0.001046295,0.004660349,-0.003315073,-0.001348394,0.000873997,0.004883695,-0.002753603,-0.003655633,-0.0012133,-0.002962023,0.002439471,-0.003760101,-0.001784252,-0.002465953,0.002521826,-0.00430339,0.004290335,0.002294818,0.003597009,-0.002754349,0.002388496,0.000139816,-0.000848361,-0.003454682,0.001692695,0.002965407,0.000466967,0.002357237,-0.003897757,-0.000485315,-0.001665755,0.001903857,0.002307585,0.003892931,-0.002788624,-0.004210841,-0.004383796,-0.000411095,-0.00149265,0.004174452,0.001436365,-0.00494234,-0.002705121,0.001819101,-0.000989245,0.004855378,-0.001120739,0.003198857,0.00432215,0.003323488,0.001608461,0.003188025,0.003825553,0.00014326,0.003030457,0.001569578,0.004304932,0.004354583,0.003236467,0.001984572,0.004650726,-0.00283442,-0.004733138,-0.003124957,0.003174165,-0.003641486,-0.001597535,0.000408079,0.002644146,0.00070107,-0.001085211
beauty,0.001106701,0.002721607,-0.000751136,0.001113039,-0.004547654,0.004588381,-0.002960593,0.003297085,-0.003024811,0.000850773,-0.000752601,0.001684146,0.003347048,-0.000338964,0.004719386,-0.001368258,-0.000464709,0.004951463,0.004682873,-0.001895435,-0.004043579,0.003446917,-0.004944126,-0.004353678,-0.000344349,-0.002281304,0.004492437,0.003886727,-0.000487233,0.000700802,0.001946429,0.00442109,0.003150404,-0.001766552,-0.002899037,-0.002614694,-0.002911585,0.003604877,-0.003094616,-0.004579468,0.004093727,0.004898214,0.002453723,0.001597434,-0.000753811,-0.003956966,0.002340945,-0.000750223,0.001629494,-0.004116663,0.004612552,0.003884379,0.002887002,-0.004902241,0.002568069,-0.000733466,-0.001210749,-0.001707704,-0.003000118,-0.003836985,-0.004808551,0.000635386,-1.97E-05,-0.001260496,-0.004174149,0.001380555,0.000801591,0.001022304,-0.000419083,0.004768131,0.003301642,0.004101431,0.001285217,-0.002799392,0.002067823,-0.002781318,-0.001652858,0.003993648,-0.004144942,-0.000626933,0.000969702,-0.003208479,-0.004998773,-0.000736352,-0.002887451,0.001064419,-0.001201576,-0.00260934,-0.000273058,-0.001415009,-0.00219397,-0.004457515,-0.002769833,0.004651224,-0.004843513,-0.003365823,0.003453557,0.00103453,0.002356014,3.82E-05
