,0,1,2,3,4,5,6,7,8,9,10,11,12,13,14,15,16,17,18,19,20,21,22,23,24,25,26,27,28,29,30,31,32,33,34,35,36,37,38,39,40,41,42,43,44,45,46,47,48,49,50,51,52,53,54,55,56,57,58,59,60,61,62,63,64,65,66,67,68,69,70,71,72,73,74,75,76,77,78,79,80,81,82,83,84,85,86,87,88,89,90,91,92,93,94,95,96,97,98,99
wedding,-0.002616747,0.003555795,-0.0016319323,-0.004709233,-0.002482087,0.0022785778,0.0004070904,-0.0013626197,-0.0037613504,0.0019198055,0.0028886283,0.0046439553,0.0033134115,0.001519365,0.0023497185,-0.0041450793,0.0037548381,0.0032794885,-0.0010049699,-0.00010281234,0.0005107275,7.19024e-05,0.0027440293,0.002087048,-0.0031233588,-0.0017592761,-0.0040075267,0.0035831311,0.002869791,-0.0025796844,-0.00031035393,-0.0002404805,0.0028471518,0.0024210778,-0.0015028678,-0.0017001751,-0.0040582167,0.0047842367,-0.0010137776,-0.0025045166,-0.0030857453,-0.003847997,0.0030294305,-0.000138849,-0.00046275023,-0.0011799062,-0.004774178,0.0043487414,0.0048620426,-0.0040707616,-0.00084319117,-0.0016737849,-0.0034022392,-0.001653527,0.001992051,0.0019527524,0.0014937915,-0.003619029,0.0023056462,-5.430019e-06,0.0010551191,-0.0020775937,-0.0026947665,0.0006425041,0.000290774,0.0010342452,-0.000118097836,-0.0035318055,-0.0028649077,-0.0026059595,0.003760467,-0.0009638648,-0.0029338417,-0.003227606,0.0037745836,0.0033050505,-0.004981423,0.004046455,-0.0018354818,-0.004722877,-0.0009653109,-0.002701432,0.0029138736,-0.0040663634,0.00062940724,-0.003489663,0.0008168687,0.003441397,-0.0037399807,0.00085991895,0.00026853365,0.0047871,-0.0013224041,-0.00090001617,0.0042380816,0.0046085264,-0.0023681242,-0.0022228328,0.0027020904,-0.004463237
family,0.0017276386,0.0022293415,-0.0049159117,0.0046107396,0.0029534886,0.0019968848,-0.003316013,0.0020549374,-0.00083819055,0.00046505453,0.00046283152,-0.003930842,0.004746688,1.6612512e-05,0.00023347886,-0.0031537083,0.004444288,-0.001311408,0.00044115385,0.003047724,0.0033116895,0.004647742,0.0011683872,0.0047442815,-0.002404162,0.00043937677,0.0048560333,0.0032211205,0.001359046,-0.0011375782,-0.0019078021,0.002452514,0.0049231625,-0.0044197473,0.0007706367,-0.00081094104,0.0016532372,-0.0013669877,-0.002620528,0.002360097,-0.0019792751,0.0026093172,-0.0025238667,0.00030493562,0.0036858504,0.0017446029,0.00064307544,-0.0027143713,0.0016074958,0.0040147193,-0.0033825778,0.0010719751,-0.0028529149,0.004627591,-0.0021656542,0.0022201831,-0.00092384376,0.00093133975,-0.0038003284,0.0031681072,0.005015981,-0.0028111872,-0.0019503197,0.0034174777,-0.0011791374,0.0030085885,-0.0013170261,0.0051890095,-0.0015703228,-0.0017121552,0.0050252513,0.0026974499,0.0024200233,0.0009793337,0.0024671708,0.004638183,7.527587e-05,-0.002253395,0.0037169035,0.0021714135,-0.003938016,0.002174353,-0.0019700113,-0.004923135,-0.0047775884,-0.0020037119,0.004719888,-0.0031738046,-0.0029415542,0.0029630933,0.004485912,-0.0040114773,-0.0013279434,0.0037096809,0.0034658278,-0.003778809,0.0032287221,-0.004449397,0.0006389505,0.004382242
relationships,2.1503927e-05,0.00066762767,-0.00025547648,-0.0020131748,-0.0011103317,8.4635416e-05,0.002365233,-0.002951119,-0.0010674691,0.0018633738,-0.0015345297,0.0024533207,0.004683074,0.0009176042,0.0047864406,-0.0034385032,0.000978819,0.00375594,-0.0004032977,0.00062380853,0.0009861324,0.0014607669,0.001530358,-0.0010960039,-0.0044075903,0.0022651711,0.0044476846,-0.002100584,-0.0003451317,-0.0024612288,-0.0031296883,-9.885906e-05,-0.0017126959,-0.0042480156,0.0041657016,-0.00175443,0.0036988705,-0.0040343865,0.0012806389,-0.0026263124,0.003991595,-0.004594639,-0.0038271984,-0.003740659,0.0011048163,0.00478414,0.0023412313,0.0043872823,0.004300431,0.0015779883,0.0011099916,-0.001049359,0.0003221444,0.0032440524,-0.002213459,0.0037475424,0.0007768227,-0.0030884638,0.0026834402,-0.0027422423,0.0025645338,-0.0008858158,0.0016291959,-0.0023369344,0.00085142005,-0.0040190266,0.0021105926,-0.0032642588,-0.0048330724,0.0035124714,0.0037815024,-0.00024144791,-0.004895414,-0.002955632,-0.0015609582,0.0008304064,-0.0042192987,0.0037703754,0.0016903637,-0.0025223556,-0.00187094,0.004579978,2.1380923e-05,-0.00143276,0.0039288816,0.00081221224,-0.0027108875,-0.00021542392,-0.0009165095,0.003545899,0.0009883917,0.002599647,-0.004204704,0.00090269244,0.000927016,0.0038229944,-0.00045821397,-0.0029907469,-0.0018142305,-0.004545156
gang,-0.0041787867,-0.0015346386,-0.00085030624,-0.0049940143,-0.0017907622,0.0024806808,0.0023130155,0.0045131915,-0.002735237,-0.0018397769,0.00025146228,0.0027769625,0.0014036227,-0.0014724656,0.004010889,0.002227874,-0.0028278974,-0.0010986127,0.004915195,0.0048423754,0.0041796975,-0.0037433822,-0.0014754118,-0.004026288,0.0035815698,-0.004681336,-0.0026184819,0.0015249335,0.004447094,0.0043551982,0.0038055202,0.0028946535,-3.9933573e-05,-6.269469e-05,0.00047083388,-0.0016661762,-0.0046266005,-0.0042045787,-0.0048393197,0.00039148764,-0.0015704123,-0.0022241306,0.0021419835,-0.0016760916,0.0016794365,-0.004006327,-0.0031992947,-0.0047570737,0.0015658351,-0.0030740383,-0.004142137,0.0026240507,-0.004001427,-0.0023283763,0.0017249961,0.0017857839,-0.003943296,3.946235e-05,-0.0023910566,-0.0020762014,-0.0047573275,0.0040062917,0.0008761827,0.004323652,0.0046063904,-0.00074563036,0.0031784452,0.0037984499,-0.0018590551,-0.0048301346,0.0013549307,-0.0051141926,0.0026349989,0.00069826446,0.004867716,0.0033333523,0.0012968074,-0.0025237086,-5.5203327e-05,-0.0031797048,-0.0030140271,-0.004832957,0.004728896,-0.0024839423,0.0006231077,-0.0024809868,0.00087221107,0.0050739576,0.00468477,-0.0013285896,-0.0037973819,-0.0027609358,-0.0019806833,-0.004565983,0.0016012855,0.0013355658,-0.00043326762,-0.0025982668,-0.005039898,-0.0003327225
thief,-0.0010135376,-0.0039278828,-0.0042099985,0.002390571,0.0018903271,0.00013214731,-0.0002115906,0.000807285,-0.002872468,0.0034569018,-0.002380481,-0.0009113791,-0.004458052,0.0013303959,0.0003036916,0.0042974427,-0.0019010773,0.0040338617,-0.002227499,0.0006474651,0.00040460078,-0.0017685774,0.0023812284,0.003523236,0.0027027547,-0.0015080444,0.0044259736,-0.0029193007,-0.0007901412,0.00060955016,0.0024335617,0.0040342873,-0.00071255997,-0.0021299988,0.0013689061,0.0022271108,-0.002240413,-0.00097592315,-0.0008152324,-0.0041112034,0.0038603747,-0.0036339452,0.0019977535,-0.003201789,0.0046246964,0.0024688637,0.0050101555,-0.003390202,-0.0024752165,0.004831583,-0.00504324,-0.0031667447,0.003366875,-0.0026623176,-0.0015789699,-0.004989338,0.00017626563,0.004643989,-0.00366873,0.00072484446,8.332683e-05,0.0038877418,0.004396568,-0.0038175127,0.0011678467,0.0026456206,-0.002518218,0.0012706855,-0.0009204225,-0.0009979773,-0.0015159671,0.0037182225,-0.0036710028,-0.0027646075,-0.0042923377,0.0031903586,-0.0045017772,-0.0030221313,0.0033426085,0.0014512519,-0.003636021,0.0011045432,-0.000971862,-0.0017561481,0.0037994122,-0.0017591807,-0.0014340371,0.0011447271,-0.0037755524,-0.00043576193,-0.0045976466,0.004566659,0.0017638061,0.004127274,0.0019859646,0.0038408276,-0.0030320864,-0.0039595584,1.043656e-05,0.0016433446
tree,-0.0039114165,0.0027020306,-0.004810108,-0.0008721175,-0.0001502338,0.0048839776,-0.003772378,0.0021439376,-0.0017900583,0.0039744442,0.004373511,0.0043555233,0.0013910884,-0.0014070818,-0.0020306148,0.0007393348,0.0023457657,0.004285035,0.003268285,-0.003508769,0.004406013,-0.0018562762,-0.0027330266,-0.004982236,0.00048184936,0.0006004164,-0.004838814,0.0004666119,-0.0011163976,-0.0005744899,-0.0036020868,0.002025942,0.00394191,-0.0013445915,0.0006054874,0.0025745553,-0.00025853544,0.00454688,0.004668302,-0.0038751215,0.004274303,0.00088973396,-0.0010182012,0.001100545,0.0038448875,-0.0047883177,0.0017765388,0.0026257166,-0.00034626314,0.0038917651,0.002301963,-0.004947357,-0.0005723264,0.0010933487,-0.0022267725,-0.0008984804,0.0014080034,-0.0012320454,0.0016326032,-0.0037493876,0.0008856146,0.004480565,0.0030935954,-0.0043234914,0.0048037306,0.004001126,-0.004334964,0.0046968986,0.0022901767,-0.0027012276,0.002629645,0.0045791008,-0.004979006,-0.0016416411,-0.00039644798,0.0014178748,0.00023230271,-0.000660643,-0.0033766704,-0.00252287,0.0043634167,0.0013845912,0.0010683826,-0.0009794884,-0.0006580158,-0.0019650685,0.0002981537,0.0008516217,-0.003856235,-0.0012782706,-0.005040045,0.00030625486,-0.0027233511,-0.0037766208,-0.0015357736,-0.0044370326,-0.0013422079,-0.00019694524,0.00056891685,0.0008688217
france,0.0005052944,-0.0015464963,-0.003073615,-0.0046133725,0.0048220893,-0.0022714562,0.0018198057,0.0035415993,0.00078216725,0.0038414204,0.003643564,0.001936001,0.003550138,0.0029716378,0.0007433431,0.0019452622,-0.0032995245,0.0015449818,0.001873498,-0.0011939629,0.00041021692,0.0048429198,0.004286936,0.0026442334,0.0029619096,0.0031682325,-0.0020893244,-0.0035582182,-0.0035533134,-0.001731998,-0.00056318607,-0.0035189842,-0.0037698494,-0.0047754473,0.000949271,0.0021556406,-0.0028334816,-0.0039811195,0.002108172,-0.0024853258,0.0019166411,-0.0026092504,-0.0043359534,-0.0038332962,-0.0032734715,-0.004355103,0.004750601,-0.00058652146,0.0048643374,0.0012817943,0.0030608797,0.004866006,0.0017097532,0.003122013,-0.0028162862,0.0035101352,0.0013922213,0.00298148,-0.0038129392,0.004865104,-0.00083486707,0.004466284,0.0009794413,-0.0010455658,-0.0021859345,-0.0029403449,0.0040480113,0.0012560932,-0.0008121039,0.003961408,0.00473532,-0.0011206338,-0.0022885783,0.0011254022,0.0037439198,0.0002952974,0.0031567009,-0.0009924681,0.0038849257,0.0047159838,-0.002602338,-0.0041398057,0.00450801,-0.0021999048,0.00489481,-0.0048539927,0.0021899051,-0.0038887137,0.0013365934,0.0026571339,0.0004396092,0.0024901747,0.00018157331,0.0026162977,-0.004605013,-0.0013163568,0.00014354786,0.0032294001,-0.0037493475,0.00409889
world,0.0021383408,0.0036936111,0.003446608,0.0017585676,-0.0034979663,0.003051496,0.0035720137,-0.0033958384,-0.0047364417,0.002085555,-0.0041543306,-0.0029531722,0.0045240102,0.00022038183,-0.0046693753,0.0008081701,-0.0029051572,0.00046907808,-0.002905721,0.00018991774,0.0016128332,-0.00026759927,0.004026313,0.00060652214,-0.0026087288,0.0019454597,-0.003538161,-0.0016269652,6.913797e-05,0.0016751183,0.004844164,-0.0021869694,-0.0048142094,0.001692511,-0.004853871,0.0038267144,-0.0028220084,-0.0012525913,0.002885306,0.00094084354,0.00036185235,0.0049002883,0.0042313216,0.00427414,-0.0011696614,-0.0005642437,-0.0005190152,0.0005813098,0.0026343148,0.0019300868,-0.0013343411,0.0047826017,-0.0025165598,-0.0038313917,0.0026666299,0.002617141,-0.0027722046,0.00033539004,-0.0044949367,-0.002749456,0.00062276877,-0.0011503801,0.00018345522,-0.0016801556,0.0016225405,0.0013776845,0.001494889,0.0026251297,-0.002348932,-0.002701099,0.0016891819,0.0022631148,-0.0028518508,-0.003381199,0.003809628,0.0013054197,0.0011013261,-0.0023144188,-0.00491241,-0.00470171,0.0041454295,0.003063073,0.004327552,0.002213669,-0.00068254286,-0.00015719618,-0.0043062093,0.0045627104,-0.0041862107,-0.0003147149,-0.0041230847,0.004815427,0.0037631153,0.0039569717,0.00013259616,-0.00165603,0.0042114775,-0.0023850352,0.00054205087,-0.0033745752
war,-0.0029074764,0.00450037,0.0028945985,0.00062465854,0.004218799,0.0019134794,-0.0032956868,0.0003833834,0.0017472832,-0.0031914576,0.004992569,0.0044448166,0.0026978895,-0.004001824,-0.0028974228,-0.0043536774,0.0038369645,-0.003102039,-0.0017811683,-0.0001989018,0.0024868746,0.0006126826,-0.0018216623,0.0039633466,-0.0031275852,0.0041111526,-0.0030320466,-0.00514509,0.00067459344,0.0004975207,-0.00091276295,0.0005545069,0.00088662206,-0.0018793526,0.0026097714,0.00015604415,-0.0017555014,-0.0004262208,-0.0012301094,-0.004571939,0.0018281981,-0.0009208834,-0.0036897578,-7.693116e-05,-0.001547212,-0.003159468,0.002308897,-0.00481877,-0.004099102,0.004377166,0.0016971653,-0.004684799,-0.0001461031,-0.0014704858,-0.003298667,-0.00015088648,0.0020173702,-0.0040874495,-0.0040037064,-0.0036125751,0.00063947093,0.0034026646,-0.0045446283,0.00096411887,-0.0028217128,-0.002558733,0.0050079846,-0.003900502,-0.004450363,0.0028640432,-0.0031428111,-0.0014821787,0.0016925302,-0.0010971343,0.0019590603,-0.0019397461,-0.0020648746,-0.0039708493,-0.001814605,-0.0023752307,0.0036899128,0.0025323199,0.0050021736,-6.581443e-05,0.00035486443,-0.00018830178,0.002897284,-0.0027701354,-0.00025211216,-0.0011584426,0.00015997393,0.00038527115,0.0016804117,0.0030442197,-0.003878195,-9.86933e-06,0.0038861847,0.00031725378,-0.0023823846,-0.0015023197
one,-0.0046735215,-0.0015013688,-0.004107988,-0.0022441756,0.00077906565,0.0040797447,-0.0037022806,-0.0020219455,-0.0014211884,0.004759078,8.500135e-05,-0.0012913763,0.00036422323,-0.0033468404,0.0030502144,0.00081638317,-0.003302956,0.0005273232,0.004054763,0.002158744,-0.004523903,-0.004652878,0.0020925018,0.0038765084,0.004830262,-0.004649786,-0.0040920684,0.0021618628,-0.0005115491,-0.0010444972,0.004906865,0.0023831802,-0.0019314033,-0.0029448569,0.00426906,0.004129124,-0.0013281088,-0.0038322033,0.0024383974,-0.0012064006,0.0013540037,0.0014890335,0.00019208509,-0.0001002264,0.0044809114,-0.0030541387,0.0021042111,0.004243902,0.002152098,0.002989856,-0.00076642714,-0.0041858517,9.4197334e-05,-0.00022082486,0.0047579897,0.0013755077,-0.0007606997,-0.0042926823,-0.0023725834,0.00010642236,-0.0047908276,-0.0018820266,0.0014212949,-0.0018978432,-0.0018348544,-0.0009098284,0.0048983498,-0.0011065749,0.0020189327,0.0024368826,0.003411187,0.0018106326,-0.0024191078,-0.0035611922,-0.0021572346,-0.002263771,0.0038580876,-0.0031499541,-0.0024534203,-0.00013402486,0.0015430037,0.002175483,0.001996896,-0.0026022748,0.00096887734,-0.00420606,0.0046133837,-0.0014820445,-0.0015788168,0.0015481632,-0.0050957086,0.004271322,-0.0028117718,-0.0019993081,8.0228434e-05,0.0019331542,-0.005166344,0.0033427335,-0.0003045456,-3.829267e-05
art,0.0016173336,0.0043251156,-0.0045234933,-0.0028803805,0.00391854,0.0032460387,-0.00058751745,0.0019552824,-0.00045146013,0.001236316,-0.0024291133,0.0046628215,0.0006902588,0.00012922651,0.004321391,0.002777796,-0.0027698567,-0.0043865056,0.0039438712,0.0028878546,-0.0025404133,0.00026068263,-0.00082201447,0.003311446,-0.004597697,0.0035905682,0.0032028013,-0.0046960004,-0.004880231,0.0049109543,0.0026938021,0.0035781376,-0.0023639468,-0.00085349043,0.000525746,-0.0015158387,-0.0023334697,-0.0036393537,-0.0020732346,0.004683973,0.0009790357,0.002939058,-0.0035554424,-0.0023570417,-0.00032241744,-0.0024192524,0.003094797,-0.0033200472,0.0041642585,-0.00096319546,0.002564592,-0.0020140363,6.043893e-05,0.0034021672,0.0045048855,-0.00427551,0.001248183,-0.0044736527,-0.0033609108,-0.0036272067,-0.0015961843,0.0043355105,-0.0034406204,-0.0046135616,-0.0018754241,-0.00347794,-0.0043575265,-0.0022932873,0.00040472,-0.0040732245,-0.00094685704,5.762259e-05,-0.0043581775,0.0040792823,-0.00068630505,0.003716826,0.0019932997,-0.0026990792,-0.00043981455,-0.0034726467,0.0016013065,0.0036746967,-0.0015914661,0.00094084576,0.0040297974,-0.0024930914,-0.0047764867,0.002399897,0.0032776424,-0.004565046,0.004078528,0.0025695837,0.0034558226,0.00033470357,0.0046404027,0.0045013404,-0.00066283066,-0.0023575786,0.0030203273,-0.0031803695
dance,0.0049501862,-0.0005543827,0.0023603013,-0.0039546513,-0.0037378687,0.0049759867,-0.0009477892,-0.003006359,0.001185225,0.004135576,0.00407282,0.00037214396,0.0029612933,0.0015364639,-0.0036787565,-3.130817e-05,-0.0025169537,-0.0010999276,0.00038371838,-0.0021723888,-0.0028270816,-0.004513789,-0.0026174234,-0.0016952399,0.0025796941,0.0048747305,-0.002683072,-0.0035665683,0.002276009,0.0029694934,0.003820873,0.00034037023,0.0036529754,0.0020702062,0.0046135564,0.0022364361,0.0035546115,-0.0002574993,-0.0045496225,-0.0041365307,0.0018953606,-0.005111477,0.0024983666,-0.00086907047,7.2110284e-05,0.0020596748,-0.0014746744,0.0012226729,-0.0006969527,0.004886772,-2.432511e-05,0.000516165,0.0036714473,-0.0050236145,0.0033276593,-0.004084591,-0.0046789823,-0.00457027,0.0051895645,-0.002929396,-0.0010984587,-0.004476919,-0.0001431554,-0.0026914792,0.002285879,0.0019352639,0.0036795076,-0.003659811,0.0048500034,0.0005103351,0.0012876798,0.003986358,-0.004970376,-0.0047422918,0.0034941514,-0.0043777735,0.0007336627,0.0018700005,-0.005067804,-0.0015592781,-0.0031543397,-0.00037477672,-0.0040207095,0.004383106,0.0021996163,0.004645864,0.00197437,-0.0048306272,0.0024338167,0.0007599587,0.0030164917,0.0027524293,-0.00035927477,0.001378398,0.0044120504,-0.0015738748,-0.004351914,-0.0015796641,-0.001998399,-0.00048703325
silent,-0.0013147797,-0.00031868578,0.0015495658,-0.0007448593,0.0002131077,0.00119099,0.004554405,0.0011984523,0.0049902275,-0.003001157,-0.0005159596,0.00025704212,0.0045548873,0.0003506707,0.0030914745,-0.00188061,0.003067414,-0.0016464924,0.00048684006,0.0013926983,0.0044081197,-0.00059388246,0.004384521,-0.00055941736,-0.0031975054,-0.0041584866,0.0026572754,-0.0001362038,0.0037299339,0.0036307664,-0.0021249126,0.004657952,0.0040375907,0.00078612665,0.0019698709,-0.00335278,0.002263356,0.0006226358,-0.0047244774,0.0030237753,-0.0020767674,0.004095689,4.3596425e-05,-0.0035420326,-0.0027059168,-0.0016348967,-0.0049985866,0.003999335,0.0035619494,0.0022763824,0.0035401757,0.00034036455,-0.0032855535,0.0035712598,-0.0008352607,-0.0015323428,0.0011064433,-0.0005010183,-0.002942774,-0.004096452,-0.002381805,-0.0021041501,0.0020676495,-0.0038779497,-0.003835917,0.0046521323,0.0036358605,0.003523,-0.0009531756,0.004640111,0.00091391,0.0012614429,0.0039760238,0.0026689149,-0.003464834,0.002982666,-0.004785829,0.0019837173,-0.0031700234,0.001301038,-0.0045130234,0.00043547509,0.0045523928,-0.0038594664,-0.00077394984,2.96868e-05,0.0047398675,-0.0003205358,-0.0017886132,-0.0023167743,0.0034896918,-0.0007745931,-0.002286817,0.002707685,-0.003749688,-0.0033693416,-0.0032445467,-0.0010488924,-0.0031536152,0.0014541913
film,0.0036120343,-0.0016174697,0.002920343,-0.0014973996,0.0012853107,-0.0031182962,-0.001996117,0.0049990467,-0.00018859871,0.0014625067,0.0007734422,0.0030025442,0.0050642663,-0.0027394232,0.0033089453,-0.0026064087,0.0036805123,-0.0009941666,-0.00021248279,-0.0032844099,0.0021625948,0.0048155384,-0.0036890395,-0.0035591365,-0.0022358699,0.004368039,-0.0018003037,0.00060347165,-0.0025464275,-0.0006460041,0.0007604344,0.0040456783,-0.00053972343,-0.0009093519,0.0017575272,-0.0048058624,0.0021106414,-0.0019408071,-0.0010976613,0.002438604,-0.002247062,0.0014135715,0.003489782,-0.000893948,-0.00026236198,5.3307762e-05,9.070029e-05,0.0029459347,-0.0030864,-0.0029258407,-0.0029745987,0.0035544115,0.0017659519,-0.0046185656,-0.0047551654,0.0026402655,0.00023997287,-0.0007542624,0.0008994635,-0.0035968188,-0.00040996337,0.000120152465,-0.00266727,-0.0014233295,0.004579704,-0.0049154945,0.0008569528,-0.004178992,0.0005552306,0.002346587,0.0007132235,-0.002868732,0.0030618487,-0.0016602022,0.0049040606,-0.005225127,0.0026305853,-0.0019628461,0.0010558921,0.0023705005,-0.004727701,0.0009021298,0.0030408178,0.0042751837,0.0033092317,0.00093037257,0.0008896797,-0.004501927,-0.0038674031,0.0045832517,-0.0019067446,-0.0010274517,0.002943977,-0.004598012,0.0040665283,-0.0035890725,-0.0054244753,0.0021046968,-0.0003176282,0.0033023509
worker,-0.0029663153,0.0010272985,0.0020430547,-0.000556118,0.0022836283,0.0014611752,0.004734297,0.0031275803,0.0031083978,-0.004752839,-0.0035054577,0.0031923652,0.0039990665,0.00021164128,-8.5388834e-05,-0.004041104,-0.0016536976,0.00062134553,-0.003349844,-0.00237592,0.0043692943,0.005070459,0.0009900811,0.002828651,0.002949696,-2.0031788e-05,-0.0020897326,-0.0016185336,0.0008998587,0.00038332833,-0.00038328758,-0.004786384,0.00097041234,0.0013611283,-0.0032554273,0.0010170594,-0.005082729,0.004469891,-0.0031405846,0.0006659299,0.00076859636,-0.0022597427,-0.0033317446,0.00036041226,-0.0005903503,0.0025537482,0.004788272,0.0019605814,0.0015817937,0.0021619569,-0.00097273896,0.00064153166,0.0025532765,-0.00440101,-0.0014490678,-0.0037485566,-0.0040713907,-0.0004445927,0.00226091,-0.0029160113,-0.0012673713,0.0012910606,-0.003629836,-0.0017943556,0.0025265994,0.0018063436,-0.0008280274,0.0048430213,-0.0032276951,0.0028026493,0.00039121736,0.0012527924,0.0041288733,0.002367091,-0.0037900722,-0.00023761945,-0.0019471229,-0.004527844,-0.0028446023,0.004025096,-0.0036176364,-0.0030197713,0.0005953271,-0.0039262017,0.0021474229,-0.00089059566,-0.0031177904,-0.0010895992,-0.0025375928,-0.0025945567,0.001788902,0.00054930546,0.0030838705,0.004776864,-6.2547326e-05,-0.0013586149,-0.0017818104,-0.0023142116,-0.0011211951,-0.0012182726
escape,0.0026839217,-0.0014969836,0.0008986789,-0.002198414,0.0003500345,-0.001660887,0.0040054307,0.004151242,0.003749668,-0.003318479,0.0011598201,-0.0033362994,0.0007580746,-0.0010066093,-0.0017512313,0.0008921422,0.0027283768,0.0002145304,0.00082651235,0.0025659592,-0.0016770704,0.00453448,0.0028801116,-0.0025792422,0.0023455443,-0.0016243586,-0.003515232,-0.004027423,0.004453175,0.0001481233,-0.0023032157,-0.001175084,0.003375546,0.002725575,0.0033038938,-0.004219439,-0.0029078135,0.0017068976,0.0024260234,-0.0034469052,0.00435137,-0.0033562721,-0.00018539904,0.00069476623,-0.0007042487,-0.0026427407,-0.0004435824,-0.0012277485,0.0001213316,-0.0026108227,0.0032095553,0.00416715,-0.0010270906,-0.0008863328,-0.004222955,0.0030555106,0.0010445463,-0.0017266213,0.0028782596,0.0022069933,-0.0011294165,-0.0037964156,0.0042748214,0.0017625313,-0.002275033,-0.004848003,0.004740653,0.00025435703,-0.0025560334,0.0012812017,0.0034764835,-0.0041428856,0.0016167394,0.0038890126,0.002278728,-0.0027406977,0.0016102775,0.000121763725,-0.0016419417,-0.001091753,-0.002575622,-0.0042219865,0.00069419004,0.003898969,-0.0015231678,-0.0042275013,-0.004117457,-0.0019324512,0.004263677,0.0006567215,-0.0029525647,-0.0045817825,0.002862031,0.0037335071,-0.0047334037,0.0017523359,0.0019660813,-0.002518815,-0.0013554291,0.0005021583
german,-0.003585894,-0.0009802494,0.004905962,-0.0010684204,0.002198948,0.0046965345,0.00058056833,-0.0015793627,-0.0045654275,0.002338022,-0.004471749,-0.0019414689,-0.0006755499,0.0032409173,0.001834269,-0.0029670182,-0.0015766394,-0.0049264696,0.004218597,0.0038777213,-0.0034191266,0.0021221747,0.0004051921,0.0012617854,-0.001132811,-0.0038789974,-0.0034856903,-0.0011522699,-0.004212546,-0.0034568994,0.002963714,-0.00062289427,-0.0046643787,0.0020960432,-0.003693416,-0.0018188743,-0.0023474488,-0.0010983924,-0.0047031078,0.0038735876,-0.004984009,-0.0017986152,-0.0012715178,0.0032527768,-0.004434085,-0.003992917,-0.0041596233,0.00050625997,0.0011307875,0.0008390011,0.003027392,0.0038143839,-0.0031509895,0.003985228,-0.0006438865,0.003563368,-0.0015153154,-0.0011569472,0.0018683415,-0.0032081471,0.0044984235,-0.0007657909,0.0017445763,-0.0035706465,0.00415152,0.001106202,0.0049644737,0.0027255735,9.613791e-05,0.0017180375,0.0023537828,0.0010426332,-0.0001672126,-0.0004797103,-0.002539709,0.003740247,0.0020197544,-0.0007527034,0.0019699698,0.0018331384,0.0043202387,-0.004761894,-0.0034290098,-0.004397556,-0.0048553357,-2.4655752e-05,0.003777204,-0.00096395257,0.0005971244,-0.0032029795,0.0019743217,0.00045128172,-0.0038117906,-0.002975479,0.00015103296,0.0048712078,0.004825437,-0.004191031,0.001337239,-0.0010639862
violence,0.0019614517,-0.0007406653,-0.0007046201,-0.001746482,0.0020628728,0.0002093369,0.0012430104,-0.003394292,-0.0026858328,0.003184901,0.0024180808,0.0045204773,-0.0035316832,0.00021287188,0.004150974,-0.00063781824,0.0015939822,-0.004820182,-0.0013520201,0.0047015753,0.0023517963,-0.0023183166,-0.00042949026,-0.003082793,-0.0049226014,-0.004457198,0.0049261134,-0.0022353227,-0.0043893764,0.0023046578,0.0006555298,0.0024926579,0.0034989114,0.0038850484,0.0011604059,0.002658471,-0.0021122934,0.0021620034,0.000320427,-0.0029703758,-0.00045890108,-0.0018036506,-0.0016313012,-0.0008858827,0.0008993283,-0.0013462506,-0.00366353,0.00036126465,0.00019221939,0.003273589,-0.004376814,0.0017058545,-0.0010218911,0.0036031778,0.0038187804,-0.0027702039,-0.0043728985,-0.0050497674,0.0016335407,0.0029281802,-0.00025346098,-0.00498598,0.0031965722,0.0040920894,-0.00057978905,0.002874476,0.0014622821,-0.000780066,-0.0036181966,0.0013030294,-0.0029237827,0.0009277074,-0.0041713356,-0.00066719565,0.002802158,0.0022932724,0.001939284,-5.7032685e-07,0.0020962807,-0.0007997414,0.003323199,0.0039077876,0.0026762816,0.003763358,0.0048341025,-0.00317038,-0.0028218944,-0.002589238,-0.0002842714,0.0030307067,-0.0046848436,0.0024776235,-0.000119509335,-0.00523019,0.0024994512,-0.004150531,-0.003535572,0.0038860817,0.0012151113,-0.0023674797
sibling,0.0022347302,-0.00027885803,0.003856565,-0.0011223885,-0.0029279075,-0.004715004,0.0011199411,-0.00035397641,-0.0005140976,0.0029707807,0.0045095636,-0.0012040724,0.0014421303,-0.000868332,-0.0013620787,-0.0019929367,-0.0049764463,0.0049116984,0.0020822668,-0.0044960426,0.00034425393,-2.336278e-05,0.004231199,-0.0009949354,-0.0027326166,-0.00084455847,0.0044119284,0.003019781,-0.0029359995,-0.004539605,-0.0021021448,-0.003404678,-0.004767603,-0.002878687,-0.0049342816,-0.004392974,0.0040749456,0.0038556622,-0.00017336398,0.003024743,-0.0019710578,-0.0041472362,-0.004255507,0.0024096256,0.0014624713,0.000273787,-8.654517e-05,0.0045722737,0.00020021167,0.0025244108,-0.0021889694,0.0027530242,0.0022035283,-0.0047133123,0.0024566213,0.0012590648,-0.0018912315,0.0034408015,0.0049456283,-0.003676539,0.001775157,0.0016329357,-0.0020456528,0.001626823,0.0026317663,-0.0019450318,0.0036070948,-0.003922698,-0.0006128655,-0.004384698,-0.003169989,0.0011650078,-0.004487186,0.0036768583,0.00046015548,-0.0002344422,-0.00055326696,-0.0016425003,-0.0046994947,-0.004007635,0.0007201986,-0.0038867334,0.002203288,-0.0019727966,0.0028002076,0.0043351282,-0.0034101722,-0.0014424728,-0.0043776524,0.0031990784,-0.0008568196,0.004716818,0.00036429157,0.0011106275,-0.0016013733,-0.0046104095,-0.0050147977,-0.0037443854,0.001757423,-0.0042616855
rivalry,-0.002683709,-7.199509e-05,0.00088924635,0.0025750916,0.0043043443,0.0018972991,0.0012027933,0.0038261388,0.0036443467,-0.0012548581,-0.0009807341,0.0004279989,-9.222763e-05,0.004217179,0.00022545418,-0.0033526977,0.003807345,-0.0037579788,-0.0012847563,-0.003030565,-0.0013358833,-0.0039676917,-0.0038772852,0.002703129,0.003262465,-0.0005800278,0.0019721603,0.00022069887,0.004479638,-0.004599518,0.0044111046,-0.0028419415,-0.0032020116,-0.002190951,0.0030779245,-0.004262505,0.0034528119,-0.0027132395,-0.0014428098,-0.002015809,0.0009850495,-0.00024658156,0.000175997,0.0009982048,-0.0012525367,0.001463303,0.00016507822,-0.0032499756,0.00015756938,-0.0034148498,0.0003734043,0.004806972,-0.0006342516,-0.0036811482,-0.0008842724,0.00096567767,-0.0035402055,-0.0015713802,0.0014959163,0.0014246196,1.892405e-05,-0.0015693244,-0.004097739,0.001210093,0.0038924553,1.6151627e-05,-0.003921189,0.0033472574,0.0017478949,0.00095233374,-0.0018871999,2.943478e-05,-0.0035370158,0.0011087559,-0.0040791947,0.0040824013,0.0039775083,0.0018373769,-0.0024559381,0.0041122767,0.0015340217,-0.00017281805,0.0020034462,-0.0047640917,-0.002068785,0.0020824824,-0.0028599033,-0.0015393854,0.00104943,0.0019985985,0.0037757058,0.0029155533,-0.00057610753,-0.0004938199,-0.003451455,-0.0037509226,0.0025973176,0.00047160816,-0.001971262,0.0035078933
singer,-0.0048424457,-0.0041251127,-0.0013467857,-0.0027096805,0.004874555,0.0050672884,0.0010383694,-0.00037680593,-1.3800877e-05,0.002503502,-0.0014947593,-0.0046046767,-0.0005128171,-0.0011591763,-0.0013624827,0.0017692315,-0.00037977684,0.0043783016,0.003967136,-3.454603e-05,-0.00093442877,0.003973798,-0.0025914721,0.0016697793,-0.0022285508,-0.0036345029,-0.0021305867,-0.005111791,0.0034857867,0.0021521924,0.0028159993,-0.0025387371,0.0037449747,-0.0044081328,0.0019543131,0.0035675387,0.0022674794,0.0019974639,-0.0038265868,-0.0037774418,-0.0036677464,-0.0020021892,0.0012288599,0.0038383885,-0.0019224604,-0.0027507828,0.0042011742,0.0038857877,0.0023899255,-0.0003362595,0.004113232,0.0031364486,0.00048556997,0.0013097194,-0.0033268896,0.00023227114,0.0004715842,0.00031296903,-0.004158858,-0.0021438499,-0.004275711,0.003402073,-0.0023013214,-0.0046277978,0.0036804874,0.0021874083,-0.0039354926,-0.0014962297,-0.0029692901,0.0010654203,-0.0035822056,0.001500871,-0.00026637103,-0.0018627581,-0.0011705919,0.0012151996,-0.0019909483,-0.0025373257,0.00080940424,0.003362725,-0.00036631624,-0.00029555897,-0.003755177,0.0044140923,-0.0022997432,0.004012434,-9.215281e-05,-0.0011537421,-2.7026255e-05,-0.0030756523,-0.0016053797,0.004289382,0.0007268996,-0.001926244,-0.0025653483,0.0030416287,0.00077572395,-0.003994741,-0.004557785,0.0049050874
sister,-0.002441033,-0.0012167745,0.0035516971,-0.0011281106,0.0018098347,-0.0020067706,0.0010800178,0.00064040517,-0.0027993612,0.0012649224,0.00018917755,0.0028601561,0.0005029393,-0.0037022957,-0.0019096227,0.0013768522,-0.0017784819,-0.0042740605,-0.0010988385,0.0025123523,0.0021899394,0.0029941152,0.0010459672,-0.0047103837,-0.00071562285,-0.0010545885,-0.001251043,-0.0010910255,0.0014979984,-0.0043151565,0.0013771587,-0.0012670507,-0.0017490102,0.0024159143,0.001180052,0.0033456,-0.00012796298,0.002574994,-0.002863815,-0.0008694163,-0.004750674,0.0007277776,-0.0045231977,0.0032048335,-0.00044679508,0.0026016224,0.0019132998,-0.00410384,-0.00080876925,0.00016403066,0.0023651817,-0.00046928893,0.0044646356,0.0011408752,0.0004894533,-0.004393996,0.0035556343,-0.0047754855,-0.0034596801,0.0018191605,-0.0027383799,0.0038997754,-0.0038901225,0.00080246764,-0.0041597197,0.0043831524,0.003970979,-0.0030604904,-0.0011315246,-0.001923507,-0.0045284904,-0.0012072794,-0.0013081426,0.00012748002,0.0005293285,0.004243225,-0.0011732851,0.0030562528,0.00074489356,-0.0028664195,0.0022665507,-0.0028497223,0.0017374041,-3.9267405e-05,-0.003386217,-5.51134e-05,-0.0017655017,0.001551325,-0.0021143942,-0.0002772722,-0.00031539047,-0.0017713531,-0.00082653447,0.0045656096,0.002946277,1.1005995e-05,0.0043433034,-0.002384513,-0.0036782098,-0.0028900276
humor,0.00039917845,-0.0022969886,0.00037582626,-0.0011268355,0.005008912,-0.0031622334,0.0024354118,0.002652057,0.0012973701,-0.002929113,0.0043673185,-0.0032563126,-0.0022438546,0.0008117826,0.00480596,-0.0045271465,-0.00090002955,0.004044469,0.0023225208,0.00047959012,0.0015581948,-0.0017970921,0.0036860183,-0.004917939,-0.0014936266,0.0033681912,0.0026859858,-0.0015012893,0.0005555891,0.0027527758,-0.0010813747,-0.0016228269,-0.0012534765,-0.0035460626,-0.0045488216,0.0044563394,-0.0013226038,-0.004712984,-0.003600094,-0.003082948,-0.0017992652,-0.0012767432,0.0010277155,-0.0026174225,0.0029792436,-0.0026371602,0.0036283245,-0.0030151191,-0.0021010137,0.0041455426,0.00041020344,0.0034655642,-0.0025892819,0.002033885,-0.0017634484,0.0040418096,0.002561687,0.0002071926,-0.00414336,-0.002108748,0.0016128668,-0.0007077498,-0.00029886133,0.0036921601,-0.0032973206,0.0009550253,0.003966611,0.0040773195,0.0021814601,0.004505348,0.0044032405,0.00404466,0.0039900853,0.0026743952,-0.00059594266,-0.001680905,-0.0023324373,0.003533642,-0.0028090042,0.0022029122,0.004652006,0.004248234,-0.00059894787,-3.625187e-05,0.003270132,-0.0047151414,-0.0027737347,0.0016269624,-0.003562297,0.0016303752,0.00069740484,0.0002714532,-0.00018066578,-0.0011022679,0.0016986552,-0.0028779837,0.0036413039,0.0034903937,0.0022894326,-0.0015217158
bomb,0.00019936234,-0.0033402676,-0.0037934221,-0.00031620625,-0.0017313506,-0.0020885752,0.0034358327,0.0041830717,0.00012433287,-0.0044117756,0.0038842629,-0.00015166424,0.0037946785,0.0021533424,-0.0027694853,0.004657614,-0.0017569639,0.003082022,-0.0034307449,-0.00043416003,0.0050044144,0.0046711345,-0.004968739,0.0019860696,0.0036832537,-0.003910897,0.0010509959,0.00021234974,0.0021076072,-0.0024330001,0.003110545,0.002042327,0.00222532,-0.004679707,0.002635117,-0.0007828183,-0.0011020445,-0.004469731,0.0023688786,-0.0022183375,-0.00158951,0.0045695934,-0.0020606203,-0.0032017026,0.00047228704,-0.0026330983,0.0013506894,0.0007928237,0.0019166617,0.0048715775,-0.0017121269,0.0018424959,-0.0033219804,0.0046039554,0.002944976,-0.0015874787,0.003244156,8.023384e-05,-0.003633093,0.0007003026,-0.0010518922,-0.0007135672,0.0030594997,-0.0015077344,-0.002765276,0.0037866915,-0.0041817175,0.004133838,-0.004896723,0.0019312903,-0.0007545925,0.0034350487,0.002259509,-0.0008333032,0.00072273787,-0.004227117,-0.0021778594,0.0029090531,-0.004874324,-0.0011014522,-7.760895e-05,-0.004323214,-0.0037278668,0.0042007877,0.003589825,0.0005839049,-0.0013433729,-0.0039672866,-0.003181026,0.0042580343,-0.0042709135,0.00280637,0.0018379041,0.0025939827,0.0010858999,0.0049130325,0.0026341963,0.0013638744,0.004264205,-0.00052266085
bombing,0.003802605,0.002694614,0.0017103001,-0.0020844592,0.0050233677,-0.0032823188,0.0042478167,0.003907915,0.0034988227,-0.0016169769,0.0031344001,0.0026421377,0.0037537592,0.004090116,0.001205284,0.0010837851,0.0032311345,0.0047022193,0.00039774537,-0.004540613,-0.00063458155,-0.0025055646,0.0012617271,-0.0029952705,0.0017761927,0.0015869947,-0.00028464952,0.00101647,-0.0037148735,-0.0010432611,0.0025335562,-0.0049018445,-0.0016012952,-0.003111028,-0.0015295849,-0.004063958,0.0018049241,0.0023046464,0.004920851,0.00020868501,0.0026656685,0.004956714,-0.0013751701,-0.0042216536,-0.0027878557,0.0044388515,0.0049655125,0.0027256242,0.0019031843,-0.0020225036,-0.0031211602,-0.004300055,-0.0015585036,0.0041039465,-0.00056156504,0.0037622084,0.00044510848,-0.0011856618,-0.000488241,0.00013723652,0.004569143,0.003250048,-0.0046233656,0.0031411601,-0.0017866613,-0.0005599808,-0.0032051865,0.00017070943,-0.00082022906,0.0021199535,-0.0043946244,0.002410884,-0.00075884856,-0.0010078966,-0.0019429604,0.0034589416,-0.0048579704,0.0007056806,-0.0036855466,0.0039576255,0.004484324,-0.004468859,0.003977108,-0.003613977,0.00079906074,0.00085051457,0.004701471,0.0034835115,-0.0024323997,0.00448657,-0.0021420498,-0.0042663785,-0.0046549,-0.004753268,-9.874981e-05,-0.0032030628,5.2506355e-05,0.0021669203,-0.004665856,-0.001268222
mission,0.002322393,0.0035360707,-0.0026516328,0.0001726102,-0.004657085,0.0036569296,8.4383326e-05,0.003629526,0.0029708506,-0.004626101,-0.003568786,-0.004762925,0.0016594391,0.004324301,-0.0049934415,-0.001998595,-0.004343051,-0.0029444196,0.0008180593,-0.001690538,0.0018115377,0.00013634023,-0.0032081394,-0.00087141665,-0.003945118,0.0050339685,-0.0036035993,-0.0051466646,0.003976674,0.002037564,-0.0045048525,-0.0050038877,0.0016007733,0.0013722989,0.0038860675,7.7905235e-05,-0.0009358958,0.004620405,-0.0033760192,0.0044585965,0.002361874,0.0018913526,-0.004487955,-0.0010677216,-0.0016043042,-0.001423709,-0.00044261667,-0.004152102,0.0030753298,-0.0036687686,0.003981717,0.003351181,0.0015666524,-0.0029148397,-0.004666513,0.0033030582,-0.0023593584,-0.004307223,0.0036591978,0.0013647036,0.00016673644,-0.002719053,0.0037651162,-0.0027263982,-0.0025009932,-0.002634936,0.004661841,0.0020700765,0.0010424216,0.00046793316,0.0033518244,0.001700124,0.0035457672,-0.00019681889,0.002149905,0.0025709728,0.0013329666,-0.0019415083,-7.05162e-05,0.0052117305,-0.0041732923,-0.00445548,0.0045543206,-0.0018807108,-0.0017345767,-0.003841211,0.0036111502,0.0006741322,-0.0025999842,-0.00343069,-0.003024606,0.0029758352,0.004642595,0.0026149654,-0.0042629964,-0.0003004285,-0.0011848657,0.003584999,-0.0011422518,0.0037634817
flying,0.0027994826,0.0022539268,0.00074156,-0.0046857274,1.359586e-05,-0.0030081482,-0.0046931547,0.0010517351,0.0038592878,0.0011942029,0.004794089,-0.0010509796,-0.003696178,0.0027795066,0.0026072788,-0.0032885468,-0.0011867258,-0.0002890442,-0.0027660495,0.00021452013,0.00036817038,0.003965514,0.0037018503,0.00087608304,0.0020916616,-0.0011965499,-0.0031692837,0.0015976089,0.00077069376,-0.0044657146,7.001771e-05,0.002190142,-0.001655033,0.0019329756,0.0040391446,0.0014539876,-0.0021635564,0.000119183875,-0.0045757745,-0.0025694005,0.0046052006,-0.0011322967,-0.004455316,0.0032257452,-0.0042746393,-0.004650483,0.0020456132,-0.00051123474,-0.0009382875,0.004878227,0.0036513987,-0.0004361799,0.0011516326,-0.0038228964,-0.004121989,-0.0015454649,-0.004832233,-0.0021088866,0.00069251953,0.004079046,-0.00010235752,0.0013538041,-0.0035061752,0.0011633061,-0.0005257058,0.0018748385,-0.004646546,-0.0008406276,-0.0012386062,0.004178746,-0.0035036374,0.00019350846,0.0025826818,0.002793335,-0.0003219664,0.003284431,-0.00026675168,-3.5911722e-05,0.0005562129,0.0017079238,-0.0032129758,0.0042639533,-0.0037200374,-0.0045463447,0.0042775674,0.001670742,-0.004661479,0.0011328191,-0.0029910004,-0.0021796094,-0.002284233,0.0048542065,0.004989475,-3.3824858e-06,-0.0030137731,-0.0006578472,0.0038960103,-0.0043743066,-0.002296098,0.0015871093
driver,0.0030112928,-0.0035361166,-0.0006384062,-0.0038776253,0.0016550807,-0.003045281,-0.0044512968,-0.0013704821,-0.0009919788,-0.004936664,0.0031623952,0.003215283,-0.003570567,-0.0020773343,0.0016178943,0.004497368,-0.0011150008,-0.001439955,-0.0034012427,-0.004708149,-0.004327766,0.0031998428,0.0012915463,-0.0015233501,-0.0026379589,0.004182323,0.00097236445,-0.0019837583,0.0029884751,-7.840439e-05,-0.0029323932,-0.003066786,-0.0015092207,-0.00021786016,-0.002016309,0.00403775,-0.0025539475,-0.0034641074,-0.0037484865,-0.0028849375,-0.0023824638,0.00467633,0.0033365712,0.0042711287,-0.0031868424,-0.00045839883,0.0014651553,-0.002033046,-0.0043394645,0.00036948101,-0.0052220817,-0.0044522714,0.002544818,0.0014443283,0.002166932,-0.0018444163,0.0037095638,-0.0011374147,0.0022398995,0.0049864724,-0.0041789003,0.0016621252,0.00088673254,-0.0037361234,0.00012620336,0.004259429,0.0036477817,0.00066429516,0.0024099734,0.0029989686,-0.0036138755,-0.0024068838,0.0012476663,-0.0047285035,0.0038517613,-0.0036814844,-0.0045721047,-0.0035608625,0.00278279,0.0040193032,0.0041718045,-0.0032839573,0.0044452515,-0.00028868692,0.0039060554,-0.0016002682,0.004721689,-0.0033780923,-0.0032385963,0.0023545932,-0.0047331844,-0.00087639294,-0.0048412476,0.0039744554,-0.00021282127,-0.00059227494,0.0009750406,0.0041326634,0.004345417,-0.0017312991
italy,0.0046808533,-0.0027174654,0.0010239484,0.0017757877,0.0047075106,0.003778248,-0.0038603782,-0.0038942574,-0.003365969,-0.0047916975,-0.0027842675,-0.004786983,0.00023240864,0.00025465596,-0.002815418,-0.00027487587,-0.00494918,0.0037034738,-0.0029570707,0.0022976783,-0.0016277338,-0.00030624212,-0.0018392446,0.0021417018,0.0023786863,0.002417444,-0.0048953085,0.0036230567,-0.0036188662,0.0033725563,-0.00060786813,0.0013698853,0.0014486827,-0.0043719467,0.004385703,0.00041850467,-1.7110493e-05,0.0035607205,-0.0010260717,-0.003928193,-0.0025687953,0.0032398736,0.0028837656,-0.0006165651,-0.00011460988,0.0011611697,-0.0010343447,-0.00055853924,0.00034325654,0.00031067594,-0.002620132,-0.004400465,-0.0036011706,-0.00062023796,-0.0038657356,0.0012074716,-0.0027165734,-0.003937854,1.9395661e-06,-0.0009888252,0.0007340198,0.0019069146,-0.0006539474,0.003859305,-0.0035846804,-0.003428263,0.00083281856,-0.0015643464,0.0031419357,0.0034009244,0.00081201765,-0.004989544,4.707303e-05,-0.0010676071,-0.00082832284,-0.0036460222,-0.004473509,-0.0026490786,0.0029259177,-0.0025088778,-0.0021493216,-0.004015439,0.0010067737,0.0040064678,-0.0016201996,-0.0032950281,-0.004535317,-0.0031338313,0.00031257689,0.0007012472,-0.0041196705,-0.0012882964,0.0046303943,-0.0025856928,0.0023322466,0.0018091216,-0.00031459003,-0.004561978,3.6678503e-06,0.0013486871
lake,0.00342178,-0.0047087925,0.001568209,-0.0042991834,-0.0021408275,-0.00094449526,0.00352524,-0.00014047135,-0.0012910692,0.0041730274,0.0038802128,-0.002379609,0.003520473,-0.0015569445,-0.0019988741,0.0043878625,0.00056324113,-0.0011189982,0.00060177327,0.003996872,0.003239371,-0.0031573232,-0.004041099,-0.0034916769,-0.0048603113,0.0034546766,-0.0013189935,-0.004844405,0.0023502666,0.005109836,-0.0048957053,0.0044750273,-0.0026048052,-0.002916287,-0.0018772888,-0.0032752706,-0.0048540644,0.0046945466,-0.0011666329,0.0047339443,-0.0008803345,-0.0029953304,-0.00026298786,-0.004863463,-0.0038234233,0.0013140125,-0.003746866,0.0020954616,0.00041792062,-0.0019631258,-0.0020152107,0.004153315,0.001846918,0.00089984894,-0.001653908,0.00089446455,0.003241161,-0.0015164801,-0.0006324511,0.002814641,0.0034077908,-0.0017208199,0.0033465421,-0.0030899073,0.0016208107,0.0049115177,-0.0047764545,0.0018049523,-0.00032789097,-0.0016550411,-0.0046870527,-0.0034525904,-0.0013749787,0.0010035302,0.00023169369,-0.0036876167,0.0026885334,-0.00022233654,-8.467447e-05,-0.004744943,-0.004321557,0.00179207,-0.0013547565,0.00071608805,0.0037277548,-0.0046402123,0.00017042953,0.0027961077,-0.0031837586,-0.0002741812,-0.00055149995,-0.0028704307,-0.0007238582,-0.0018692593,-0.0014285278,0.002668658,-0.000969807,-0.002876207,0.0037584365,-0.00382542
nurse,-0.00081071974,0.0043823547,-0.0034373384,0.003968586,-0.0013389776,0.003577233,0.0041238125,0.0037236218,4.473072e-05,0.0006829325,0.00017425489,0.0042288387,-0.004802661,0.0017472103,-0.002882549,0.001687395,-0.0017270183,0.002432912,0.0017276241,0.0014561613,0.0014400776,0.00064059644,-0.00044830027,0.0018427655,0.0045998376,-0.0022806115,-0.002046864,-0.0012053202,0.004911112,-0.0005678345,-0.001995675,0.0014888558,0.0012438232,0.002882404,-0.0034684886,0.003492499,0.004677983,0.004409911,-0.004115789,-0.005045683,-0.0037915974,-0.0049109617,-0.00044836852,-0.004736877,0.00357067,-0.0036454878,-0.0005661236,-0.0016202106,0.0009915542,-0.0027457122,-0.0024651438,0.0050839577,0.0015817139,-0.0019065653,0.00091595046,-0.002704044,0.0010982221,-0.0048954,0.00384396,-0.0042804177,-0.0011419794,-0.0029104946,-0.0028504117,-0.0028398982,-0.0032110827,0.0027180954,0.0025473374,-0.004655443,-0.0034485215,0.00026465658,0.0012158754,-0.0033942445,-0.00070986385,0.0026101763,0.003360909,-0.0044379053,-0.0016963937,-0.0020303552,0.0020746905,-0.0025058612,-0.0024537076,-0.002010854,0.0009408725,0.0033714701,-0.0015182317,0.001554604,-0.004335701,-0.00431159,0.0021045615,0.0025301354,-0.0011459655,0.0004065275,-0.0019114439,0.00032084348,-0.0010789777,-0.00021218568,-0.005069208,0.0027595093,-9.745316e-05,0.0015883078
chorus,-0.0027385815,0.0030985423,-0.0040967898,0.0033539224,-0.00083156425,0.0006459789,0.0022719202,0.00046248475,0.0049142735,-0.002582012,-0.0035556217,-0.0032007298,-0.0023685403,0.0036064228,0.0019805247,0.0030866866,0.0049443,-0.002264662,-0.0037542086,0.003547212,0.003570197,0.00030182907,0.001966476,-0.00043608123,-0.0013286176,-0.0018426444,0.004012819,-0.0019727573,-0.0040409165,-0.0019038344,0.0031066728,-0.0006676444,0.0025887103,-0.0029115414,0.004665393,0.0022419828,-0.003965692,-0.0013600505,-0.0027846317,-0.0033644782,0.0018720895,0.00064207095,-0.0028331187,-0.00092921173,-0.0006004617,-0.002367381,0.0017052003,-0.004959022,-0.00020121523,-0.0022174432,0.0033004798,0.0031653903,0.0016328784,0.0012837301,-0.0049124733,0.003973807,0.0030462614,0.004682596,0.0028781004,0.00078956434,-0.002434388,0.0018583887,-0.0032818457,-0.0018316683,-0.004178845,0.0039923354,-0.0037731924,-0.0008480124,-0.0043389727,0.00089085795,0.0014421311,-0.0040114536,0.004270103,-0.00034056304,0.0038646017,-0.0026697635,-0.0009843225,-0.00020338074,-0.0035636555,-0.0024279235,-0.0013103863,0.0033578735,-0.001836659,0.004282266,0.0039716857,0.000297889,-0.0037221683,0.0012565576,0.0028039708,-0.00437664,-0.001965711,-0.0044007343,-0.0023111887,0.001398168,-0.0045012096,-0.002403267,-0.003047249,-9.1581554e-05,0.004638767,-0.0045912084
girl,-0.0018872215,-0.0039306767,0.004045434,-0.002890151,-0.0013780025,-0.0015607628,0.0015229363,0.003388775,0.0011640522,0.0012784759,-0.0023119752,-0.00038222055,-0.0013235871,0.001648637,0.0021822164,-0.0010425309,-0.0012427295,-0.0037857469,-0.001912855,0.0021530956,0.0042285654,-0.0047911545,-0.0028991736,0.002476914,0.0033787403,0.0038649288,0.0041750073,0.0047233165,-0.000813957,-0.0018553785,0.003892331,0.0033668343,0.0019410943,0.0032129143,0.003520571,0.0034555618,0.0031106565,0.0030128865,0.00073226815,0.0013891024,0.0019487978,0.00228371,0.0033627052,0.0008996219,0.002224133,0.00024362151,-0.0019235787,0.0013955489,-0.0028158636,-0.0025467565,-0.004939647,0.00094697706,-0.003550445,-0.0033863254,-9.403675e-05,0.0018385705,0.000503738,0.0016634375,0.00024383841,0.004793593,-0.0013967381,-0.0036131246,-0.0041009774,-0.0018965573,0.0013063463,-0.0006098581,0.0024829835,0.004145332,0.0030086234,0.004296171,0.00192963,-0.0021747593,-0.000768666,-0.0030481247,0.0016387238,-0.00093517854,-0.002562653,0.0035914783,-0.0023600776,0.0044157077,-0.0034745792,-0.003967847,0.0018080333,-0.0045804204,-0.001980174,-0.004820348,-0.003444256,0.0026549972,0.0045843455,0.001228934,0.0035289768,0.0030437892,0.002323008,-0.0033168981,0.0036188788,0.0029970044,-9.567307e-05,0.0003618923,-0.0012724209,-0.0012143665
line,-0.00250918,-0.00011467108,0.0021874837,-0.0038564545,-0.0005680306,0.003133466,-0.0049570096,-0.0047217193,-0.0021694547,0.0022891858,-0.0024512499,0.0037344785,-0.0016801518,-0.001206255,-0.0031843921,0.002576352,-0.000588989,-0.0025436184,-0.004921081,-0.004001318,0.002379742,-0.0037896778,0.0033595439,0.003420019,0.0017155204,0.00223749,-0.0004461013,0.0049668076,0.002131621,0.00078807253,-0.0002796995,-0.0010225214,0.003227454,-5.6030203e-05,0.002054203,-0.002680933,-0.0024735415,0.0021134357,-0.0012491815,9.1341644e-05,0.002295838,-0.0005260263,0.0021502653,0.0020427527,0.0011833907,0.002438404,-0.0022630654,0.0023972478,-0.003117609,-0.00011951165,0.0012646255,0.003061283,0.0047219046,-0.0024645927,-0.0041337535,-0.00079015514,-0.004673523,0.0015910224,-0.00041327844,0.00010421585,-0.0017762765,0.0045492016,0.001121178,0.0042334152,-0.0025964354,0.004322787,0.0030612,0.004982134,-0.00081117457,-0.0014654966,-0.0029958845,0.0014290198,-0.0048664208,-0.0042561484,-0.0030266712,0.0032117742,-0.004759067,-0.0008592915,-0.0029142841,0.0004042081,0.0010956008,-0.003079881,-0.00029525053,0.0018308574,0.0019939751,-0.001869842,0.0011906954,-0.00071454066,0.0031727338,0.0042809816,0.00042649396,0.0046736635,0.0017210504,-0.0029117055,-0.003901172,0.001137982,0.002417108,0.0016270732,0.0036512024,-0.0031427003
director,0.0049153143,0.0032664477,-0.0038849378,0.0036579617,0.0027993163,-0.00017266149,0.0015372073,-0.0025207314,0.0033165943,-0.0021239414,0.0006546332,-0.0029754497,-0.00019723794,-0.0021180422,0.0039437427,-0.0028633277,-0.004625224,-0.00079822866,0.00021829014,0.0050427034,0.004754454,-0.002671329,-0.003927913,0.00042400783,0.00044164117,-0.0022788353,0.00026225028,-0.0044403756,0.002120727,-0.0042352807,0.0011344153,0.000828448,-0.0034895162,-0.0043582357,-0.0007616906,0.000507797,-0.001171686,-0.004338639,0.0012714439,0.0004219094,-0.0012583308,0.0047597135,-0.002312077,0.0030464225,-0.00048775924,-0.0034091568,0.0048110285,0.0028046747,-0.0010325586,-0.004817842,0.0013969429,0.004562651,-0.000520796,-0.0010240022,-0.0029889569,-0.0035967324,0.0032314886,0.003347562,8.468527e-05,-0.0034758486,-0.0031191912,0.0018115148,0.0044195782,0.0033671546,-0.0028362484,-0.001188525,-0.0010408523,0.004646155,5.8565896e-05,0.0046872855,0.005147809,-0.00015488669,-0.0012455295,0.00463921,0.0029272188,-0.00029895018,0.00133758,0.0024548182,-0.0034715238,0.00064313394,0.0040838304,-0.0027494954,-0.00071181654,0.0039964914,-0.0038737385,0.0033506767,-0.0012265324,-0.0018854094,0.00502349,0.0050776694,0.0026605376,0.003732031,-0.0015861713,-5.452765e-05,0.0037314342,0.00022515774,0.0017256986,0.004140718,-0.0023821834,-0.0041475226
song,-0.0022934475,0.0031230971,-0.00038863547,0.0025806548,0.0006768456,-0.0018878893,-0.0028759202,0.00019458782,-0.0011142661,-0.003380206,0.0031964665,-0.0021811952,0.001253826,-0.0039260057,0.00079413684,-0.001619354,-0.0016883137,0.002447641,0.0015360387,-0.0032998417,0.0015550719,-0.0010676156,-0.0043190187,-0.0038287775,0.0017483262,0.00068652286,-0.0014849771,0.0032516962,0.0041650315,-0.00015387546,0.000843588,-0.0031107515,-0.0013083864,0.0017773912,-0.00068352965,-0.001825994,0.0029073316,-0.0029774501,-0.0004977299,-0.00090716203,0.0031944502,-0.004072777,0.0015004997,-0.0010759272,0.0013891215,0.0007684188,-0.0029121144,-0.0027013079,0.004172104,-0.0020502375,-0.0037410287,-0.001262297,-0.004837563,0.0017901701,-0.004311247,-0.0038415408,-0.004502531,-0.0041464693,-0.0039005612,0.00048323965,0.003796947,-0.0013859092,0.003096203,0.0021288567,-0.0032219926,0.0032469404,-0.0045174733,0.0034728264,0.0039163264,0.0034164414,-0.0048021493,-0.0032260881,0.0018514442,0.00034316495,-0.0029441274,-0.0031803981,0.00075870345,0.0005222343,-0.00012838042,0.004032924,-0.0012296754,-0.00041064312,-0.0014918079,-0.003855667,-0.004248791,0.0010089744,-0.0036090363,-0.001850412,-0.004666828,0.0032955548,0.0020390693,0.0019011575,-0.00010512383,-0.0023060434,-0.0036044999,-0.004226028,-0.005054537,-0.001214487,-0.0010990907,0.0028970137
captain,-0.00027219355,-0.0025579317,0.00029551043,-0.0032504068,0.0017888566,0.001639472,0.00021573031,0.0009929816,-0.0029606458,-0.0007166729,-0.002229797,-0.0028245433,-0.0016408386,0.0014421317,0.00053770316,0.0046813567,-0.0048443726,0.0043608653,-0.0034013088,0.0008907025,0.0026883886,-0.0046594758,0.0027482174,0.0035543318,-0.0010044683,1.2434222e-05,-0.0004381167,0.0019534503,-0.00030749073,0.0008193368,-0.0028360677,0.004536879,0.0043063876,-0.0022356121,0.0046755746,-0.0042917896,0.004581232,-0.0015724016,0.0007084128,-0.003917247,0.00066370016,0.003658368,-0.0034902382,-0.005037648,0.0009597542,-0.0018556444,0.0046181795,0.004808149,-0.0041618426,-0.0013486764,-0.0018516378,0.00169275,0.0025681423,0.0034426544,-0.003998474,0.0012013154,0.0016160319,0.0020846885,-0.002918318,-0.0009005277,-0.0023131853,-0.0026469715,-0.00028626353,0.0023699785,0.0027215122,0.0044833967,-0.003076517,-0.0020781572,-0.003940879,-0.0017781663,0.0012351641,-0.00078729016,0.0033264363,-0.0046097036,-0.0047417833,-0.0004677612,0.0011038075,0.0032387832,-0.0033673127,0.0046133935,-0.00013029874,-0.00035752935,-0.0031311547,0.0038378167,0.0005458036,-0.0024764368,-0.0017861627,0.0029868912,-0.00025527226,0.0050183227,0.0031942017,-0.0026409698,-0.0023044364,0.00012864347,0.00022078503,0.003673533,-0.0012076863,0.0035032774,-0.0050616744,-0.0010685745
marriage,-0.0011857323,-0.00251792,-0.0028630835,-0.00046268426,-0.00049041334,0.004442335,0.0038847835,0.00028530738,0.0030470015,0.0016005554,0.0017256155,0.0011218013,0.0029580751,0.004317809,-0.004297799,0.0031281423,-0.00018744844,0.0030295106,0.0006033571,-0.0032247035,0.003778432,-0.0046518436,0.0010285606,0.004367491,-0.0019340084,0.0027388001,2.664425e-05,-0.0018914,0.003508299,0.0051294393,0.0035488107,-0.0018837377,0.00065820897,-0.0032527586,0.0042030653,-0.0044089314,-0.0044085183,-0.0022999258,-0.0040661283,0.00010621155,-0.00433996,-0.0042238785,0.0030562088,0.0007232238,0.004739501,-0.0046062474,-0.0029700818,0.003642968,-1.567027e-05,0.0028739662,0.0005596932,-0.0037955204,0.004263525,0.003238147,-0.0010362566,0.00337652,0.0024613685,0.001996736,0.0007964286,-0.0020894213,3.0160538e-05,-0.0013907128,-4.506164e-05,0.0017274034,0.004122454,-0.004079395,-0.0010813079,-0.0039872495,0.005026317,0.0047200415,-0.004686395,-0.0047733216,0.002837101,-0.004250178,-0.004108973,-0.0003568455,-0.003951182,-0.0016248698,-0.004884087,-0.0029473314,0.001753549,0.0010865687,0.0027970332,0.0027064325,0.003434218,0.0006192278,0.00047862952,-0.0022841364,-0.0032182424,-0.0003290281,-0.0011790007,-0.004398324,-0.0049928855,-0.003182784,0.0006665773,-0.003864484,0.0007833122,-0.00073233637,0.0011466171,-0.0012727346
saloon,0.00048382152,-0.004785916,-0.00067852804,0.004204594,0.0049661854,0.0019175543,-0.0044977213,0.00012981184,-0.0040393844,0.0024304783,-0.0025619753,0.0024786897,0.0046510673,-0.0011425512,-0.0001664763,-0.00079962536,0.0042664874,8.226226e-05,0.0010222788,0.0038150016,0.0032171218,0.0048264437,0.0007964678,-0.00094039476,-0.0029461095,0.00012477403,-0.0028126885,-0.0048785135,0.0030584089,0.0049761417,-0.0048934645,-0.002509491,-0.00013198439,0.0032137034,0.0030810283,0.0008407827,-0.0006193154,0.0026945365,-0.0046947813,-8.2512066e-05,0.0023770537,-0.0009882199,0.002537555,0.0046639806,0.003982707,0.002164377,0.0028223845,-0.00483294,-0.0032739283,-0.0011502237,-0.00092370115,-0.0019150235,-0.0036811524,0.0030894156,9.682695e-05,-0.0010051852,-0.0004890253,-0.0035138454,-0.0024394451,0.003078331,0.0017192318,0.000280426,-0.0016008178,0.0022789969,0.0023393894,-0.0027326257,0.0027485297,-0.0017262026,-0.0006987101,-0.0020073818,-0.002282986,0.004008682,0.0031042693,0.004374584,0.0042039063,0.0022706676,0.0046902173,0.0016929551,-0.00017118387,0.0015083052,0.0037646033,0.003702114,0.0036845831,0.004894553,0.000573516,-0.00025026838,0.0036551221,0.00047941433,0.0009294651,0.0024591286,0.004111962,0.004934755,0.0036805337,-0.0005805315,0.0019988213,0.0046079387,0.002802914,0.0015747325,0.00418434,0.0031743844
detective,-0.004916573,-0.001277581,-0.0014757937,0.0029448927,-0.0036114587,-0.0013389814,-0.0020037561,0.001163399,0.002795183,-0.0033428767,0.0017294373,-0.0026979467,-0.004086796,-0.0007297095,0.0010762588,-0.00290585,-0.0022998205,0.0038632508,0.0013053924,-0.0026894913,-0.0027242263,0.0024959662,0.0023181136,0.0026619192,-0.0008376045,-0.0026154176,0.0044173105,0.0022462457,-0.0031762924,0.001903157,-0.00452669,-0.0031976867,0.0005006546,0.0036382857,0.0037200188,-0.004755457,-0.0031619223,-0.000121361794,-5.6496654e-05,0.004415693,-0.003489747,0.003879276,0.0011030756,-0.0026435372,-0.0012255311,0.0042501735,0.0025740357,-0.0039897934,-0.0033884586,-0.004143314,-0.00087874697,0.0047667474,0.00014999819,0.00095573475,0.002105312,0.00060084177,0.0003451476,-0.0012633967,0.001935511,0.0010145014,0.0018533276,-0.00017092733,0.0010831599,0.0036861803,-0.00069341756,-0.0032903391,-0.004439142,-0.0029291466,-0.0022682145,0.00072774437,0.0009372469,-0.004261252,0.0033329604,0.0017587865,0.00025875756,0.001062513,-0.0029104692,-0.0022992045,0.003772208,0.0020356383,0.00081335433,0.001105067,-0.0033734252,0.003679283,-0.0007280841,-0.004763336,-0.0039352425,0.0031151134,-0.0012322896,-0.0005293746,0.0043950872,-0.0014738566,-0.0026661495,0.00094550214,0.00035696325,-0.0031221341,-0.0021925438,0.0030267392,-0.0033113565,-0.00062323734
love,-0.003807297,0.0015014713,0.00013214056,-0.00015540491,-0.0037285883,0.0038619656,-0.004570009,0.0041375956,-0.0024726656,1.5165095e-06,0.0023957302,-2.3628181e-05,0.0033175703,0.0013309148,-0.0017399844,0.0046174373,-0.0036322768,0.0030671621,-0.004014884,-0.003987823,0.002598282,0.0042934977,-0.00039324103,0.0026840665,-0.0022319576,0.0013349548,0.0023184563,-0.00081074575,-6.82429e-06,0.003949735,-0.0007232146,0.0008200828,0.0014528941,-0.0027350916,-0.0037413475,-0.0044261236,0.0011199262,0.0036308488,0.0022678843,0.0028568099,-0.0032737593,0.0044823196,-0.003559164,0.0025742713,-0.0013661246,0.0004024493,0.0028685445,-0.0010420167,0.0045083803,0.0014522172,-0.0028167313,-0.0006179077,-0.0013530588,-0.0011117912,0.0024709376,-0.00043274756,0.00096307107,0.00021242161,0.0029855603,0.0019090475,0.004627762,-0.00204566,0.0043631284,0.0003076262,0.0017038352,-0.0017971224,0.0015511326,3.3675675e-05,0.0041055493,0.0025259582,0.004594215,0.0012869526,0.0046983315,0.0017722301,-0.0046440517,-0.0007230921,0.0046876715,-0.00014597557,-0.0041873455,-0.0013179686,-0.00368541,0.003550188,0.0026430432,0.0037145484,0.0016370742,8.663234e-05,0.00019599088,0.0023164297,0.0017242405,0.0011708236,-0.0034746346,-0.0019217095,-0.0023031705,0.002296147,-0.0017792403,0.003117996,0.00033901545,0.00095130614,-0.0010691923,0.0008547539
money,-0.0047798017,-0.0025443472,-0.0019032212,-0.0044068727,-0.00024996634,0.0035559204,0.0045193727,0.004973721,0.0028098205,-0.0006129105,0.0018847267,0.0049426807,-0.0015514888,0.0038291737,0.0002371538,0.00013333259,-0.0050067026,-0.0020700765,0.004129678,-0.0018611882,-0.0028731036,-0.0026223357,-0.00125751,0.0036697115,-0.0029516215,0.0013127886,0.0040210206,0.0038346676,0.0037245436,-0.0016490942,0.0032803807,0.0005856601,-0.004316702,0.0007436549,-0.0039184196,-0.0018990238,-0.0037372508,-0.0050017536,0.0011783398,-0.0025927986,0.004545549,0.0024435464,-0.002176516,0.0033515883,0.0048968582,-0.0012308087,0.0012046045,-0.0026111223,-0.0031468472,0.0020478887,-6.272149e-05,0.0040652184,-0.004748626,-0.003933148,-0.0020489218,0.0018719158,0.0035251775,-0.004961705,-0.0016581746,-0.0045782607,-0.0042542773,-0.0005692345,-0.0020892445,-0.004421297,0.0037168001,0.0009185504,-0.003190773,-0.0013258685,0.003500595,-0.002670094,0.0036141975,0.0015126449,-0.0017832472,-0.0039878837,0.00499349,-0.00307372,0.0005825372,-0.0048289956,0.0022867296,0.0015284775,-0.0047314456,-0.0013645223,0.0027606045,-0.00055742194,-0.0006339735,-0.00033592136,-0.004318396,0.003470308,0.0037193173,-0.003909087,-0.0046173176,0.00018525346,-0.004159956,-0.003076258,-0.0014478364,0.0008119018,-0.0026265308,0.0020653158,-0.0010934302,0.005251457
reporter,-0.002419886,0.00030695897,-0.00030248635,0.0020544338,0.0024896625,-0.0022600673,0.004424989,0.0006469717,0.004533862,0.0011991889,0.0049380492,0.002058693,-7.814884e-05,-0.0024013075,-0.0006641554,-0.0012894194,6.2745814e-05,-0.0036574479,-0.0021446603,0.0015226855,-5.2452982e-05,0.003185869,0.001319546,0.003870748,-0.00063574035,0.0005368982,-0.0035529775,-0.0045405924,0.0027772752,-0.00392141,0.0012551433,0.0018783358,0.0042344085,-0.003121896,0.0030346217,0.0013235616,-0.000787494,0.0034792358,0.00021532232,0.0008521479,-0.0015565122,-0.0033357919,0.0010188844,0.0007186527,-0.0020360497,0.00023244279,0.0026153962,0.0033935222,0.00030539942,-2.8178076e-05,0.0013365403,0.0033141419,-0.0014287261,0.0015501721,0.0024029042,-0.0036828213,0.0025031792,-0.0009536666,-0.0002002576,0.0036267957,-0.0023794847,0.0037588498,-6.3250984e-05,0.0012672686,-0.00443246,0.0040412727,-0.004752382,0.0013901413,0.00092709326,0.0015614608,0.0032594863,0.0030141461,0.004859968,0.0038697133,-0.0033698822,0.0049378774,0.0035950271,-0.0020113573,-0.004740588,-0.0015128029,0.002928552,-0.00417068,-0.0039567566,0.0033489922,0.002154025,0.0032552567,0.0010509173,0.0044228425,0.003984731,-0.004493699,0.0034394448,0.0041736593,-0.003981198,0.000574098,-0.004724505,-0.0009479691,-0.001630747,0.0040623075,-0.000102921316,0.0030548954
dancer,-0.0033674494,-0.0045303437,-0.003496164,0.0031601095,-0.0022557043,0.0038620383,-0.00029173453,-0.0045865597,0.0016970042,0.00085398357,-0.002895728,0.002597832,-0.004064544,0.00246598,-0.00071992225,-0.0006930165,-0.002617542,0.0006949789,0.0045329896,0.0030262766,0.004844233,0.0021637992,0.0012856122,-0.0007064388,0.002752679,0.0047889426,-0.0007534847,0.00028563917,0.003111562,-0.0045107957,-0.004397131,-0.0010648008,0.0039108596,0.0036253606,-0.003425252,-0.004290651,0.0037057179,0.0018786864,0.0016248478,-0.0033759356,-0.0033445477,0.0004371224,0.0025268546,-0.0013581202,-0.0046480508,0.0041525946,0.0018875481,0.002969888,-8.464452e-05,0.0027752786,-0.0029054286,-0.0010936931,-0.0037031847,2.9899784e-05,-0.0044376473,-0.00032524145,0.0043797893,0.00048877683,-0.0016707076,0.0030287036,0.0025497638,-0.0045935204,0.0035987785,-0.0006519534,0.0047618174,0.00045622306,0.0043352176,0.0047865277,0.002319436,0.001682902,-0.003922476,-0.0027826214,0.004805634,0.003657764,0.0040489854,0.003208347,-0.0033684713,-0.0039144713,0.00067487574,-0.0034229604,0.004838677,0.00012951386,-0.0028968735,0.003909035,0.005061317,-0.004361762,-3.0671734e-05,0.001226427,0.0046794736,0.0028445509,-0.0017309153,-0.0036821973,-0.003567544,-0.0003542794,-0.0041986452,-0.004327776,0.0012324611,0.00045142396,-0.0038242561,0.004630401
dancing,0.002345198,-0.0029598672,-0.003282258,0.0028867738,-0.0010137312,-0.0003906081,-0.004739763,-0.004264043,0.0044756713,-0.0010072163,-0.0001942168,-0.0013798146,-0.0028820687,0.0030299895,-0.0046677934,-0.0047468985,-0.0032980817,-0.0027244224,0.0013641992,0.0041423147,0.0020058877,0.0040523284,0.003189172,-0.0024387678,-0.00094769656,0.0040086354,0.0038397154,0.003579808,-0.004666422,-0.0032366698,0.004392077,-0.0034758947,-0.0029359788,-0.0005911792,0.0018366511,-0.0014372782,-0.0023802482,0.0043050307,0.0046051196,-0.002365752,0.0036723267,-0.00087514345,0.0022471233,-1.2033461e-05,-0.0024089415,-0.004348514,0.004480044,-0.00038525084,0.0026844796,-0.0012506131,-0.0019514321,0.0005500228,0.0011275988,-0.00025910913,-0.0030265031,0.0006964312,-0.003713005,-0.004763916,0.004154459,0.0023366718,0.0033976713,-0.00051780645,0.0048313653,0.0046784664,0.0041623567,-0.0041707316,-0.0006663905,0.001238275,-0.00025767036,-0.00011258309,0.003487266,-0.0026173647,0.0015277286,-7.043461e-05,-0.0012252803,-0.0023771084,0.004633594,0.004537783,-3.6811936e-05,0.003011,-0.0048934696,-0.003855247,-0.00028841084,-0.0024248012,0.0010256333,0.0004886047,-0.00060744205,-0.0010538424,-0.003964759,-0.0038832985,0.001995506,-0.003133722,-0.0014268851,-0.00029798003,0.0028820122,0.00084526563,-0.0044998243,-0.0044397316,0.0047796727,0.0016023988
horse,0.0020640502,-0.0024442878,-0.0013030528,-0.0047136354,0.0033391966,-0.0020866164,9.233193e-05,0.0021075017,0.004447086,0.00293334,0.0026138944,0.0033009816,-0.0029672475,-0.004244216,0.0011096478,-0.0046193823,0.002690518,-0.0041721994,0.000522696,0.0048549715,0.003421561,0.0032878332,0.0040373774,0.0033209673,0.0017008339,0.0044485033,-0.004198283,-0.001181961,0.00040405852,0.003018596,-0.0015050058,-0.0027097831,-0.00475959,0.00091475924,0.0008222711,-0.0042621805,-0.0034782912,-0.0022114231,-0.0034766053,0.0019311017,-0.003348163,0.00329518,-0.001904212,0.00070045626,-0.0010813569,0.0023302136,-0.0024491006,-0.0014424701,-0.0008157619,0.00378848,6.959085e-05,0.0033147219,-0.0049265367,-0.0041204123,0.0012597021,-0.0009522986,-0.0012789072,0.00056046015,-0.0001949259,-0.0021382356,0.00071644114,0.0041332846,-0.001756817,-0.0049413056,-0.0019813506,0.004502973,0.0020178438,0.004373325,-0.0019637777,-0.00072116044,-0.004369103,-0.00246527,-0.00169097,0.00092575705,0.0048265755,-0.0016742625,-0.0018617968,0.0025057602,-0.0011685714,0.0035035717,0.0023241828,0.0011082476,0.00056200277,0.0045923647,0.002238087,-0.0041022617,-0.0024615233,-0.0033468767,-0.0033340345,0.0011498075,0.0003510037,-0.0043728496,-0.0009753186,0.00085566065,0.0024610283,-0.001644814,-0.0036748569,0.00073760445,-0.00426386,0.0040755523
actor,-0.0018062658,0.0044434774,-0.004207108,0.00038370755,-0.0034517276,0.0009426055,-0.0020240268,-0.0010191072,-0.0024177576,0.004375191,0.00015428172,-0.0045886673,0.0044459845,-0.0040382966,-0.0041899364,-0.004419164,0.0030644245,0.0028942782,0.0011359153,0.0039285836,-0.00054640655,-0.0015205875,0.0024040465,0.0006955189,0.00025791497,-0.0025979872,0.0041710176,-0.00050015154,-0.0039282464,-0.0015694081,-0.004075237,0.0018177403,-0.002496182,-0.0044716033,-0.004719238,-0.004278546,0.004116977,-0.0024401527,0.0006145696,0.0025906358,-0.003730871,0.0040889047,0.002719914,0.0023525157,0.0039757127,-0.0029917443,0.0007762077,0.0020362693,0.00076921174,0.0027300755,-0.0016779815,-0.0028086333,-0.0046167322,0.0024190515,-0.002545643,0.0009405621,-0.0050734035,0.0015457183,0.0018262966,-0.0018757661,-0.0025099018,0.00041224223,0.0041491864,0.0009200319,-0.001262967,0.0049342024,-0.0009991156,0.004163857,0.0046969713,-0.0037143047,0.0048999926,-0.00082820153,-0.0027382136,-0.004817214,-0.0008799757,-0.00436465,-0.00015459517,0.00035764131,-0.0023839145,0.005077971,-0.0018205345,-0.0050445017,-0.0033465729,0.0018019339,-0.0035213795,-0.0018836918,0.0006087771,0.0020339834,0.0007733221,0.0037209764,-0.0044780145,-0.00328144,-0.00077634206,0.001854835,-0.0019137139,-0.0012528049,0.0025899294,-0.0030401645,0.0019032311,0.002052791
writer,-0.003534978,0.0023286422,-0.00264162,0.0018239634,0.0017178125,0.004570293,0.00062276155,0.0024754643,0.0027495173,-0.004505511,0.0016938393,0.0012043499,-0.0045151296,-0.0043420247,0.0039322046,0.0029212267,0.001671613,0.004674522,-0.0046742405,-0.0044330712,-0.00014061862,-0.002007353,-0.0016092068,-0.00035957582,0.0048093465,0.0033662692,0.0035953356,-0.0029831317,0.0012955137,0.0039008316,0.0001615622,0.00037487532,0.0011289433,0.002285804,0.0020862538,0.003727872,0.0026616685,-0.0017995929,0.00095381035,0.00028281155,0.0020741888,-0.0022632685,0.0017487404,-0.00021146929,0.0020925119,0.004063734,-0.0022510765,0.0009102196,-0.0018985395,0.0027384346,0.0016749842,-0.004359347,0.00024407149,-0.0035070702,-0.0039133653,-0.0010063914,-0.0010562775,-0.0010115488,-0.004174334,0.0009096427,-0.0015054656,0.004779872,-0.0047764964,-0.0030739189,0.0031826668,-0.0044787317,0.0009306861,-0.0002537798,0.0014481685,-0.0007115879,-0.0021557848,-0.0014972512,0.0043702135,0.0026154055,-0.0016880236,0.0027386164,0.0010255646,0.0039727273,-0.0029056314,-0.003763808,0.0044718864,0.0020779038,0.0011816486,0.0047606137,-0.0028681557,-0.0035673159,0.00064863876,0.0027169902,-0.0006141508,-0.001715682,0.00045667117,0.0029164026,0.0015961113,0.0036618349,0.0014470392,0.0012855828,-0.00047518642,-0.0043427697,0.0010224301,0.0010184571
machine,-0.0020437895,0.0030466025,-0.002825927,-0.0040733353,0.0040863273,0.0049862033,-0.0016680433,6.6966124e-05,0.0015255801,-0.0010050149,-1.8385577e-05,0.0002994634,0.0042231684,0.0012425008,-0.00039300288,0.00060019497,0.0010466449,0.0041389,0.0017807283,-0.0022189764,-0.0018605515,0.004308694,-3.7678838e-05,-0.0013783302,-0.004736949,-0.0044031334,-0.00024621503,0.0012855674,0.0018777706,0.003153081,0.0031397631,-0.0038184817,-0.003842389,-0.0019265411,0.003154776,0.0025870707,4.3633234e-05,0.0025917983,0.0032340996,-0.0015525951,-4.4432086e-06,-0.004209881,-0.00482319,-0.004259695,0.003044293,0.001802555,-0.004158675,0.0008101448,-0.0028112773,0.004149708,0.0036114554,-0.0028780263,0.0031267668,-0.0026848365,-0.004538401,0.0020459099,-0.0021770827,0.0027770547,0.0043742447,0.002252055,-0.004572817,0.0042424416,0.004930909,0.0029286805,0.00057798956,0.0008081933,0.00044732227,0.0035443462,0.001989609,0.002039173,-0.00042573133,-0.0037533462,0.0024065156,0.003738411,-0.000106624095,-0.00340355,0.0047460953,0.0028965757,0.0027525267,0.0019536393,0.0015963315,-8.408849e-05,0.0048093456,0.002317865,-0.00041575043,-0.003872968,0.0021845296,0.0021024093,0.0019156128,0.0038849062,0.0026016477,-0.0039363266,0.0042497693,-0.0048637125,-0.0042331433,-0.0017242727,0.0018689869,0.0044353465,-0.0012293063,0.0025078678
music,-0.004190113,0.0012235204,0.004600221,-0.003393198,0.0011971461,0.004846406,-0.0009082139,-0.001208101,0.004068025,-0.003996076,0.0017015872,0.002753336,0.0019606233,0.0022661109,-0.00094250997,0.0008854278,-0.0014962116,0.0014918755,-0.0013339306,0.00080039894,-0.0027652497,0.00021060236,-0.0032973187,0.0038864207,0.00046121833,-0.0033970063,0.0020703312,0.0042198924,0.003517241,-0.0015504526,-0.002590253,-0.0026781769,-0.0010529786,0.001558152,0.004338983,-0.0020577435,0.0034247725,-0.0016017386,-0.0030705067,0.0029676699,-0.0008533804,-0.0024271281,-0.003781843,-0.003190927,0.00028522452,-0.003997928,0.0041614845,0.00021643129,-0.0011021139,0.00060992345,0.0037726613,0.003376878,-0.004164261,0.00066622085,-0.0017220024,0.004871211,0.00027858297,0.0018919626,0.0008843741,-0.0032427122,0.0022765282,0.0038503055,0.0045205406,-0.004612992,0.0017979507,-0.0022070494,-0.0004440524,-0.001141456,-0.003837996,8.2517894e-05,-0.00014141873,-0.0023109599,-0.0014921033,0.003114957,0.0010312339,0.002824276,-0.0033303434,0.0045595434,0.0035510743,-0.004097458,-0.0044260276,0.002763864,0.0046573617,0.0041976394,0.0024065825,1.42383415e-05,-0.001947673,0.004059503,0.004252683,-0.004765447,0.0035865868,0.00215312,-0.004306217,9.145613e-05,0.0034395743,-0.0017928245,-0.0041137794,0.0028244867,-0.0024916674,0.00507398
score,-0.00400972,0.0027458642,0.0010332491,0.00030181833,-0.0028915615,-0.0005034228,-0.004477703,0.0050071706,-0.0038033715,0.0043051224,0.001970075,-0.0045762956,-0.0009055942,-0.004956835,-0.00023943672,-0.0010762142,0.0022447924,-0.0050701797,0.0016646702,0.0045272284,0.0020313892,0.002217687,0.00030969398,-0.0046908692,-0.004764118,0.003362972,-0.004669339,-0.00430218,-0.0031176722,0.0038700285,-0.0028516666,-0.003684739,-0.0020414707,0.00019986827,0.0041416036,0.0025893813,0.00014616043,5.8995545e-05,0.004171967,-0.005092188,0.0019759387,0.0012085806,0.0016327609,-0.0033898058,0.00445808,-0.0009796398,0.0008845051,0.0044102985,-0.0032037161,-0.0010639837,-0.0020909621,0.004855645,0.0044878456,0.003934314,-0.0038981996,0.0037235073,0.00083002826,-0.002893421,-0.003474084,0.0050388984,0.0021603191,0.004230299,-0.0033441866,0.0002339569,0.0027377321,-0.0022840456,0.002579384,0.0003300862,-0.002158212,0.0005886216,-0.0025315022,0.0030934087,-3.4777415e-05,-0.0009504592,-0.0035186654,0.0035082449,-0.0037289443,-0.0040840977,0.003337856,0.0044105314,-0.0033478613,-0.00285402,-0.0039566024,-0.001348436,-0.0023680134,-0.0045536985,0.004548187,0.002921012,-0.0018019086,0.00027857776,-0.002041217,-0.003369208,0.0020953913,-0.0013551612,0.0002576231,0.0019758784,0.0016983267,-0.0014604324,0.00030001797,0.0038990462
composed,0.0045754598,0.0013790552,0.0032208292,-0.0017447063,-0.00353735,0.0042378455,-0.004732287,-0.0032555084,-0.0035357277,-1.5146117e-05,-0.001390398,-0.0020565528,-0.0019589732,0.00042307045,-0.0040621837,0.0031502612,-0.0039507374,-0.00097305386,0.003967216,-0.00400209,0.003170884,-0.0034771974,0.0013591109,-0.003324058,-0.0032436063,-0.000783402,-0.005022694,-0.002363228,-0.0022831005,0.0012545978,0.00013591806,0.0017110836,-0.00062378426,0.003601928,-0.002782926,0.0014746244,0.0014345037,0.0035548003,0.0027444859,0.0010174193,0.0017327049,-0.004108683,0.0031445026,0.0013093675,-4.1478677e-05,0.0049500796,-0.0015542399,0.002022162,0.0023142686,-0.0028176121,0.0015886133,0.003371052,-0.0023277798,-0.0009950262,0.0022950033,-0.0018250803,0.0032109036,-0.000769979,0.004455924,0.0011527214,0.0041470253,0.0016028774,-0.0024538715,-0.003294775,-0.0035409462,-0.0043398542,0.0019559131,-0.001809798,0.002597954,-0.003946445,-0.002262483,-0.0035840934,0.0026349123,-0.0013935124,-0.00223094,-0.0012433042,-0.00052802527,0.0018590485,-0.0024761236,0.0036060398,-0.004986248,-0.004754753,0.0014899943,-0.00065129827,-0.00013218434,0.0039996244,-0.00338668,0.0025384768,-0.00030539095,-0.0028375403,-0.000981967,0.0029315928,-0.0029249848,-0.003974294,-0.0041162176,-0.0030029728,0.004332136,-0.004526528,0.0035140216,0.0026023146
by,-0.0012547805,-0.004890907,-0.002475815,0.0010004031,0.003595113,0.0016563198,0.0029164515,-0.004442848,0.005321175,-0.0046447334,0.0031457457,-0.003391007,-0.0029521887,0.002895997,0.0016503487,0.0034335647,-0.0045425044,-0.0031975398,0.0040742652,0.0038680192,0.0025729088,-0.002551785,-0.00068604626,0.00088503986,-0.0022328824,-0.003060671,-0.0034260252,-0.0032786985,-0.0014585427,0.0041103377,-0.004430385,-0.004602861,0.00084900734,-0.004351765,0.0023859236,0.0008062699,-0.004144452,-0.0010494946,-0.0018963661,0.0015776606,0.0047306516,-0.00023334414,0.0026472302,0.004415739,-0.0033127803,0.0035563959,0.0029874058,0.0010203796,0.0037702168,0.0006309048,-0.00161123,0.004696755,0.00040378486,0.0022528376,0.0044875764,-0.00039507457,0.0046273074,-0.0035223549,0.0014370625,0.0038977682,0.004784112,0.00194961,0.0054605394,-0.0017877115,3.841277e-05,0.0036493186,-0.0010186122,-0.0030504973,-0.0018904812,0.004182289,0.0050973054,-0.0018952263,0.0016563927,-0.00074647187,0.0039056938,-0.0029093588,0.0011130621,-0.00039204373,-0.0026429896,-0.0030237115,-0.0022057383,0.0033459933,0.0046807528,0.0044546276,0.0007798912,0.0032917885,-8.144549e-05,0.00015719848,0.0011163523,0.0037402096,0.0030420634,0.0038682462,-0.0007431486,-0.0034559304,0.0025240204,-0.0053285575,-5.9387636e-05,-0.005075708,0.004654132,-0.0005820077
attack,-0.0018677462,-0.0019835008,0.003314964,-0.0032979567,0.0022371598,-0.0025226844,0.00047126738,0.0020175832,0.00068214204,-0.0034016096,0.0009974748,-0.0036158024,-0.0013491916,-0.0014985403,-0.0028405925,0.004384984,-0.0009486347,-0.003290656,0.00019345652,0.00093665754,-0.0028245125,-0.001244713,0.0028196475,0.00076197373,0.0021801498,0.0035109736,0.003960197,0.00032913554,-0.00478206,0.0035375722,-0.0019216004,-0.0026745554,-0.00096808927,0.002507423,-0.0012257643,-0.003077832,0.00024872398,-0.00090325734,-0.002573018,0.0030222004,-0.0008886492,-0.00051446,-0.003500388,0.004751252,-0.0013753151,-0.0018970742,-0.0046522943,0.00066169276,-0.00087208225,9.250904e-05,0.00024257432,0.00028346115,0.0015383834,0.004047355,0.001096774,-0.0031171145,-0.0043235268,0.0026931805,-4.968693e-05,-0.0030686976,0.0018131735,-0.0037467182,-0.0011131858,0.002676779,0.004224009,-0.0025753707,-0.00046945398,-0.0032232332,0.0020872091,-0.003979075,-0.00164477,-0.0031758007,0.0020063517,-0.0012596789,0.0028530434,0.00048713168,-0.0043639787,-0.0036890586,0.0046407687,-0.00302339,0.0032687692,-0.0033225548,0.00392963,2.1623515e-05,-0.0030692243,-0.0037950294,0.00290612,0.0015949474,-0.0045790593,0.0007652176,-0.001694959,0.0029286137,-0.0030132167,0.0015872464,-0.0029381842,0.00074101484,0.0019017811,0.0031702055,0.0025852043,0.0036720624
fort,-0.0034939067,0.0007053388,0.0026446562,-0.0043036803,0.00039132973,-0.0045787073,0.003151158,-0.003462649,-0.0041510584,-0.0035294304,-0.0004391657,-0.0024551356,-0.0040561245,-0.0019451394,-0.0032970204,0.0024523556,0.0030862917,0.0006845259,-0.004380852,0.0025878567,0.004496313,-0.0038116886,0.00069477933,-0.0006019781,-0.000689252,3.214575e-05,-0.0017310233,-0.00075107254,0.0042176996,0.0035997403,0.0025969136,0.0028667317,-0.0049454463,-0.002306327,0.0014482234,0.0008245154,0.0015626588,0.004159604,0.003330145,0.0020072428,0.004857149,-0.0046159904,-0.00044662095,-0.0023683442,-0.0015697511,-0.001511597,-0.00031093226,-0.004748419,0.00065297965,-0.0018744317,-0.0009533496,0.004964423,0.0026413247,-0.0028538748,-0.0015908083,0.0025486904,-0.0049584955,-3.3844797e-05,-0.0042009377,-0.0015017699,0.0023215746,-0.004119972,0.0012018039,-0.0033458301,-0.003678091,0.0045157513,0.0012064897,-0.0011072397,-0.002719896,-0.002602404,-0.0042365193,-0.0030261807,-0.0040114997,-0.00094254577,-0.0011360075,0.00491802,-0.0022344834,0.004401237,0.001265963,-0.002757238,-0.0012027496,0.0011056232,-0.00052344165,0.004179156,0.0016954244,0.00039424762,0.0024488682,-0.0047845934,-0.00073199754,0.0043842904,-0.0014799268,-0.0048355255,-0.0005475399,0.0016089951,0.0041621067,0.003573623,-0.0032531538,0.0015033961,-0.0043267035,0.004818877
india,-0.0017898892,0.004804591,0.0038679892,0.0024900215,-0.00079108484,-0.0018623893,-0.004203641,-0.00341794,-0.0017898387,0.0011696648,0.001275208,0.0019184725,-5.9637427e-05,0.0010127674,0.0008044147,-0.0017524298,0.001915718,-0.00091974606,-0.0006568624,-0.0016844401,0.0025574379,-0.0040228455,-0.00022822595,0.0042728586,-0.0032107672,0.0023923349,-0.0025716007,-0.0044504623,0.004233804,0.0025831582,0.0017231748,0.004063445,0.0030798914,0.0029832106,0.001550364,0.0034747112,0.00048456242,0.0008193846,-0.0025518236,-0.0033366485,0.0047734836,0.002375592,-0.0023655198,-0.0034657058,0.0031488012,-0.00297254,0.0037383973,-0.0048340275,-0.0033428546,-0.001303567,-0.0020048968,0.0034902594,0.0028586735,0.0014768285,-0.0009723491,-0.0007114885,0.0028644868,-0.0017509862,-0.004439019,0.0005944817,-0.0008021201,2.4128494e-05,0.0040391064,-0.004136791,0.002232502,0.00022300848,0.0030265222,-2.2508036e-06,0.0015572626,0.0027161806,-0.004492142,0.0035203863,-0.00091832754,0.0038793827,-0.004581078,-0.00053459784,-0.00439066,-0.0042576464,-0.0032568718,0.0009735975,0.0040154527,-0.0040658065,-0.0025552313,-0.0011105477,0.00013510276,0.002962187,-0.0042688437,-0.0016505189,0.0043589585,-0.0014087808,0.0025218304,-0.0025987064,0.00397775,-0.005017434,0.0018748587,0.0025725332,-0.0024693618,-4.294915e-05,0.0032685471,-0.0015529311
massacre,-0.0031124165,-0.0004906243,-0.0026776902,-0.0023504766,0.0013692642,1.0352092e-05,-0.001432126,-0.0021655222,0.004936287,-0.0042537823,-0.0035483928,-0.002142968,0.001236388,-0.004631365,0.004321578,0.002200719,-0.0028082547,-0.0019284188,-0.0030687682,0.0038855888,-0.0025191146,-0.004047908,-0.0033675195,-0.0043491605,-0.0048682215,-0.005011497,0.0020979627,0.0015301891,0.00097342255,-0.0011159249,-0.004258659,-0.0017474962,-0.0001393028,0.0050049187,0.00069492596,0.004998095,-0.0045881607,0.0042078397,-0.0040185354,-0.0049947323,-0.0017371684,-0.0008967555,-1.32204805e-05,-0.0036201866,0.0025266912,0.0034906045,-0.003600636,-0.0017688295,-0.00070751674,0.001354643,-0.0031215767,-0.0016724656,-0.004686308,-0.0021133514,-0.004609889,-0.0007716425,0.0034178556,-0.004366989,-0.0012140444,4.202069e-05,-0.0039334535,-0.0046009263,-0.0020339072,-0.0032452978,-0.0007937412,0.00053788716,-0.002368377,0.0028588485,-0.0028745483,0.002594684,0.004247241,0.00056051154,-0.003980596,0.0030607318,0.0026588484,0.0029084024,-0.0013240398,-0.0049392264,-0.0010143337,0.0038622508,0.00026010734,-0.0021692447,-0.0033077286,-0.0034593083,0.0013874036,-0.0040858723,-0.0044739945,0.003087957,-0.004369796,0.0036348316,-0.003953735,-0.0043211794,-0.0032590784,-0.0043172864,-0.0048248037,0.0031821404,0.0023136288,0.0031190391,-0.0041227583,-0.0031608772
fictitious,-0.002967997,-0.0022271934,-0.004853533,-0.001294643,0.0047083395,-0.0028862425,-0.0010335634,-0.0039923633,0.0021954041,-0.0045375363,-0.000528362,-0.00187048,0.0016395961,0.0020533835,0.003124399,-0.0012741697,0.003490867,0.002102839,0.003277323,-0.004018047,0.0015940819,-0.00045714178,-0.004164229,-0.002524819,0.0027294566,-0.0039738948,0.003338167,0.0036283478,-0.0040378864,-0.00041476585,0.0014514846,-0.00074479263,0.004011756,0.0032019787,0.00038927383,-0.0037786546,-0.0018335974,-0.0038590229,0.0023833495,0.0017116972,-0.0029196993,0.0045552664,0.0012739279,-0.0043389504,0.001844693,0.003768046,0.00014284717,-0.0028378621,0.004228482,-0.0033383002,-0.0013811304,0.00021108545,-0.0020469534,0.0011851205,0.0039142002,0.004380114,-0.0035153886,0.0031004376,0.003001465,0.0015512866,0.0019384258,-0.00053176953,0.00016461169,0.0027121566,0.0006557338,0.0015564599,0.0025732457,0.0041444735,-0.0013457678,-0.0014833286,0.0032981348,-0.0001312309,0.002818587,-0.00029677313,0.004986649,-0.0018709641,0.0024693909,-0.0007561478,-0.0014121578,0.0019891541,-0.0026092927,0.0032324153,0.0028972598,-0.0013320167,-0.004043222,0.0020826235,0.00045977824,0.0037953414,-0.0041860347,-0.004256658,-0.00044520036,0.0019671076,-0.0031728784,-0.00093710923,0.0015673009,-0.0012944676,-0.003276266,0.00075211725,0.0038495248,-8.729307e-05
country,-0.0009516736,0.004570385,-0.0015647303,-0.0020671196,0.0036694985,-0.0007283525,-0.0012791652,0.0005256229,-0.003049617,0.0018013256,0.005012784,-0.0006097157,-0.0018105565,-0.00094828225,-0.0031488412,-0.003186888,-0.0033601066,-0.0009363918,-0.004382227,-0.004695693,3.5552603e-06,0.00021472368,0.00068911014,0.0012056169,-0.0025757682,0.0029070778,-0.002338502,-0.00018459244,0.0032941508,-0.004150699,0.004154988,0.00051255093,0.0020489565,-0.0048730467,0.003280365,0.0042294418,-0.003017395,-0.0003361445,0.00075905444,0.002032748,-0.0027810023,0.00016258853,0.0030343458,0.0032191214,-0.0023891386,-0.0020681042,-0.0023493636,-0.003673907,-0.0011605952,-0.002407164,-0.0014184222,-0.0021538907,0.00059752737,-0.00036539166,-0.0016275991,0.0022332768,0.004430247,-0.0014997411,0.001294759,0.0031932709,0.003276003,0.002556969,-0.004830193,0.00066651724,-0.00011331184,0.00047669772,-0.0023655775,-0.00363149,0.0025113146,-0.00039882408,0.0010923828,0.004063268,7.667894e-05,-0.0012826243,-0.00048157893,-0.00048609337,-0.0041649253,-0.0035986912,0.0040580262,0.0044350466,-0.0015163264,0.0019056343,0.00498643,-0.0022758616,0.004149619,-0.00019844969,-0.00049922254,0.0017460474,0.00077713287,0.0014393466,0.0013336068,-0.0021840434,-0.0050518084,-0.002207293,-0.004902632,-0.0039258897,-0.0003993441,-0.00010684669,0.004602118,0.0023968085
king,-0.0023591337,-0.00049031776,-0.00096883014,0.0021656342,0.0044684764,0.0002698035,0.00058479107,-0.004365662,-0.001594135,-0.0048104636,-0.0029463882,-0.004431638,0.0019745652,-0.0027202137,-0.0009475549,0.0018953122,0.004020524,0.0019119646,0.0037068175,-0.0016870227,0.0029127577,-0.002414769,0.0016851666,-0.00029272208,-0.00068811595,0.0036434927,-0.0028100929,0.0020631577,0.0017605498,-0.0008715443,-0.0042477837,0.0031683971,0.001570656,-0.00046653612,-0.0026325404,0.004418147,-0.0019411285,-0.00071517174,0.0014518646,-0.0007065939,-0.004716929,-0.0043650065,0.0006701539,-0.0019343586,-0.0037846146,-0.0025114038,-0.0009278452,-0.0009137581,0.0016291173,-0.00013794446,-0.0007968267,-0.0030464844,-0.0018251555,-0.003298739,0.0037386224,0.00055517326,0.002269237,0.0024477649,0.0033666133,-0.00047158432,-0.0014086855,-0.0019169687,-0.0010666918,-0.004572589,-0.00080518797,-0.0030435133,-0.002364582,-0.0014672203,0.0042529437,-0.0047787204,0.0008221927,-0.0022097044,-0.00023773318,-0.004939691,0.00049451547,-0.0024514429,-0.004350602,-0.0011604289,-0.0025460806,0.003517256,-0.002786128,0.0034844233,-0.00019811418,-0.002590975,-0.0039755385,0.003537941,-0.0006480294,0.0033249452,0.004947686,-0.0016583327,0.004536761,-0.0040162466,0.0007797763,0.0020759,0.004134413,-0.0044846954,-0.0005118381,-0.0023017016,0.0022416748,0.00024944454
princess,0.0036094561,0.0017004382,-0.00301964,-8.119273e-05,0.0017776913,-0.0026129615,-0.004793587,0.0041986564,0.0022204197,0.004196049,0.000906841,-0.004839285,0.002756705,-0.0036184995,0.003889504,-0.0027385568,-0.0016375574,0.0034136,-0.0018702367,-0.0022314028,-0.0039827176,0.0023418763,-0.0020635757,0.002728402,-0.003986451,-0.0022168206,0.0026438052,0.001343459,-0.0044054887,0.003814888,-0.0042577814,-0.0047546714,0.0001395916,0.004902885,-0.0018195402,0.00091458246,0.0017956923,-0.004866887,0.0016754111,-0.0034724155,0.0036197205,-0.00046708685,0.0012105322,-6.439915e-05,-3.721106e-05,6.900035e-05,-0.0044915825,-0.0047324724,0.0027328571,-0.00419896,0.0021404442,-0.004606202,0.00070086436,-0.003188052,0.003062614,0.0030589693,0.0005004826,-0.004228844,0.0023535567,-0.0014790117,-0.0017910504,-0.001025586,0.0029347516,-0.002921617,-0.0012765455,0.0024934188,-0.0024773527,0.0032368535,-0.0008245052,-0.0045949873,0.0010534385,-0.002156254,0.0024325517,-0.003106383,-0.004229063,0.000778221,-0.0033975616,0.0046846834,0.001225182,-0.00067675236,0.00186617,-0.002397225,0.0040439414,-0.0017603057,0.0021610511,-0.0024470456,0.00011694455,0.0038549928,0.0046651834,0.0016593676,-0.0022658862,0.00025977285,0.0009581406,-0.002214527,-0.0019134756,-0.00012635952,-0.0033029607,-0.0040277354,-0.0029671825,0.002411511
dwarf,0.0009947144,-0.00022030587,0.0008442904,0.0012835904,-0.0038721196,-0.0013999,-0.0022099908,0.0047484334,0.0023254985,-0.0048789573,-0.0023870047,0.0039344463,-6.2726234e-05,0.00034415346,-0.002206558,0.0030773194,0.0011709883,-0.0035939822,-0.0013140988,0.0026165603,8.234295e-05,-0.0006773377,-0.003476324,-0.0009596451,-0.0025330358,-0.0012134261,-0.0024698118,0.0012252039,-0.00324082,-0.00036891614,-0.0031998483,0.0016480989,-0.0020012252,-0.002130266,0.002641659,-0.0026854353,0.0020314588,0.0045276973,0.004071074,-0.0004471993,-0.0033928098,0.0049369964,-0.0033157303,0.0017873953,-0.00061353174,-0.002939975,0.0009914192,-0.0048091114,0.0024629445,-0.004501215,-0.0011459759,0.0034279972,-0.002947013,-0.0021691048,-0.0032838546,-0.0023431077,-0.0034912738,0.003475932,-0.0035972844,-0.00093262666,0.0016763073,-0.0031611144,0.0004345824,-0.0038984334,-0.0029596824,0.0026639027,0.00473342,0.0009782688,-0.0007065397,-0.003696395,0.0036641639,0.0015273137,0.0010369215,-0.0005619269,0.00010068504,0.0011465622,-0.0017021566,0.0033600656,-0.005010077,0.0036669925,0.0017438269,0.0027268138,0.0047627497,0.0027675522,-0.00025810814,-0.0028296884,0.0049184705,-0.0016976835,0.0024044863,0.003746103,0.0022640235,-0.0030670392,0.00491168,-0.0048138183,-0.0010854459,-0.0009298334,-0.0013176373,-0.0049868585,0.00082961924,-0.0015547342
queen,-0.004914679,0.0033593145,-0.0044567883,0.00021982758,-0.0032639625,0.0020736612,0.0030488006,0.0017641995,-0.004707855,-0.00024792308,0.004840972,-0.003409559,-0.0037750592,-0.00031364683,-0.0031268143,0.0024367692,-0.004463742,-0.0018612434,0.0046770787,-0.0020000418,0.0031847751,-0.0020073613,-0.00055815,0.004679118,-0.005099973,0.00085168175,0.0039390684,-0.002526965,0.004488832,3.116669e-05,-0.00032332924,-0.003766848,-0.0022771694,0.0022641823,-0.0035593945,0.0032751232,-0.0023875276,-0.0049874657,-0.0015251561,-0.0043528345,0.002784694,-0.00022578407,0.00041555805,-0.00024634044,-0.0018454294,-0.0023167925,-2.1783299e-05,-0.0027707524,-0.001347389,-0.004771707,-0.0007276282,-0.001637579,-0.004730529,-0.0026735805,0.0025373616,0.0021056521,0.002546647,-0.0009415536,-0.004545141,-0.0025895352,0.0034450209,-0.001914571,-0.0016241324,-0.0021296681,0.003597376,0.0006745348,0.00037465888,-0.0042715045,0.0027168898,0.003542355,0.0022647544,0.0026520202,0.0036411763,0.0035300453,0.003067985,-0.004310309,-0.00036814783,0.0031185572,0.004034772,-0.004659457,-0.003937115,0.00094295904,-0.0028705902,-0.0010168807,0.0007686066,-0.0028944756,-0.0013578602,0.0034850906,-0.0017024657,0.0041460656,0.0032590341,-0.004352201,-0.003385574,-0.004533543,0.0045130234,-0.0009629618,0.00024399887,-0.0030487564,-0.0007528753,-0.0046880418
white,0.002778311,-0.0026777321,-0.0004553064,-0.0028810636,0.0012906552,0.0032131001,0.0028858483,-0.0020942183,0.001202549,0.004453804,0.002325568,-0.0027159064,-0.0031563079,-0.0031510652,-0.003307784,-0.0031370714,2.1425858e-05,-0.004686733,-0.0033670533,-0.0017426541,-0.0008613318,-0.0039704316,0.0036389043,-0.00030313345,-0.0031382653,-0.0029661804,-0.004736928,0.0016795243,0.004253651,0.0022992855,-0.0044748057,-0.0015427172,0.0018180378,0.0035897503,0.0030861858,-0.0010078344,-0.0022772674,0.003054469,0.003920637,0.00051185966,0.0010885795,-0.0021542667,-0.0010909879,-0.0033941602,-0.0025012358,0.0041396725,0.00031805845,-0.002057019,0.0019945318,0.001653189,-0.002567859,-0.0011091382,-0.0037355823,-0.0026577604,0.0027609654,0.0046065385,0.00239135,0.0048162485,-0.0017049458,-0.00022311721,-0.0037498495,-0.0032319303,-0.0019579672,-0.0010516916,-0.0045677386,0.002598499,0.004697065,-0.0046684016,-0.0027726148,0.0009246875,-0.0026152392,-0.0035229626,0.002737878,-0.0039689597,-0.00090320664,-0.0022883737,0.0005965191,0.0021052354,-0.0022488618,0.0024868941,-0.0014123053,-0.003839396,0.0017716653,-0.0035793527,0.003500981,0.0026115794,-0.0010843648,0.003801004,-0.0043346332,-0.0011941437,-0.0043693264,0.0017659087,0.002525737,-0.0024390253,0.003062108,0.0017309642,-0.0030461275,-0.0023794393,0.0023087014,-0.0029793594
band,0.003955059,0.0020808296,-0.002452272,0.00063161895,-0.0037438194,-0.0022488239,0.00016449849,0.0010891131,-0.0024105264,-0.0027903684,-0.0033533745,0.00095905893,0.0034825234,0.0040809144,-0.0008529717,-0.0016658225,0.0016687152,-0.0050433907,-0.0035074428,0.0023349435,-0.0022713013,0.0050792894,-0.0013580631,-0.004370728,-0.002692467,-0.0027915423,-0.004913513,-0.0012906479,-0.0034624625,-0.0041445033,-0.0034924413,-0.004445607,-0.0026005069,-0.0015257563,0.001020287,0.0045032306,-0.00023964127,-0.0027577586,0.004151603,0.00045940184,0.0029857175,-0.0041214153,-0.004660266,0.0020366833,0.004318848,1.536786e-05,-0.00090095255,0.00299075,0.0010042996,0.0049250945,-0.0006294911,-0.0007949534,-0.0014073914,0.0020490773,0.0046572853,-0.0010721554,-0.0044613434,0.0029348382,0.0003883349,-0.0002346285,0.0048398883,-0.002200429,-0.00075232267,-0.002798934,-0.0019500933,-0.004144515,-0.0014492302,0.004206868,0.0047562886,-0.000285794,0.00089281035,-0.0005607116,-0.0025391504,-0.0013222776,0.0018218573,-0.0015501044,0.005011461,0.0010899077,-0.0006496401,0.003153144,-0.0045709545,0.003233218,0.00040253164,-0.004702014,-0.00039311658,0.004243889,-0.0030072923,0.0033310042,-0.0049390583,0.00378325,0.001714612,-0.0013312713,0.0004675236,-0.0016187304,0.0039157644,-0.00428179,0.0013189501,-0.0041260906,0.0012595196,0.0046038623
friend,-0.00404205,-0.0047710123,-0.0010194777,0.00049110746,-0.0035624125,0.002876207,-0.0021799293,-0.00051774783,-0.002862026,0.0018932633,0.0030994357,0.0024991632,-0.0020171844,-0.0029221615,-0.0021993762,0.0024264273,-0.0048131067,0.0015176724,-0.0029037253,-0.000930436,-0.0017277155,-0.0023825793,-0.0018453056,-0.0045672944,0.0010558456,-0.0033133319,-0.0034921127,-0.0010655707,-0.0029466366,-0.001481387,-0.00048055025,0.0017008971,0.0041188877,0.0005827092,0.0043395013,0.004387698,0.004211293,-0.001207056,-0.0009305399,-0.0014980106,0.0001182888,-0.004654196,0.000697402,-0.003209335,0.0014200582,0.0026391535,-0.0018455933,-0.002195548,0.002549462,0.00030025505,-0.002118062,0.0040313853,0.002295411,-0.004038029,0.0025625222,-0.003901228,0.0038156023,-0.001661849,0.000480404,-0.004546967,-0.00498417,0.0017890986,0.00080804195,0.0028722452,-0.00034574993,0.004580543,-0.002046894,-0.00084253016,-0.004523057,-0.004291809,0.0024165201,0.0028291252,0.0007897487,0.00313353,0.00055475184,0.003942165,-0.004324742,0.0036234285,-0.0014161847,0.0022621169,0.004656442,-0.00010150702,0.0019399396,-0.002825389,0.003457228,0.0032638384,-0.0007427816,-0.003040332,0.0028266928,-0.00060850463,0.003162427,-0.0031131608,-0.003921594,-0.005036131,0.0020099166,0.0024533859,-0.00040200588,-0.00021719816,-0.003443099,0.0014625654
house,0.0030142444,0.003765721,-0.0018262905,0.0014124005,0.003760991,0.003146538,-0.0010352266,0.00067612954,1.9656507e-05,-0.003579,0.0043726293,0.0013053294,0.003198087,-0.004304786,0.004766761,-0.002262721,0.00093282084,-0.001588173,0.00043875372,0.0038409494,0.002835785,0.003619015,0.0009890359,-0.0028602956,0.0041414197,0.003820232,0.003900856,0.0045029055,-0.004293024,-0.00080072344,0.003140479,-0.0027499031,0.0046760393,0.0025926144,-0.0011404137,0.0016494401,0.0044876463,0.0022597138,0.0016892886,0.0016179909,0.0020194233,0.0020306602,-0.0016004125,-0.0048810593,0.0015487771,-0.0007714312,0.000683277,-0.0003243474,-0.0010702489,0.0025997553,0.00034603427,-0.0009921079,0.0040351967,0.0014543032,0.004655791,0.0046579866,0.0020717424,-0.0046264282,-0.0045963125,0.00199357,-0.004958883,-0.0048237904,-0.0034064832,-0.0029465149,0.00011471454,-0.002883748,0.0038154607,0.0017311041,-0.0015423361,-0.0017127906,-0.0016492088,0.0033850363,-0.0012360554,0.0025329825,-0.0018472553,-0.001754792,-0.0031472265,0.0021979073,-0.0016982805,0.0032267566,0.00034341472,0.0009989743,0.004605536,0.0028317184,0.0034953987,0.0021850693,-0.004133064,-0.002748759,0.0006577903,0.0028244252,0.002400587,-0.0015089766,0.0007198886,0.002166258,0.0042411224,-0.0013847282,-0.001392026,0.0013493841,0.000962063,0.004137936
battle,0.0037084313,-0.0017229572,0.0021748259,-0.004767095,-0.003989435,-0.0028017631,-0.0015446648,-0.0043740263,-0.00094509224,-0.0033517634,-0.0013074522,-0.0013827455,0.00436084,0.0003153344,0.0019344883,0.001709224,0.003315085,-0.0009243495,0.0003077512,0.003396152,0.0028677364,-0.0022733253,-0.00085223396,0.0030292321,-0.0035274155,0.002620637,-0.0010918634,-0.0035692146,0.0009244708,-0.0023858182,0.0048823557,-0.00026273052,0.0029778292,0.0032094258,-0.002821648,-0.002370646,0.0022605597,0.0011379689,0.0003108938,0.0031809716,-0.0015759283,-0.0033399272,-0.0033108254,-0.0035168545,-0.004562066,0.00023216817,-0.0020995254,-0.0039543984,-0.00406302,-0.004273025,0.0011043755,0.0010793462,0.0037204612,-0.0045112013,0.0035594574,-0.0027589859,0.0012010148,0.00424579,0.00066810165,-0.0041010026,-0.0028233875,0.0006466511,0.00012334772,0.0024981266,-0.0023096085,-0.00077814504,-0.0029337194,-0.00074009335,-0.0027500521,0.00026371112,0.0012961393,-0.0035241419,0.0017078585,0.00021161183,-0.004072379,0.0047752685,0.0012108942,0.002431835,-0.004559804,0.0045865066,-0.0015871294,9.4455114e-05,0.004070713,0.0009077547,-0.004773335,0.0020646132,0.00052250095,0.0020886888,0.0032912141,0.0013401549,0.0033037828,-0.002165649,-0.0028929661,0.003037083,-0.00023049596,0.0035779325,-0.0046160105,-0.0035302767,0.002668418,-0.00078030676
of,-0.00025069018,0.002392523,-0.0028034628,-0.0055015064,0.003750788,0.000572518,-0.0037261087,0.000275811,-0.0041325013,0.00021054478,0.0018740416,-0.003357232,0.0047763684,0.0023677931,0.001911692,-0.00071744446,-0.004898571,0.0039676167,0.005017559,-0.0018153372,-0.0029117763,-0.0037569285,-0.0006616857,-0.0047312654,-0.0011081889,-0.0020576662,0.0018229479,-0.0051829796,0.0016335418,-0.00015967178,0.0038877048,0.0006803229,-0.004210667,0.002790644,-0.0026005264,-0.00050227164,-0.004167025,-6.9300906e-05,0.0043994,-0.0043750503,-0.0020490005,-0.0045770896,-0.0030475662,0.0023574047,0.0018176383,-0.0045497688,-0.0046173376,-0.0012927284,0.0031966725,-0.002064054,0.0012011253,-0.0015934757,0.0015816517,-0.0030673733,-0.002625969,-0.0024184901,-0.0030674967,-0.0012919545,0.0026632263,0.0027173276,0.0023235304,-0.00024256909,0.00066865067,0.00047196614,-0.0007287119,-0.0033877501,0.00026341996,-0.0008623018,0.0044570966,-0.00469475,-0.001610922,0.00083284284,-0.0002450319,0.00023571555,-0.0003108676,0.00233724,-0.0027760356,-0.0017523741,-0.0019915937,-0.00086549984,0.00029439083,0.00016321945,0.0020055855,-0.0032161688,0.0025244697,-0.0012214631,0.0029703223,-0.004166584,0.0042243185,-0.0017313518,0.00182003,0.004245707,-0.0027549535,-0.0034407333,0.0006783594,-0.0018373292,-0.0034528112,-0.002375875,0.0021586525,0.0011127115
the,9.906869e-05,-0.005188363,0.0018176934,-0.0036643879,0.0050765006,-0.0011561875,-0.0049916655,0.0034473336,0.0022124099,0.00021021093,-0.0047062533,0.0033254968,0.004197739,-0.003442205,0.0013059092,0.0035453404,-0.0007808447,-0.00372821,-0.0028275277,-0.0037705048,0.0023592096,0.0018599338,-0.0018089518,-0.0016722183,0.0024233768,0.00012799058,0.0031168603,0.0010269508,-0.0018872268,-0.0007712081,0.0035016476,0.0023644571,0.00027949616,-0.0013706242,0.0032379895,0.004567689,0.0005101228,0.003816703,-0.0017256947,0.0041789566,-0.0010410909,0.0041850116,0.0023290515,-0.0015249475,0.004308841,-0.0006040519,-0.002401443,-0.0049974034,0.0010948183,0.0026876284,-0.005145762,0.001910031,0.0037003595,-0.002230145,-0.0028722843,0.0009331971,0.003720862,-0.0027518482,0.00095805555,0.0029493466,0.0048078755,-0.0001267871,0.0010425067,-0.00408411,-0.0024356355,-0.0031398882,0.0024699743,-0.0009994617,0.0047270204,0.0013338358,0.004441285,0.003525314,-0.0033546071,-0.0034785161,0.0031223334,0.0015773883,0.0028692398,0.004218567,-0.00066801393,-0.0028992197,0.002183577,0.0028841433,-0.004101183,-0.0031569644,-0.0019212532,-0.00391701,-0.0016019586,0.0015600733,0.0039971396,0.0048825084,0.0030824854,0.0028642437,-0.0037600247,-0.0023430574,0.0020755948,-0.004795853,-0.004487212,0.001122094,-0.0015475994,0.001329362
evil,-0.0010533106,-0.00359577,0.00078627863,-0.005362426,-0.003728373,0.00454811,-0.0040711616,-0.0019861793,-0.0046532503,-0.0011928745,0.002235643,0.00037699577,0.0026213953,-0.0017816357,-0.00043107368,-0.0011081449,-0.0040546623,0.0019308946,0.0046878285,0.0044284314,0.00254004,0.0039011082,-0.00276748,0.004839247,0.004577798,0.0015667027,0.0017538323,-0.003799764,0.003676045,-0.0039645904,-0.0007460815,-0.0050222953,0.0025676745,-0.002270491,-0.0031439592,-0.002143075,-0.0026052555,0.0014988641,0.003203765,0.003321458,-0.004837911,-0.004865124,-0.004670282,0.0010107162,-0.00070984603,-0.0027486174,-0.00289154,-0.000292269,-0.0045012604,-0.002138237,-0.0021348211,0.004917809,0.0015854596,-0.0035760899,-0.0026072378,0.0024800475,0.0014519994,0.0043683923,-0.0026366077,-0.0038076171,-0.002090504,0.0020122256,-0.0031599428,-0.003371814,0.0019023666,-0.005050359,0.00090345833,-0.001047245,0.00073808804,-0.00097488746,-2.693111e-05,0.00072907767,-0.003936851,-0.005143468,0.004275348,-0.0029017762,-0.0048272396,0.00069005747,0.00470395,-0.00023796973,-0.004067792,-0.0047296085,0.0041449484,-0.00043508486,-0.0043966128,0.0035805127,0.0028927685,0.0010915019,-0.003388852,0.001183749,0.0041862344,-0.0030722045,-0.00036835033,-0.0017997533,-0.00015709658,-0.0024225293,-0.0054273997,-0.003215762,-0.0033444073,-0.004538769
witch,0.00431019,0.0018269927,-0.0020911894,0.0042918087,-0.002156619,0.0012180078,-0.0011988775,0.0024217227,-0.003100364,-0.004573275,-0.0015441698,0.0029998717,-0.00046229895,-0.0033598687,0.0006029389,0.00045521988,-0.0042938218,-0.004156891,-0.0026192607,0.0036212502,-0.0013187785,0.0029110985,0.0009927693,0.0026221161,0.0041526486,-0.004167677,0.004939056,0.004855573,0.0022117568,-0.0026309714,0.00039047928,-0.0017384219,-0.004413492,0.0015409491,-0.0049367268,-0.0036704522,-0.0026868149,0.0024328916,0.0005495652,-0.004637215,0.0028917927,0.002542007,0.0020125716,0.0029080624,-0.0031662027,-0.004284745,0.0029087758,-0.00054257666,0.0011536272,0.0045770416,-0.00018178753,0.0037662152,0.0018772214,-0.0013372506,-0.004618882,-0.0030085866,0.0041773757,-0.0029287576,0.00090044056,0.0035424042,-0.0020011398,0.004507793,-0.0012768522,0.004722779,-0.0012411572,0.0016560273,-0.0010529386,-0.00076559925,-0.0028661785,0.003539172,0.0009283616,-0.0013819884,-0.001243924,-0.0032612479,-0.0029518586,-0.00022402039,-0.0038205644,0.0027891425,0.004804586,-0.0011672,-0.0020996293,-0.004095043,-0.0035228154,0.002474711,0.003444043,-0.0023807597,0.002776221,0.00041520543,-0.000955197,-0.0018773769,0.0013231135,-0.0014176925,-0.0046605067,-0.004385983,0.0035390113,-0.0030243997,-0.0015303196,-0.0032678118,-0.0039554155,-0.0021621564
wizard,-0.0014828931,-0.0014801283,-0.0015889402,-0.0032637983,0.0012479221,0.003069414,-0.0011665017,-0.003049632,0.0008195052,-0.0016842422,0.004830099,-0.00059303176,-0.0014841127,0.0025817794,-0.003841056,-0.00077471876,-0.0023309938,0.0009237162,0.003644106,0.00011746718,0.0034867804,0.0012718576,0.000564471,-0.002912397,0.002667663,0.0025839435,0.0027404937,-0.005140772,-0.0009485585,-0.0013004869,-0.00085950736,0.0004214332,-0.0016854001,0.002514713,0.0041186986,0.004703103,0.0048184087,0.001965151,-0.00010800293,0.0018511468,0.00022457201,0.00088184176,-0.00036597144,0.00046094094,-0.0032285305,-0.0010544916,0.0037866398,-0.0010676676,0.0009677065,-0.002227841,0.0009314839,0.00021104081,0.0021447833,-0.0025919436,-0.004244768,-0.004846898,0.0020228978,0.0016006322,-0.0032682228,0.000971938,0.0046929233,0.0027802608,0.0048191785,0.002002324,0.00050042965,-0.00012994288,0.0016099459,-0.0033482024,0.0017080962,0.0021006854,-0.0037992569,-0.0026513124,0.0028777893,0.0031893034,0.0009512984,0.0017468816,-0.0047141537,0.0022066203,-0.0014968885,0.0011267471,-0.0009916999,-0.0030969314,-0.0036148939,0.0005702092,-0.0012571943,-0.003876949,-0.0030878305,-0.003726247,0.004387528,0.0030535492,-0.0018287428,-0.0018964191,-0.0019945449,0.00280277,1.9421434e-05,-0.0028254024,-0.0028618951,0.004132638,-0.00046520462,-0.004603363
oz,-0.0032216741,-0.0026250356,-0.000976653,0.004238639,0.0021673394,-0.0039523467,-0.000672047,-0.0015557713,0.00394334,0.0034478486,0.002125499,0.0022507838,0.003950517,-0.0030017246,0.0008470697,-0.0030915684,-0.0034188393,0.0011494987,0.004405164,0.0026284,-0.0023096942,-0.0017929805,4.0816292e-05,0.0046583777,0.0048783193,-0.0024126694,-0.0039970493,0.0005059832,-0.004918652,0.003367373,-0.0047205784,0.00427998,-0.0037804772,-0.0040735994,-0.0022570766,-0.0021171912,0.0025713912,0.0016220293,0.0002829205,0.00470454,-0.0014618436,-0.0022034226,0.004953339,0.003724662,7.398697e-05,-0.0031845893,-0.001932137,-0.00184405,0.0050349156,0.0034779476,-0.0048974412,0.0007981708,-0.0024405457,0.00031607307,0.000542249,0.0015413193,0.00095391436,0.0044598877,-0.0034601262,-0.0010315039,-0.00021259123,0.0014929525,0.0010272121,-0.0015423729,-0.0010418099,-0.001075033,0.0033326503,-0.0038059948,-0.002164483,-0.0007737816,0.0027799176,0.0049280305,0.00066601316,0.002713085,0.0009551858,-0.0019018969,-0.0033054433,-0.0009784813,0.002988323,-0.0041207764,-0.0015550212,0.0049089505,-0.0034202707,-0.00039214303,0.0045383517,0.0013800246,0.0038239132,0.0022959148,-0.0008310782,0.0004119474,-0.004146903,0.0005390842,0.0012869617,-0.0040733945,-0.0026734583,-0.0009867237,0.0013022713,0.003738581,-0.0032713271,0.00021690478
